tree
version=v3
num_class=2
num_tree_per_iteration=2
label_index=0
max_feature_idx=10
objective=multiclass num_class:2
feature_names=Pclass Sex Age SibSp Parch Fare cross1 cross2 Embarked_C Embarked_Q Embarked_S
feature_infos=[1:3] [0:1] [0.41999999999999998:80] [0:8] [0:5] [0:512.32920000000001] [0:1536.9875999999999] [0:320] [0:1] [0:1] [0:1]
tree_sizes=1651 1664 1569 1668 1659 1674 1654 1577 1779 1675 1801 1793 1798 1696 1484 1492 1481 1383 1801 1803 1780 1683 1781 1884 1779 1777 1783 1806 1690 1790 1581 1587 1778 1581 1585 1780 1603 1603 1585 1482 1587 1697 1586 1676 1598 1881 1695 1704 1674 1681 1904 1810 1801 1907 1805 1901 1707 1705 1892 1694 1594 1598 1804 1802 1696 1917 1694 1695 1699 1710 2015 1810 1806 1681 2217 1802 1597 1575 1696 1701 2187 1591 1597 1695 1377 1593 1490 1479 1494 1488 2011 1906 1808 1913 1917 1905 1804 1910 1893 1803 1775 1805 1709 1809 1787 1808 1810 1700 1705 1806 1881 1914 1901 1902 1891 1892 1803 1895 1807 1806 2014 2016 2003 2023 1909 1897 2015 2003 1910 1906 1707 1703 1709 1704 1697 1708 1713 1613 1605 1695 1673 1605 1604 1502 1602 1604 1504 1492 1595 1492 1901 1893 1433 2015 2008 2011 1889 1888 1981 1981 2006 1809 1811 1594 1799 1803 1705 1904 1804 1900 1584 1473 1474 1473 1250 1578 1472 1469 1587 1255 1480 1795 1594 1798 1800 1798 1589 1558 1561 1485 2226 2230 1277 2231 1914 1912 2224 2228 1917 1899 1704 1706 1596 1598 1703 1279 1597 1494 1807 1808 1499 1364 1352 1353 1367 1368 1357 1358 1681 1762 1608 1604 1598 1277 1606 1602 1511 1503 1601 1275 1490 1488 1377 1375 1391 2121 1497 1597 1823 1388 1473 1495 1469 1493 1814 1499 1468 1479 1478 1701 1284 1489 1280 1280 1372 1373 2111 1487 1371 1372 1882 1879 1489 1702 1592 1053 1593 1593 1492 1595 1896 1807 1891 1692 1913 1889 1687 1679 1899 1897 1488 1497 1715 1711 1597 1493 1710 1708 1483 1489 1382 1600 1146 1175 1582 1259 1254 1169 1044 1051 1815 1788 1788 1819 1789 1792 858 1795 863 1793 1599 1600 1603 1821 1780 1598 1725 1599 1596 1714 1814 1488 1812 1811 1921 1915 1913 2004 1808 1804 1072 1382 1387 1070 1600 1508 1079 1599 1059 1071 1474 1467 1670 1471 1474 1469 1692 1680 1691 1464

Tree=0
num_leaves=15
num_cat=0
split_feature=1 0 6 7 2 10 5 6 8 5 2 2 5 5
split_gain=85.2243 24.0791 8.67355 4.69582 4.38914 2.18593 1.57071 1.184 1.08904 0.508101 0.443137 0.662566 0.159256 0.073966
threshold=1.0000000180025095e-35 2.5000000000000004 55.997900000000008 17.500000000000004 13.500000000000002 1.0000000180025095e-35 30.597900000000003 155.01255 1.0000000180025095e-35 17.900000000000002 28.500000000000004 32.250000000000007 29.412500000000005 126.82500000000002
decision_type=2 2 2 2 2 2 2 2 2 2 2 2 2 2
left_child=1 12 4 5 -2 -3 -4 -8 10 -5 -6 -12 -1 -14
right_child=2 3 6 9 8 -7 7 -9 -10 -11 11 -13 13 -15
leaf_value=-0.49409711393197753 -0.47427295442597794 -0.4884253314854165 -0.47820056365647517 -0.47225334897975108 -0.458699945306695 -0.47517573650581035 -0.46517867544240676 -0.47292225149388634 -0.46597481976695843 -0.46609350903351049 -0.46584248008041246 -0.45989996226139729 -0.49873858288474532 -0.4943471761850754
leaf_weight=21.59462171792984 9.8584142625331861 11.736207455396652 11.73620745539665 9.8584142625331896 65.253313452005386 9.3889659643173218 13.614000648260118 17.839035332202911 14.552897244691847 10.327862560749052 12.675104051828383 27.697449594736099 24.411311507225037 9.38896596431732
leaf_count=46 21 25 25 21 139 20 29 38 31 22 27 59 52 20
internal_value=-0.472253 -0.487632 -0.464195 -0.476018 -0.461616 -0.482631 -0.472008 -0.469634 -0.460561 -0.469196 -0.459834 -0.461716 -0.496257 -0.497578
internal_weight=0 96.7063 173.226 41.3115 130.037 21.1252 43.1892 31.453 120.179 20.1863 105.626 40.3726 55.3949 33.8003
internal_count=575 206 369 88 277 45 92 67 256 43 225 86 118 72
shrinkage=1


Tree=1
num_leaves=15
num_cat=0
split_feature=1 0 0 2 7 10 8 5 2 2 2 5 5 5
split_gain=85.2243 24.0791 7.66853 7.7988 4.69582 2.18593 1.25781 0.508101 0.405544 0.573911 0.400847 0.255197 0.159256 0.073966
threshold=1.0000000180025095e-35 2.5000000000000004 1.5000000000000002 9.5000000000000018 17.500000000000004 1.0000000180025095e-35 1.0000000180025095e-35 17.900000000000002 28.500000000000004 32.250000000000007 43.500000000000007 52.277100000000011 29.412500000000005 126.82500000000002
decision_type=2 2 2 2 2 2 2 2 2 2 2 2 2 2
left_child=1 12 10 -4 5 -3 8 -6 -5 -10 11 -2 -1 -14
right_child=2 4 3 6 7 -7 -8 -9 9 -11 -12 -13 13 -15
leaf_value=-0.95524716594889281 -0.97719021472086443 -0.96091894839545378 -0.96990822344633432 -0.99050744601342544 -0.9770909309011192 -0.97416854337505998 -0.9832673694985764 -0.98325077084735979 -0.9838455557737108 -0.98938082366374769 -0.97968033227253248 -0.97304260167930878 -0.95060569699612496 -0.95499710369579494
leaf_weight=21.59462171792984 12.675104051828386 11.736207455396652 9.38896596431732 69.478348135948181 9.8584142625331896 9.3889659643173218 16.430690437555313 10.327862560749052 13.144552350044249 27.228001296520233 15.022345542907713 9.8584142625331861 24.411311507225037 9.38896596431732
leaf_count=46 27 25 20 148 21 20 35 22 28 58 32 21 52 20
internal_value=-0.977091 -0.961712 -0.985149 -0.987363 -0.973326 -0.966713 -0.988677 -0.980148 -0.989467 -0.987628 -0.977098 -0.975464 -0.953087 -0.951766
internal_weight=0 96.7063 173.226 135.671 41.3115 21.1252 126.282 20.1863 109.851 40.3726 37.5559 22.5335 55.3949 33.8003
internal_count=575 206 369 289 88 45 269 43 234 86 80 48 118 72
shrinkage=1


Tree=2
num_leaves=14
num_cat=0
split_feature=1 0 6 10 2 5 6 8 5 2 2 5 5
split_gain=81.5699 22.6513 8.43187 4.2711 4.2516 1.53553 1.14708 1.06172 0.83808 0.43248 0.646446 0.138842 0.0584568
threshold=1.0000000180025095e-35 2.5000000000000004 55.997900000000008 1.0000000180025095e-35 13.500000000000002 30.597900000000003 155.01255 1.0000000180025095e-35 15.875000000000002 28.500000000000004 32.250000000000007 29.412500000000005 126.82500000000002
decision_type=2 2 2 2 2 2 2 2 2 2 2 2 2
left_child=1 11 4 -3 -2 -4 -7 9 -5 -6 -11 -1 -13
right_child=2 3 5 8 7 6 -8 -9 -10 10 -12 12 -14
leaf_value=-0.021184203279219022 -0.001956968572476347 -0.011221975936217569 -0.0058871576149993922 -0.0014042363132803441 0.013376385675931182 0.00697572756435618 -0.00065046348673717812 0.0061733730123154119 0.0060744861346761483 0.0063001546582767852 0.012186275923128787 -0.0256315150057136 -0.021424262577847068
leaf_weight=21.819277703762054 9.8727919459342939 17.455107063055038 11.751341372728346 13.627499908208849 64.810288965702057 13.573056638240816 17.846980422735214 14.507633984088896 10.301868736743925 12.633408039808272 27.528241008520126 24.716697931289673 9.4877171516418439
leaf_count=46 21 37 25 29 139 29 38 31 22 27 59 52 20
internal_value=0 -0.0149624 0.00793003 -0.00368347 0.0104847 0.000229113 0.0025803 0.0115296 0.00173186 0.0122508 0.0103845 -0.0232583 -0.024523
internal_weight=0 97.4082 172.524 41.3845 129.352 43.1714 31.42 119.48 23.9294 104.972 40.1616 56.0237 34.2044
internal_count=575 206 369 88 277 92 67 256 51 225 86 118 72
shrinkage=0.02


Tree=3
num_leaves=15
num_cat=0
split_feature=1 0 6 7 2 10 7 6 6 8 6 2 2 6
split_gain=81.5699 22.6513 8.43187 4.48642 4.2516 2.06674 1.45908 1.4079 1.3289 1.06172 0.490772 0.43248 0.646446 0.0556182
threshold=1.0000000180025095e-35 2.5000000000000004 55.997900000000008 17.500000000000004 13.500000000000002 1.0000000180025095e-35 48.500000000000007 91.793700000000015 156.83130000000003 1.0000000180025095e-35 17.900000000000002 28.500000000000004 32.250000000000007 52.250000000000007
decision_type=2 2 2 2 2 2 2 2 2 2 2 2 2 2
left_child=1 13 4 5 -2 -3 7 -4 -9 11 -5 -6 -13 -1
right_child=2 3 6 10 9 -7 -8 8 -10 -11 -12 12 -14 -15
leaf_value=0.021056894858862887 0.001956968572476347 0.015724948443763046 0.0065166468970142043 0 -0.013376385675931182 0.0028597862694099332 -0.007250890556500942 -0.0072331273038924882 0.0030976008673386114 -0.0061733730123154119 -0.0060554599457745004 -0.0063001546582767852 -0.012186275923128787 0.024172166105961474
leaf_weight=17.075956463813782 9.8727919459342939 11.827503889799118 14.09135454893112 9.8584142625331896 64.810288965702057 9.4024652242660522 9.3741014003753644 9.3691380620002764 10.336784422397612 14.507633984088896 10.296092331409453 12.633408039808272 27.528241008520126 38.947736322879791
leaf_count=36 21 25 30 21 139 20 20 20 22 31 22 27 59 82
internal_value=0 0.0149624 -0.00793003 0.00368347 -0.0104847 0.0101213 -0.000229113 0.00165929 -0.00171263 -0.0115296 -0.00299871 -0.0122508 -0.0103845 0.0232583
internal_weight=0 97.4082 172.524 41.3845 129.352 21.23 43.1714 33.7973 19.7059 119.48 20.1545 104.972 40.1616 56.0237
internal_count=575 206 369 88 277 45 92 72 42 256 43 225 86 118
shrinkage=0.02


Tree=4
num_leaves=15
num_cat=0
split_feature=1 0 6 7 2 5 6 8 5 5 2 2 5 5
split_gain=78.12 21.3627 8.18045 4.33534 4.12904 1.46922 1.11795 1.03557 0.868237 0.473104 0.422594 0.629641 0.124627 0.054562
threshold=1.0000000180025095e-35 2.5000000000000004 55.997900000000008 17.500000000000004 13.500000000000002 30.597900000000003 155.01255 1.0000000180025095e-35 7.8417000000000003 17.900000000000002 28.500000000000004 32.250000000000007 29.412500000000005 126.82500000000002
decision_type=2 2 2 2 2 2 2 2 2 2 2 2 2 2
left_child=1 12 4 8 -2 -4 -7 10 -3 -5 -6 -12 -1 -14
right_child=2 3 5 9 7 6 -8 -9 -10 -11 11 -13 13 -15
leaf_value=-0.020561175482482336 -0.0019159835462607829 -0.014169451877091512 -0.0057456726454131347 0 0.013203421205079056 0.0068783375082348336 -0.00065658853704771158 0.0060692466351044208 -0.005647571391366942 0.0059795090358086512 0.0061943264875674144 0.012020483595957086 -0.024868987447268676 -0.020761022626805643
leaf_weight=22.022826194763184 9.8822039067745191 10.43404805660248 11.786641240119932 9.8673664629459399 64.350745916366577 13.531965583562853 17.844138234853745 14.461866289377211 10.877794891595839 10.272430956363676 12.592673599719999 27.351546674966812 24.976917743682861 9.5813965797424299
leaf_count=46 21 22 25 21 139 29 38 31 23 22 27 59 52 20
internal_value=0 -0.0145694 0.00780498 -0.00360412 0.0103333 0.000223317 0.00252935 0.0113695 -0.00991364 0.00297329 0.0120853 0.0102338 -0.0225673 -0.0237879
internal_weight=0 98.0328 171.802 41.4516 128.639 43.1627 31.3761 118.757 21.3118 20.1398 104.295 39.9442 56.5811 34.5583
internal_count=575 206 369 88 277 92 67 256 45 43 225 86 118 72
shrinkage=0.02


Tree=5
num_leaves=15
num_cat=0
split_feature=1 0 0 2 7 10 8 5 2 2 2 5 5 5
split_gain=78.12 21.3627 7.20446 7.43733 4.33534 1.96962 1.19571 0.473104 0.389174 0.542362 0.388833 0.245709 0.124627 0.054562
threshold=1.0000000180025095e-35 2.5000000000000004 1.5000000000000002 9.5000000000000018 17.500000000000004 1.0000000180025095e-35 1.0000000180025095e-35 17.900000000000002 28.500000000000004 32.250000000000007 43.500000000000007 52.277100000000011 29.412500000000005 126.82500000000002
decision_type=2 2 2 2 2 2 2 2 2 2 2 2 2 2
left_child=1 12 10 -4 5 -3 8 -6 -5 -10 11 -2 -1 -14
right_child=2 4 3 6 7 -7 -8 -9 9 -11 -12 -13 13 -15
leaf_value=0.020561175482482336 -9.3480276464014895e-05 0.015361001290495146 0.0070372893773644933 -0.013076675362948896 0 0.0028142008699455628 -0.0059771701279271493 -0.0059795090358086512 -0.0065396539282834495 -0.011955185886956259 -0.002554613155545218 0.0039715751615708754 0.024868987447268676 0.020761022626805643
leaf_weight=22.022826194763184 12.671846240758898 11.899612098932266 9.417377829551695 68.550747752189636 9.8673664629459399 9.4122308492660522 16.333082646131516 10.272430956363676 13.058791548013685 26.88689661026001 15.007722884416578 9.8753159344196302 24.976917743682861 9.5813965797424299
leaf_count=46 27 25 20 148 21 20 35 22 28 58 32 21 52 20
internal_value=0 0.0145694 -0.00780498 -0.00997123 0.00360412 0.00991364 -0.0112704 -0.00297329 -0.0120488 -0.0102348 -8.06645e-06 0.00159825 0.0225673 0.0237879
internal_weight=0 98.0328 171.802 134.247 41.4516 21.3118 124.83 20.1398 108.496 39.9457 37.5549 22.5472 56.5811 34.5583
internal_count=575 206 369 289 88 45 269 43 234 86 80 48 118 72
shrinkage=0.02


Tree=6
num_leaves=15
num_cat=0
split_feature=1 0 6 7 2 5 6 8 5 5 2 2 5 5
split_gain=74.8653 20.1955 7.95688 4.14523 4.00127 1.43646 1.08315 1.01104 0.834984 0.456915 0.413373 0.615148 0.110457 0.0435855
threshold=1.0000000180025095e-35 2.5000000000000004 55.997900000000008 17.500000000000004 13.500000000000002 30.597900000000003 155.01255 1.0000000180025095e-35 7.8417000000000003 17.900000000000002 28.500000000000004 32.250000000000007 29.412500000000005 126.82500000000002
decision_type=2 2 2 2 2 2 2 2 2 2 2 2 2 2
left_child=1 12 4 8 -2 -4 -7 10 -3 -5 -6 -12 -1 -14
right_child=2 3 5 9 7 6 -8 -9 -10 -11 11 -13 13 -15
leaf_value=-0.01998631442556929 -0.0018552503019742882 -0.013835794488488172 -0.0056882947593005781 0 0.013037159467575254 0.0067825643590088197 -0.00063851625259347944 0.0059677484390733958 -0.005490671279751288 0.0058783494728942955 0.0060874898456005078 0.011862297156083312 -0.024144378644535492 -0.020180349905497243
leaf_weight=22.201273441314697 9.8957563042640668 10.492278873920442 11.800772994756697 9.8673664629459399 63.883530288934708 13.490413516759874 17.85174423456192 14.416362822055815 10.911718070507048 10.240546107292174 12.550696760416029 27.174529522657394 25.209538578987122 9.6591395139694196
leaf_count=46 21 22 25 21 139 29 38 31 23 22 27 59 52 20
internal_value=0 -0.0141988 0.00768288 -0.00352735 0.0101882 0.000208022 0.00249188 0.011215 -0.00967491 0.002917 0.0119258 0.0100882 -0.021926 -0.0231036
internal_weight=0 98.5819 171.064 41.5119 127.921 43.1429 31.3422 118.025 21.404 20.1079 103.609 39.7252 57.07 34.8687
internal_count=575 206 369 88 277 92 67 256 45 43 225 86 118 72
shrinkage=0.02


Tree=7
num_leaves=14
num_cat=0
split_feature=1 0 6 2 10 5 6 8 5 2 2 5 5
split_gain=74.8653 20.1955 7.95688 4.00127 3.97159 1.43646 1.08315 1.01104 0.773533 0.413373 0.615148 0.110457 0.0435855
threshold=1.0000000180025095e-35 2.5000000000000004 55.997900000000008 13.500000000000002 1.0000000180025095e-35 30.597900000000003 155.01255 1.0000000180025095e-35 15.875000000000002 28.500000000000004 32.250000000000007 29.412500000000005 126.82500000000002
decision_type=2 2 2 2 2 2 2 2 2 2 2 2 2
left_child=1 11 3 -2 -3 -4 -7 9 -6 -5 -11 -1 -13
right_child=2 4 5 7 8 6 -8 -9 -10 10 -12 12 -14
leaf_value=0.01998631442556929 0.0018552503019742882 0.010753679814869304 0.0056882947593005781 -0.013037159467575254 0.0012877778595941417 -0.0067825643590088197 0.00063851625259347944 -0.0059677484390733958 -0.005898623385725916 -0.0060874898456005078 -0.011862297156083312 0.024144378644535492 0.020180349905497243
leaf_weight=22.201273441314697 9.8957563042640668 17.600628703832626 11.800772994756697 63.883530288934708 13.66455799341202 13.490413516759874 17.85174423456192 14.416362822055815 10.246722817420958 12.550696760416029 27.174529522657394 25.209538578987122 9.6591395139694196
leaf_count=46 21 37 25 139 29 29 38 31 22 27 59 52 20
internal_value=0 0.0141988 -0.00768288 -0.0101882 0.00352735 -0.000208022 -0.00249188 -0.011215 -0.00170817 -0.0119258 -0.0100882 0.021926 0.0231036
internal_weight=0 98.5819 171.064 127.921 41.5119 43.1429 31.3422 118.025 23.9113 103.609 39.7252 57.07 34.8687
internal_count=575 206 369 277 88 92 67 256 51 225 86 118 72
shrinkage=0.02


Tree=8
num_leaves=16
num_cat=0
split_feature=1 0 6 7 2 10 7 6 6 8 6 2 2 6 2
split_gain=71.7836 19.1359 7.72401 4.00774 3.88807 1.85909 1.39664 1.29937 1.23456 0.987486 0.440436 0.40481 0.599906 0.0323657 0.00239264
threshold=1.0000000180025095e-35 2.5000000000000004 55.997900000000008 17.500000000000004 13.500000000000002 1.0000000180025095e-35 48.500000000000007 91.793700000000015 156.83130000000003 1.0000000180025095e-35 17.900000000000002 28.500000000000004 32.250000000000007 44.000000000000007 19.500000000000004
decision_type=2 2 2 2 2 2 2 2 2 2 2 2 2 2 2
left_child=1 13 4 5 -2 -3 7 -4 -9 11 -5 14 -13 -1 -6
right_child=2 3 6 10 9 -7 -8 8 -10 -11 -12 12 -14 -15 -16
leaf_value=-0.018703320168043457 -0.0018165178359283597 -0.014739198373531999 -0.0062891792911113119 0 0.011180601209046299 -0.0025891566589754146 0.0070946831884583263 0.0069672207210209015 -0.0030066294543931384 0.0058672633475904548 0.0058047017980152171 0.005985436740596887 0.011705059325944739 -0.021953048339238831 0.013340020246779494
leaf_weight=11.664052963256834 9.9045323431491834 12.017177790403366 14.156418979167936 9.8756352066993731 14.595312118530272 9.4594768881797791 9.3268219232559186 9.2898800671100634 10.35808092355728 14.370463013648985 10.216593861579893 12.509811043739317 26.990635603666306 45.830407500267029 48.806570410728455
leaf_count=24 21 25 30 21 32 20 20 20 22 31 22 27 59 94 107
internal_value=0 -0.0138475 0.00756341 -0.00345221 0.0100442 -0.00948079 0.000202181 -0.00164034 0.00160738 0.011063 0.00289221 0.0117691 0.00994428 -0.0213286 0.0128745
internal_weight=0 99.0633 170.309 41.5689 127.177 21.4767 43.1312 33.8044 19.648 117.273 20.0922 102.902 39.5004 57.4945 63.4019
internal_count=575 206 369 88 277 45 92 72 42 256 43 225 86 118 139
shrinkage=0.02


Tree=9
num_leaves=15
num_cat=0
split_feature=1 0 0 2 7 10 8 5 2 2 2 5 5 5
split_gain=71.7836 19.1359 6.76249 7.1086 4.00774 1.85909 1.13923 0.440436 0.382481 0.374475 0.513911 0.237818 0.098732 0.0346781
threshold=1.0000000180025095e-35 2.5000000000000004 1.5000000000000002 9.5000000000000018 17.500000000000004 1.0000000180025095e-35 1.0000000180025095e-35 17.900000000000002 43.500000000000007 28.500000000000004 32.250000000000007 52.277100000000011 29.412500000000005 126.82500000000002
decision_type=2 2 2 2 2 2 2 2 2 2 2 2 2 2
left_child=1 12 8 -4 5 -3 9 -6 11 -5 -11 -2 -1 -14
right_child=2 4 3 6 7 -7 -8 -9 -10 10 -12 -13 13 -15
leaf_value=0.019447315475109285 -8.8527239839210803e-05 0.014739198373531999 0.0069132944976388203 -0.012755328220859272 0 0.0025891566589754146 -0.0057849786890274276 -0.0058047017980152171 -0.0025439124390439138 -0.0063324451784629874 -0.011638005817669866 0.0039068822599939894 0.02347447283213722 0.019636220304057869
leaf_weight=22.35862398147583 12.66627621650696 12.017177790403366 9.4410268068313581 67.571696817874908 9.8756352066993731 9.4594768881797791 16.23506361246109 10.216593861579893 15.001434892415999 12.972588032484053 26.530971437692642 9.8894686102867109 25.408288717269897 9.7275477647781354
leaf_count=46 27 25 20 148 21 20 35 22 32 28 58 21 52 20
internal_value=0 0.0138475 -0.00756341 -0.00968326 0.00345221 0.00948079 -0.0109702 -0.00289221 -1.7218e-05 -0.0117377 -0.00994634 0.00157457 0.0213286 0.0224688
internal_weight=0 99.0633 170.309 132.751 41.5689 21.4767 123.31 20.0922 37.5572 107.075 39.5036 22.5557 57.4945 35.1358
internal_count=575 206 369 289 88 45 269 43 80 234 86 48 118 72
shrinkage=0.02


Tree=10
num_leaves=16
num_cat=0
split_feature=1 0 10 2 0 5 7 5 10 5 5 2 2 2 2
split_gain=68.4456 19.4096 8.05461 6.94634 7.43493 2.39902 1.03513 1.46093 0.391471 0.540533 0.462605 0.372167 0.00689417 0.0800234 0.0613453
threshold=1.0000000180025095e-35 2.5000000000000004 1.0000000180025095e-35 9.5000000000000018 1.5000000000000002 17.900000000000002 21.500000000000004 33.250000000000007 1.0000000180025095e-35 13.208350000000001 12.500000000000002 38.500000000000007 27.500000000000004 43.500000000000007 20.250000000000004
decision_type=2 2 2 2 2 2 2 2 2 2 2 2 2 2 2
left_child=1 12 -3 -2 6 -4 7 -5 10 11 -6 -10 14 -14 -1
right_child=3 2 5 4 8 -7 -8 -9 9 -11 -12 -13 13 -15 -16
leaf_value=-0.021339484019752206 -0.0089047331665290472 -0.014185123064399228 -0.00092745878749676955 -0.00135839179854985 0.010566980971561659 0.011384044841916852 -0.0036987356176528914 0.0092128094058279743 0.01123348747402797 0.014481779730090497 0.0044794177524538903 0.0063262584575688357 -0.023146932106730946 -0.019081607541345292 -0.016969002090154398
leaf_weight=11.769915550947191 9.4643525183200818 16.783201724290848 17.447639465332035 11.309594959020616 16.505384176969532 9.7147536575794202 14.083865791559218 9.3176171481609327 63.576357811689377 23.686120301485062 9.1896264255046827 9.0839523077011091 24.51543116569519 10.30414295196533 9.7992778420448285
leaf_count=24 20 35 37 24 36 21 30 20 140 52 20 20 50 21 20
internal_value=0 -0.0132874 -0.00326905 0.00763072 0.00864185 0.00340218 0.000414452 0.00331982 0.0109655 0.0116109 0.00846765 0.0106475 -0.0210596 -0.0220013 -0.0194466
internal_weight=0 100.334 43.9456 166.217 156.753 27.1624 34.7111 20.6272 122.041 96.3464 25.695 72.6603 56.3888 34.8196 21.5692
internal_count=570 208 93 362 342 58 74 44 268 212 56 160 115 71 44
shrinkage=0.02


Tree=11
num_leaves=16
num_cat=0
split_feature=1 0 2 0 5 7 5 2 5 5 8 5 2 2 2
split_gain=68.4456 19.4096 6.94634 7.43493 4.51758 1.03513 1.46093 1.00272 0.543191 0.391022 0.362463 0.0915769 0.00689417 0.0800234 0.0613453
threshold=1.0000000180025095e-35 2.5000000000000004 9.5000000000000018 1.5000000000000002 22.762500000000003 21.500000000000004 33.250000000000007 19.500000000000004 7.910400000000001 26.125000000000004 1.0000000180025095e-35 13.208350000000001 27.500000000000004 43.500000000000007 20.250000000000004
decision_type=2 2 2 2 2 2 2 2 2 2 2 2 2 2 2
left_child=1 12 -2 5 7 6 -4 -3 -9 10 11 -5 14 -14 -1
right_child=2 4 3 9 -6 -7 -8 8 -10 -11 -12 -13 13 -15 -16
leaf_value=0.021339484019752206 0.0089047331665290472 0.011889313244441051 0.00135839179854985 -0.010603584984185462 -0.0090463694031144223 0.0036987356176528914 -0.0092128094058279743 0.0079933476644003642 0.001636569423865551 -0.015325972808930742 -0.0071801358500244907 -0.01296376151965394 0.023146932106730946 0.019081607541345292 0.016969002090154398
leaf_weight=11.769915550947191 9.4643525183200818 10.493254840373991 11.309594959020616 80.385928511619568 9.2652126848697645 14.083865791559218 9.3176171481609327 9.6173855066299456 14.569741815328596 9.6279044747352582 14.33170500397682 17.695903033018112 24.51543116569519 10.30414295196533 9.7992778420448285
leaf_count=24 20 22 24 177 20 30 20 20 31 21 31 39 50 21 20
internal_value=0 0.0132874 -0.00763072 -0.00864185 0.00326905 -0.000414452 -0.00331982 0.00661691 0.00424687 -0.0109655 -0.0105742 -0.0110498 0.0210596 0.0220013 0.0194466
internal_weight=0 100.334 166.217 156.753 43.9456 34.7111 20.6272 34.6804 24.1871 122.041 112.414 98.0818 56.3888 34.8196 21.5692
internal_count=570 208 362 342 93 74 44 73 51 268 247 216 115 71 44
shrinkage=0.02


Tree=12
num_leaves=16
num_cat=0
split_feature=1 0 2 0 5 7 5 2 5 5 8 5 2 2 2
split_gain=65.7108 18.4637 6.70418 7.23129 4.35183 0.993852 1.4121 0.966833 0.514231 0.385247 0.356306 0.0894166 0.000422211 0.0689382 0.0528001
threshold=1.0000000180025095e-35 2.5000000000000004 9.5000000000000018 1.5000000000000002 22.762500000000003 21.500000000000004 33.250000000000007 19.500000000000004 7.910400000000001 26.125000000000004 1.0000000180025095e-35 13.208350000000001 27.500000000000004 43.500000000000007 20.250000000000004
decision_type=2 2 2 2 2 2 2 2 2 2 2 2 2 2 2
left_child=1 12 -2 5 7 6 -4 -3 -9 10 11 -5 14 -14 -1
right_child=2 4 3 9 -6 -7 -8 8 -10 -11 -12 -13 13 -15 -16
leaf_value=-0.020797857700811634 -0.0086910445132646306 -0.011640664445618398 -0.0013303540478225287 0.010460088173470012 0.008922229955197614 -0.00361812473979085 0.0090731871191423192 -0.0077845161241065809 -0.0015998594771805688 0.015167086263183567 0.0070567511061360721 0.012808094542373373 -0.022549075402313296 -0.018608700218400682 -0.016553908202515077
leaf_weight=11.834226667881014 9.5027185976505262 10.535077631473539 11.316915035247805 79.863369554281235 9.2225756943225843 14.109434574842451 9.2722400426864606 9.6494195461273211 14.581551969051359 9.5464108586311323 14.270444452762602 17.554437309503555 24.660582572221756 10.354159623384474 9.8436339497566205
leaf_count=24 20 22 24 177 20 30 20 20 31 21 31 39 50 21 20
internal_value=0 -0.0129778 0.00751436 0.00851476 -0.00320069 0.000404154 0.0032577 -0.00647413 -0.00414529 0.0108196 0.0104301 0.0109037 -0.0205287 -0.021441 -0.018963
internal_weight=0 100.681 165.436 155.933 43.9886 34.6986 20.5892 34.766 24.231 121.235 111.688 97.4178 56.6926 35.0147 21.6779
internal_count=570 208 362 342 93 74 44 73 51 268 247 216 115 71 44
shrinkage=0.02


Tree=13
num_leaves=15
num_cat=0
split_feature=1 0 10 2 0 5 7 5 5 8 5 2 2 2
split_gain=65.7108 18.4637 7.80544 6.70418 7.23129 2.3231 0.993852 1.4121 0.385247 0.356306 0.0894166 0.000422211 0.0689382 0.0528001
threshold=1.0000000180025095e-35 2.5000000000000004 1.0000000180025095e-35 9.5000000000000018 1.5000000000000002 17.900000000000002 21.500000000000004 33.250000000000007 26.125000000000004 1.0000000180025095e-35 13.208350000000001 27.500000000000004 43.500000000000007 20.250000000000004
decision_type=2 2 2 2 2 2 2 2 2 2 2 2 2 2
left_child=1 11 -3 -2 6 -4 7 -5 9 10 -6 13 -13 -1
right_child=3 2 5 4 8 -7 -8 -9 -10 -11 -12 12 -14 -15
leaf_value=0.020797857700811634 0.0086910445132646306 0.013915568248145762 0.00086803328841006367 0.0013303540478225287 -0.010460088173470012 -0.011261273349945335 0.00361812473979085 -0.0090731871191423192 -0.015167086263183567 -0.0070567511061360721 -0.012808094542373373 0.022549075402313296 0.018608700218400682 0.016553908202515077
leaf_weight=11.834226667881014 9.5027185976505262 16.850631058216095 17.471412390470508 11.316915035247805 79.863369554281235 9.6665813922882062 14.109434574842451 9.2722400426864606 9.5464108586311323 14.270444452762602 17.554437309503555 24.660582572221756 10.354159623384474 9.8436339497566205
leaf_count=24 20 35 37 24 177 21 30 20 21 31 39 50 21 20
internal_value=0 0.0129778 0.00320069 -0.00751436 -0.00851476 -0.00337874 -0.000404154 -0.0032577 -0.0108196 -0.0104301 -0.0109037 0.0205287 0.021441 0.018963
internal_weight=0 100.681 43.9886 165.436 155.933 27.138 34.6986 20.5892 121.235 111.688 97.4178 56.6926 35.0147 21.6779
internal_count=570 208 93 362 342 58 74 44 268 247 216 115 71 44
shrinkage=0.02


Tree=14
num_leaves=13
num_cat=0
split_feature=1 0 10 2 0 5 7 5 10 5 5 2
split_gain=63.1142 17.595 7.56681 6.47144 7.03447 2.25004 0.954265 1.36504 0.380723 0.524108 0.466489 0.374393
threshold=1.0000000180025095e-35 2.5000000000000004 1.0000000180025095e-35 9.5000000000000018 1.5000000000000002 17.900000000000002 21.500000000000004 33.250000000000007 1.0000000180025095e-35 13.208350000000001 12.500000000000002 38.500000000000007
decision_type=2 2 2 2 2 2 2 2 2 2 2 2
left_child=1 -1 -3 -2 6 -4 7 -5 10 11 -6 -10
right_child=3 2 5 4 8 -7 -8 -9 9 -11 -12 -13
leaf_value=-0.020031135829311361 -0.0084845606689500381 -0.013655735951552613 -0.00081040011238742095 -0.0013029166028067092 0.010314502879787506 0.011141155156073189 -0.0035395012906446152 0.0089364001206467258 0.01095403078525955 0.014172448607746652 0.0041889518995687275 0.0060204633874713798
leaf_weight=56.942270278930664 9.5389274060726148 16.913061082363129 17.494118064641956 11.324050068855287 16.32618206739426 9.6176948547363263 14.134139120578764 9.2263479232788068 62.733031541109085 23.280695229768753 9.0996188819408399 8.9775717258453351
leaf_count=115 20 35 37 24 36 21 30 20 140 52 20 20
internal_value=0 -0.0126834 -0.00313426 0.0074005 0.00839034 0.00335555 0.000394073 0.00319683 0.010677 0.0113186 0.00820089 0.0103643
internal_weight=0 100.967 44.0249 164.641 155.102 27.1118 34.6845 20.5504 120.417 94.9913 25.4258 71.7106
internal_count=570 208 93 362 342 58 74 44 268 212 56 160
shrinkage=0.02


Tree=15
num_leaves=13
num_cat=0
split_feature=1 0 10 2 0 5 7 5 10 5 5 2
split_gain=63.1142 17.595 7.56681 6.47144 7.03447 2.25004 0.954265 1.36504 0.380723 0.524108 0.466489 0.374393
threshold=1.0000000180025095e-35 2.5000000000000004 1.0000000180025095e-35 9.5000000000000018 1.5000000000000002 17.900000000000002 21.500000000000004 33.250000000000007 1.0000000180025095e-35 13.208350000000001 12.500000000000002 38.500000000000007
decision_type=2 2 2 2 2 2 2 2 2 2 2 2
left_child=1 -1 -3 -2 6 -4 7 -5 10 11 -6 -10
right_child=3 2 5 4 8 -7 -8 -9 9 -11 -12 -13
leaf_value=0.020031135829311361 0.0084845606689500381 0.013655735951552613 0.00081040011238742095 0.0013029166028067092 -0.010314502879787506 -0.011141155156073189 0.0035395012906446152 -0.0089364001206467258 -0.01095403078525955 -0.014172448607746652 -0.0041889518995687275 -0.0060204633874713798
leaf_weight=56.942270278930664 9.5389274060726148 16.913061082363129 17.494118064641956 11.324050068855287 16.32618206739426 9.6176948547363263 14.134139120578764 9.2263479232788068 62.733031541109085 23.280695229768753 9.0996188819408399 8.9775717258453351
leaf_count=115 20 35 37 24 36 21 30 20 140 52 20 20
internal_value=0 0.0126834 0.00313426 -0.0074005 -0.00839034 -0.00335555 -0.000394073 -0.00319683 -0.010677 -0.0113186 -0.00820089 -0.0103643
internal_weight=0 100.967 44.0249 164.641 155.102 27.1118 34.6845 20.5504 120.417 94.9913 25.4258 71.7106
internal_count=570 208 93 362 342 58 74 44 268 212 56 160
shrinkage=0.02


Tree=16
num_leaves=13
num_cat=0
split_feature=1 0 2 0 5 7 5 2 5 5 8 2
split_gain=60.6404 16.7881 6.24789 6.84465 4.05011 0.91629 1.31966 0.914423 0.457302 0.375255 0.344758 0.0943247
threshold=1.0000000180025095e-35 2.5000000000000004 9.5000000000000018 1.5000000000000002 22.762500000000003 21.500000000000004 33.250000000000007 19.500000000000004 7.910400000000001 26.125000000000004 1.0000000180025095e-35 28.500000000000004
decision_type=2 2 2 2 2 2 2 2 2 2 2 2
left_child=1 -1 -2 5 7 6 -4 -3 -9 10 11 -5
right_child=2 4 3 9 -6 -7 -8 8 -10 -11 -12 -13
leaf_value=-0.019560713471661207 -0.0082849027037824909 -0.011213175316378389 -0.001276066376470233 0.011297843020331837 0.0086937649464127829 -0.0034628027523532514 0.0088023303840851063 -0.0073622898372675532 -0.001527700890415583 0.014867314630221411 0.0068170411493505834 0.0094036714629426154
leaf_weight=57.143325358629227 9.5730787217617017 10.600152164697645 11.331005513668062 60.703449815511703 9.1374889314174634 14.158011078834532 9.1800066828727704 9.7085801362991351 14.602286636829374 9.3776595294475538 14.147218406200407 35.363416850566864
leaf_count=115 20 22 24 137 20 30 20 20 31 21 31 79
internal_value=0 -0.0124019 0.0072893 0.00826877 -0.00306951 0.000384203 0.00313716 -0.00620568 -0.00394002 0.0105377 0.0101512 0.0106214
internal_weight=0 101.192 163.834 154.261 44.0485 34.669 20.511 34.911 24.3109 119.592 110.214 96.0669
internal_count=570 208 362 342 93 74 44 73 51 268 247 216
shrinkage=0.02


Tree=17
num_leaves=12
num_cat=0
split_feature=1 0 10 2 0 5 7 5 5 8 2
split_gain=60.6404 16.7881 7.23259 6.24789 6.84465 2.17922 0.91629 1.31966 0.375255 0.344758 0.0943247
threshold=1.0000000180025095e-35 2.5000000000000004 1.0000000180025095e-35 9.5000000000000018 1.5000000000000002 17.900000000000002 21.500000000000004 33.250000000000007 26.125000000000004 1.0000000180025095e-35 28.500000000000004
decision_type=2 2 2 2 2 2 2 2 2 2 2
left_child=1 -1 -3 -2 6 -4 7 -5 9 10 -6
right_child=3 2 5 4 8 -7 -8 -9 -10 -11 -12
leaf_value=0.019560713471661207 0.0082849027037824909 0.01331895925394912 0.00079388972444962257 0.001276066376470233 -0.011297843020331837 -0.01099101847003211 0.0034628027523532514 -0.0088023303840851063 -0.014867314630221411 -0.0068170411493505834 -0.0094036714629426154
leaf_weight=57.143325358629227 9.5730787217617017 16.993071228265762 17.50071090459824 11.331005513668062 60.703449815511703 9.5547257363796216 14.158011078834532 9.1800066828727704 9.3776595294475538 14.147218406200407 35.363416850566864
leaf_count=115 20 35 37 24 137 21 30 20 21 31 79
internal_value=0 0.0124019 0.00306951 -0.0072893 -0.00826877 -0.00329407 -0.000384203 -0.00313716 -0.0105377 -0.0101512 -0.0106214
internal_weight=0 101.192 44.0485 163.834 154.261 27.0554 34.669 20.511 119.592 110.214 96.0669
internal_count=570 208 93 362 342 58 74 44 268 247 216
shrinkage=0.02


Tree=18
num_leaves=16
num_cat=0
split_feature=1 0 10 2 0 5 7 5 10 5 5 2 2 2 2
split_gain=58.2854 16.0436 7.01639 6.03278 6.6608 2.11144 0.879857 1.27589 0.369367 0.516614 0.458997 0.366341 0.00469635 0.0683934 0.0550283
threshold=1.0000000180025095e-35 2.5000000000000004 1.0000000180025095e-35 9.5000000000000018 1.5000000000000002 17.900000000000002 21.500000000000004 33.250000000000007 1.0000000180025095e-35 13.208350000000001 12.500000000000002 38.500000000000007 27.500000000000004 43.500000000000007 20.250000000000004
decision_type=2 2 2 2 2 2 2 2 2 2 2 2 2 2 2
left_child=1 12 -3 -2 6 -4 7 -5 10 11 -6 -10 14 -14 -1
right_child=3 2 5 4 8 -7 -8 -9 9 -11 -12 -13 13 -15 -16
leaf_value=-0.019377593741358289 -0.0080917174934722232 -0.013078948124667653 -0.00073918795524725584 -0.0012497895089296442 0.010057504655938755 0.01087608005678656 -0.0033879697304355612 0.0086708657427875171 0.010674717640936986 0.013895524534225552 0.0039593974951052284 0.0057713832353264273 -0.021074098174114306 -0.017258916951313406 -0.015257191549842461
leaf_weight=11.959637135267259 9.6052663624286634 17.04508650302887 17.52187862992287 11.33778700232506 16.133119523525242 9.5044887661933881 14.181080430746077 9.1332798004150373 61.83207643032074 22.878005146980286 9.0262641310691816 8.8875615596771222 24.923576027154922 10.461600571870802 9.9514285326004011
leaf_count=24 20 35 37 24 36 21 30 20 140 52 20 20 50 21 20
internal_value=0 -0.012133 -0.00300676 0.00718027 0.00814952 0.00327161 0.000374537 0.00307867 0.0104013 0.0110391 0.00794922 0.0100868 -0.0191178 -0.0200027 -0.0175975
internal_weight=0 101.368 44.0715 163.014 153.409 27.0264 34.6521 20.4711 118.757 93.5976 25.1594 70.7196 57.2962 35.3852 21.9111
internal_count=570 208 93 362 342 58 74 44 268 212 56 160 115 71 44
shrinkage=0.02


Tree=19
num_leaves=16
num_cat=0
split_feature=1 0 10 2 0 5 7 5 10 5 5 2 2 2 2
split_gain=58.2854 16.0436 7.01639 6.03278 6.6608 2.11144 0.879857 1.27589 0.369367 0.516614 0.458997 0.366341 0.00469635 0.0683934 0.0550283
threshold=1.0000000180025095e-35 2.5000000000000004 1.0000000180025095e-35 9.5000000000000018 1.5000000000000002 17.900000000000002 21.500000000000004 33.250000000000007 1.0000000180025095e-35 13.208350000000001 12.500000000000002 38.500000000000007 27.500000000000004 43.500000000000007 20.250000000000004
decision_type=2 2 2 2 2 2 2 2 2 2 2 2 2 2 2
left_child=1 12 -3 -2 6 -4 7 -5 10 11 -6 -10 14 -14 -1
right_child=3 2 5 4 8 -7 -8 -9 9 -11 -12 -13 13 -15 -16
leaf_value=0.019377593741358289 0.0080917174934722232 0.013078948124667653 0.00073918795524725584 0.0012497895089296442 -0.010057504655938755 -0.01087608005678656 0.0033879697304355612 -0.0086708657427875171 -0.010674717640936986 -0.013895524534225552 -0.0039593974951052284 -0.0057713832353264273 0.021074098174114306 0.017258916951313406 0.015257191549842461
leaf_weight=11.959637135267259 9.6052663624286634 17.04508650302887 17.52187862992287 11.33778700232506 16.133119523525242 9.5044887661933881 14.181080430746077 9.1332798004150373 61.83207643032074 22.878005146980286 9.0262641310691816 8.8875615596771222 24.923576027154922 10.461600571870802 9.9514285326004011
leaf_count=24 20 35 37 24 36 21 30 20 140 52 20 20 50 21 20
internal_value=0 0.012133 0.00300676 -0.00718027 -0.00814952 -0.00327161 -0.000374537 -0.00307867 -0.0104013 -0.0110391 -0.00794922 -0.0100868 0.0191178 0.0200027 0.0175975
internal_weight=0 101.368 44.0715 163.014 153.409 27.0264 34.6521 20.4711 118.757 93.5976 25.1594 70.7196 57.2962 35.3852 21.9111
internal_count=570 208 93 362 342 58 74 44 268 212 56 160 115 71 44
shrinkage=0.02


Tree=20
num_leaves=16
num_cat=0
split_feature=1 0 6 2 7 8 2 5 7 5 2 2 5 5 7
split_gain=49.1258 16.8771 7.17153 4.26148 3.67935 1.89221 1.13095 0.89528 0.317943 0.106299 0.261033 0.0997077 0.0856145 0.0510196 0.0467838
threshold=1.0000000180025095e-35 2.5000000000000004 55.997900000000008 15.500000000000002 29.500000000000004 1.0000000180025095e-35 33.500000000000007 10.508350000000002 17.500000000000004 7.7625000000000011 41.500000000000007 28.500000000000004 29.412500000000005 126.82500000000002 35.500000000000007
decision_type=2 2 2 2 2 2 2 2 2 2 2 2 2 2 2
left_child=1 12 3 -2 7 9 8 -3 -4 11 -11 -5 -1 -14 -8
right_child=2 4 6 5 -6 -7 14 -9 -10 10 -12 -13 13 -15 -16
leaf_value=-0.016680558966446261 -0.0035576199707860307 -0.0030616546843281957 0 0.010941613637089039 0.0067462588472487909 0.0024603079173104768 -0.0054308388076473677 -0.010677295124759572 0.0050819487486004535 0.01083748365095593 0.0067645840483578999 0.014828094698916218 -0.020504179903747196 -0.016771773802000602 -0.0027410308534709681
leaf_weight=23.442448854446411 9.9237940907478315 18.829398006200794 11.533597111701967 16.179517269134525 13.757143467664717 12.651759654283522 10.229198247194292 10.094274401664732 9.6332326829433423 66.149301826953888 10.124192267656325 9.3490684628486616 23.979547113180161 9.9776428043842298 9.4208066165447217
leaf_count=47 21 39 25 37 30 28 22 21 21 151 23 21 48 20 20
internal_value=0 -0.0112777 0.00647854 0.00886702 -0.00170145 0.00996178 -0.000750664 -0.00578864 0.00239696 0.0108744 0.0103231 0.0124433 -0.0183635 -0.0194664 -0.00424304
internal_weight=0 100.08 165.194 124.378 42.6808 114.454 40.8168 28.9237 21.1668 101.802 76.2735 25.5286 57.3996 33.9572 19.65
internal_count=574 205 369 281 90 260 88 60 46 232 174 58 115 68 42
shrinkage=0.02


Tree=21
num_leaves=15
num_cat=0
split_feature=1 0 6 10 2 6 8 2 7 6 2 2 7 6
split_gain=49.1258 16.8771 7.17153 6.21002 4.26148 2.72095 1.89221 1.13095 0.317943 0.0860158 0.266992 0.0886313 0.0467838 0.00392683
threshold=1.0000000180025095e-35 2.5000000000000004 55.997900000000008 1.0000000180025095e-35 15.500000000000002 17.900000000000002 1.0000000180025095e-35 33.500000000000007 17.500000000000004 7.7625000000000011 41.500000000000007 28.500000000000004 35.500000000000007 52.250000000000007
decision_type=2 2 2 2 2 2 2 2 2 2 2 2 2 2
left_child=1 13 4 -3 -2 -5 9 8 -4 11 -11 -6 -9 -1
right_child=2 3 7 5 6 -7 -8 12 -10 10 -12 -13 -14 -15
leaf_value=0.016701122053122949 0.0035576199707860307 0.011290393316687268 0 0.00042821964310341826 -0.010941613637089039 -0.012900994669846724 -0.0024603079173104768 0.0054308388076473677 -0.0050819487486004535 -0.010870559974505778 -0.0067645840483578999 -0.014787052214979998 0.0027410308534709681 0.019130988825330361
leaf_weight=18.953706353902817 9.9237940907478315 16.614935427904129 11.533597111701967 16.60308209061623 16.179517269134525 9.4627983570098859 12.651759654283522 10.229198247194292 9.6332326829433423 66.609986186027527 10.124192267656325 8.8883841037750226 9.4208066165447217 38.445932418107986
leaf_count=38 21 34 25 35 37 21 28 22 21 152 23 20 20 77
internal_value=0 0.0112777 -0.00647854 0.00170145 -0.00886702 -0.00433401 -0.00996178 0.000750664 -0.00239696 -0.0108744 -0.0103549 -0.0123849 0.00424304 0.0183635
internal_weight=0 100.08 165.194 42.6808 124.378 26.0659 114.454 40.8168 21.1668 101.802 76.7342 25.0679 19.65 57.3996
internal_count=574 205 369 90 281 56 260 88 46 232 175 57 42 115
shrinkage=0.02


Tree=22
num_leaves=16
num_cat=0
split_feature=1 0 6 2 7 8 2 5 7 5 2 2 5 5 7
split_gain=47.2517 16.1747 6.96041 4.13802 3.54378 1.84769 1.08616 0.872862 0.306282 0.104056 0.255145 0.0974181 0.0817415 0.0514284 0.0436133
threshold=1.0000000180025095e-35 2.5000000000000004 55.997900000000008 15.500000000000002 29.500000000000004 1.0000000180025095e-35 33.500000000000007 10.508350000000002 17.500000000000004 7.7625000000000011 41.500000000000007 28.500000000000004 29.412500000000005 126.82500000000002 35.500000000000007
decision_type=2 2 2 2 2 2 2 2 2 2 2 2 2 2 2
left_child=1 12 3 -2 7 9 8 -3 -4 11 -11 -5 -1 -14 -8
right_child=2 4 6 5 -6 -7 14 -9 -10 10 -12 -13 13 -15 -16
leaf_value=-0.016319420518869209 -0.0034809283230355877 -0.0029748612613675869 0 0.010808127365968794 0.0066466850220739601 0.0024148355449707644 -0.0053071675231293729 -0.010487493277600566 0.004994714750887733 0.010703720398771913 0.0066609498707700457 0.014680088369602344 -0.020092840627350374 -0.016390255381957406 -0.0026826814180723291
leaf_weight=23.474655389785767 9.9394272565841657 18.851787269115452 11.533597111701967 16.053032398223881 13.701154708862303 12.632392257452009 10.257920026779177 10.12097132205963 9.6057295203208906 65.639551013708115 10.076557785272596 9.2568716406822187 23.99722895026207 9.9911747574806196 9.4330736696720106
leaf_count=47 21 39 25 37 30 28 22 21 21 151 23 21 48 20 20
internal_value=0 -0.0110467 0.00637981 0.00874618 -0.00166748 0.00983303 -0.000734455 -0.00566826 0.00235383 0.0107408 0.0101921 0.0123033 -0.0179772 -0.0190633 -0.00415146
internal_weight=0 100.137 164.428 123.598 42.6739 113.658 40.8303 28.9728 21.1393 101.026 75.7161 25.3099 57.4631 33.9884 19.691
internal_count=574 205 369 281 90 260 88 60 46 232 174 58 115 68 42
shrinkage=0.02


Tree=23
num_leaves=17
num_cat=0
split_feature=1 6 6 2 7 6 8 2 4 7 5 5 2 2 6 7
split_gain=47.2517 8.63296 6.96041 4.13802 3.90439 2.91516 1.84769 1.08616 0.888233 0.306282 0.192205 0.104056 0.255145 0.0974181 0.0725064 0.0436133
threshold=1.0000000180025095e-35 47.45000000000001 55.997900000000008 15.500000000000002 17.500000000000004 11.187500000000002 1.0000000180025095e-35 33.500000000000007 1.5000000000000002 17.500000000000004 19.379150000000003 7.7625000000000011 41.500000000000007 28.500000000000004 91.793700000000015 35.500000000000007
decision_type=2 2 2 2 2 2 2 2 2 2 2 2 2 2 2 2
left_child=1 4 3 -2 5 -1 11 9 14 -4 -6 13 -13 -5 -3 -9
right_child=2 8 7 6 10 -7 -8 15 -10 -11 -12 12 -14 -15 -16 -17
leaf_value=0.0039604240655143749 0.0034809283230355877 0.016344229512160746 0 -0.010808127365968794 0.00044096884294227796 0.015748650083397424 -0.0024148355449707644 0.0053071675231293729 0.011844629700452148 -0.004994714750887733 -0.0033361333320391351 -0.010703720398771913 -0.0066609498707700457 -0.014680088369602344 0.020188363640017207 0.0026826814180723291
leaf_weight=17.916620194911957 9.9394272565841657 9.9913189709186536 11.533597111701967 16.053032398223881 10.459676563739778 16.800292402505875 12.632392257452009 10.257920026779177 10.328841626644133 9.6057295203208906 9.6470445990562421 65.639551013708115 10.076557785272596 9.2568716406822187 24.9931780397892 9.4330736696720106
leaf_count=37 21 20 25 37 22 34 28 22 21 21 21 151 23 21 50 20
internal_value=0 0.0110467 -0.00637981 -0.00874618 0.00565391 0.00972262 -0.00983303 0.000734455 0.0175271 -0.00235383 -0.00127179 -0.0107408 -0.0101921 -0.0123033 0.0191477 0.00415146
internal_weight=0 100.137 164.428 123.598 54.8236 34.7169 113.658 40.8303 45.3133 21.1393 20.1067 101.026 75.7161 25.3099 34.9845 19.691
internal_count=574 205 369 281 114 71 260 88 91 46 43 232 174 58 70 42
shrinkage=0.02


Tree=24
num_leaves=16
num_cat=0
split_feature=1 0 6 10 2 5 8 2 7 5 2 2 5 5 7
split_gain=45.4557 15.5994 6.7563 5.98745 4.0187 2.62081 1.80472 1.04324 0.295041 0.101877 0.249561 0.0952613 0.0731466 0.0500949 0.0406322
threshold=1.0000000180025095e-35 2.5000000000000004 55.997900000000008 1.0000000180025095e-35 15.500000000000002 17.900000000000002 1.0000000180025095e-35 33.500000000000007 17.500000000000004 7.7625000000000011 41.500000000000007 28.500000000000004 29.412500000000005 126.82500000000002 35.500000000000007
decision_type=2 2 2 2 2 2 2 2 2 2 2 2 2 2 2
left_child=1 12 4 -3 -2 -5 9 8 -4 11 -11 -6 -1 -14 -9
right_child=2 3 7 5 6 -7 -8 14 -10 10 -12 -13 13 -15 -16
leaf_value=-0.016008035337398824 -0.0034060845896576419 -0.011007258840764296 0 -0.00032766400047788718 0.010677436969711948 0.012775225952014467 0.0023701621837331384 -0.0051869249522135154 0.0049089617281807343 0.010572934155972704 0.0065589437721474773 0.014536359735006908 -0.019705312529861796 -0.01604280163471157 -0.0026256834408136674
leaf_weight=23.491551905870438 9.9545176625251752 16.666892558336258 11.533597111701967 16.638358682394031 15.925813347101213 9.3948296308517438 12.613277077674864 10.285520434379579 9.5783365964889509 65.127644777297974 10.029085516929625 9.1623813807964307 23.996173948049545 9.9978600144386274 9.4449656307697278
leaf_count=47 21 34 25 35 37 21 28 22 21 151 23 21 48 20 20
internal_value=0 -0.0108218 0.006283 -0.00161329 0.00862773 0.00432407 0.00970688 -0.000718603 0.0023115 0.0106101 0.0100639 0.0121665 -0.017627 -0.018687 -0.00406223
internal_weight=0 100.186 163.655 42.7001 122.813 26.0332 112.858 40.8424 21.1119 100.245 75.1567 25.0882 57.4856 33.994 19.7305
internal_count=574 205 369 90 281 56 260 88 46 232 174 58 115 68 42
shrinkage=0.02


Tree=25
num_leaves=16
num_cat=0
split_feature=1 0 6 10 2 5 2 10 5 7 5 5 5 5 7
split_gain=45.4557 15.5994 6.7563 5.98745 4.0187 2.62081 1.04324 0.804326 1.03555 0.295041 0.15204 0.233168 0.0731466 0.0500949 0.0406322
threshold=1.0000000180025095e-35 2.5000000000000004 55.997900000000008 1.0000000180025095e-35 15.500000000000002 17.900000000000002 33.500000000000007 1.0000000180025095e-35 7.883350000000001 17.500000000000004 13.208350000000001 7.7625000000000011 29.412500000000005 126.82500000000002 35.500000000000007
decision_type=2 2 2 2 2 2 2 2 2 2 2 2 2 2 2
left_child=1 12 4 -3 -2 -5 9 8 -6 -4 11 -9 -1 -14 -8
right_child=2 3 6 5 7 -7 14 10 -10 -11 -12 -13 13 -15 -16
leaf_value=0.016008035337398824 0.0034060845896576419 0.011007258840764296 0 0.00032766400047788718 -0.0099857605063086215 -0.012775225952014467 0.0051869249522135154 -0.01239715914524946 -0.0011962880672563726 -0.0049089617281807343 -0.013006135668615639 -0.0093095480788247427 0.019705312529861796 0.01604280163471157 0.0026256834408136674
leaf_weight=23.491551905870438 9.9545176625251752 16.666892558336258 11.533597111701967 16.638358682394031 12.738003164529802 9.3948296308517438 10.285520434379579 18.618535071611404 10.244994074106215 9.5783365964889509 14.570630401372908 56.686039388179779 23.996173948049545 9.9978600144386274 9.4449656307697278
leaf_count=47 21 34 25 35 29 21 22 43 23 21 34 131 48 20 20
internal_value=0 0.0108218 -0.006283 0.00161329 -0.00862773 -0.00432407 0.000718603 -0.00970688 -0.00615475 -0.0023115 -0.010593 -0.0100995 0.017627 0.018687 0.00406223
internal_weight=0 100.186 163.655 42.7001 122.813 26.0332 40.8424 112.858 22.983 21.1119 89.8752 75.3046 57.4856 33.994 19.7305
internal_count=574 205 369 90 281 56 88 260 52 46 208 174 115 68 42
shrinkage=0.02


Tree=26
num_leaves=16
num_cat=0
split_feature=1 0 6 10 2 5 8 2 7 5 2 2 5 5 7
split_gain=43.753 14.9801 6.55876 5.73918 3.90327 2.54595 1.7749 1.00211 0.284202 0.0997832 0.249983 0.0955775 0.0696157 0.0465784 0.0378281
threshold=1.0000000180025095e-35 2.5000000000000004 55.997900000000008 1.0000000180025095e-35 15.500000000000002 17.900000000000002 1.0000000180025095e-35 33.500000000000007 17.500000000000004 7.7625000000000011 41.500000000000007 28.500000000000004 29.412500000000005 126.82500000000002 35.500000000000007
decision_type=2 2 2 2 2 2 2 2 2 2 2 2 2 2 2
left_child=1 12 4 -3 -2 -5 9 8 -4 11 -11 -6 -1 -14 -9
right_child=2 3 7 5 6 -7 -8 14 -10 10 -12 -13 13 -15 -16
leaf_value=-0.015683228123684115 -0.0033330358288519673 -0.010756503348588076 0 -0.00032106384877520107 0.010543022837072577 0.012626511699799456 0.0022995350237533106 -0.0050699780665444949 0.0048246570814421651 0.010451142094325164 0.0064290921148426926 0.014410640472428113 -0.019327003340960786 -0.015719919953149281 -0.0025700003571301113
leaf_weight=23.498420655727386 9.9690856337547284 16.713834881782532 11.533597111701967 16.640768676996235 15.791563212871553 9.3161644339561445 12.582580804824827 10.312044322490694 9.5510687530040723 64.63815051317215 9.9676102399826032 9.0754909813404065 23.97672700881958 9.9991265237331373 9.4564951658248884
leaf_count=47 21 34 25 35 37 21 28 22 21 151 23 21 48 20 20
internal_value=0 -0.0106107 0.00618797 -0.00158175 0.00851146 0.00424888 0.00958306 -0.0007031 0.00226995 0.0104843 0.00994059 0.012035 -0.0172793 -0.0183243 -0.00397526
internal_weight=0 100.145 162.878 42.6708 122.024 25.9569 112.055 40.8532 21.0847 99.4728 74.6058 24.8671 57.4743 33.9759 19.7685
internal_count=574 205 369 90 281 56 260 88 46 232 174 58 115 68 42
shrinkage=0.02


Tree=27
num_leaves=16
num_cat=0
split_feature=1 0 6 10 2 5 8 2 6 5 2 2 5 5 5
split_gain=43.753 14.9801 6.55876 5.73918 3.90327 2.54595 1.7749 1.00211 0.180854 0.0997832 0.249983 0.0955775 0.0696157 0.0465784 0.0118232
threshold=1.0000000180025095e-35 2.5000000000000004 55.997900000000008 1.0000000180025095e-35 15.500000000000002 17.900000000000002 1.0000000180025095e-35 33.500000000000007 111.00000000000001 7.7625000000000011 41.500000000000007 28.500000000000004 29.412500000000005 126.82500000000002 39.906250000000007
decision_type=2 2 2 2 2 2 2 2 2 2 2 2 2 2 2
left_child=1 12 4 -3 -2 -5 9 8 -4 11 -11 -6 -1 -14 -9
right_child=2 3 7 5 6 -7 -8 14 -10 10 -12 -13 13 -15 -16
leaf_value=0.015683228123684115 0.0033330358288519673 0.010756503348588076 -0.00020669463218908106 0.00032106384877520107 -0.010543022837072577 -0.012626511699799456 -0.0022995350237533106 0.0049424679524134518 -0.0041323419233832174 -0.010451142094325164 -0.0064290921148426926 -0.014410640472428113 0.019327003340960786 0.015719919953149281 0.0029068685222100664
leaf_weight=23.498420655727386 9.9690856337547284 16.713834881782532 10.512380570173265 16.640768676996235 15.791563212871553 9.3161644339561445 12.582580804824827 9.3930510282516497 10.572285294532774 64.63815051317215 9.9676102399826032 9.0754909813404065 23.97672700881958 9.9991265237331373 10.375488460063933
leaf_count=47 21 34 23 35 37 21 28 20 23 151 23 21 48 20 22
internal_value=0 0.0106107 -0.00618797 0.00158175 -0.00851146 -0.00424888 -0.00958306 0.0007031 -0.00226995 -0.0104843 -0.00994059 -0.012035 0.0172793 0.0183243 0.00397526
internal_weight=0 100.145 162.878 42.6708 122.024 25.9569 112.055 40.8532 21.0847 99.4728 74.6058 24.8671 57.4743 33.9759 19.7685
internal_count=574 205 369 90 281 56 260 88 46 232 174 58 115 68 42
shrinkage=0.02


Tree=28
num_leaves=15
num_cat=0
split_feature=1 0 2 6 10 5 5 6 10 5 7 6 5 5
split_gain=42.1268 14.3995 6.38506 6.6143 5.50262 2.4738 1.59054 2.0272 0.741539 1.01636 0.369288 0.262843 0.0667474 0.0437426
threshold=1.0000000180025095e-35 2.5000000000000004 13.500000000000002 78.42495000000001 1.0000000180025095e-35 17.900000000000002 33.250000000000007 156.83130000000003 1.0000000180025095e-35 7.883350000000001 33.500000000000007 25.875000000000004 29.412500000000005 126.82500000000002
decision_type=2 2 2 2 2 2 2 2 2 2 2 2 2 2
left_child=1 12 -2 8 -3 -6 -5 -8 9 -4 11 -10 -1 -14
right_child=2 4 3 6 5 -7 7 -9 10 -11 -12 -13 13 -15
leaf_value=-0.015372819285362173 -0.0085186861977592093 -0.010514577284054218 0.0097796117300857303 -0.007318936437910966 -0.00031459773181472515 0.012481879014776922 0.0090919018905078509 -0.0027103970324265552 0.010318799943166763 0.0010383532675953676 0.014259398436976425 0.006983090939891903 -0.018970095440531572 -0.015411346650039497
leaf_weight=23.493475168943405 11.02137181162834 16.75599193572998 12.588188439607622 10.009198307991026 16.643127083778385 9.2364356815814954 9.9470721781253832 13.670643240213392 68.498963415622711 10.185909390449522 10.225703269243239 15.94795051217079 23.939621955156326 9.9953768551349622
leaf_count=47 23 34 29 21 35 21 22 29 161 23 24 37 48 20
internal_value=0 -0.010408 0.00609476 0.0071741 -0.00155105 0.00417519 -0.000590948 0.00217569 0.00941439 0.00595783 0.0102248 0.00971253 -0.0169487 -0.0179808
internal_weight=0 100.064 162.095 151.074 42.6356 25.8796 33.6269 23.6177 117.447 22.7741 94.6726 84.4469 57.4285 33.935
internal_count=574 205 369 346 90 56 72 51 274 52 222 198 115 68
shrinkage=0.02


Tree=29
num_leaves=16
num_cat=0
split_feature=1 6 2 6 7 6 8 5 6 4 5 5 7 2 6
split_gain=42.1268 7.66552 6.38506 6.6143 3.51956 2.67293 1.69929 1.59054 2.0272 0.809336 0.161518 0.122475 0.209495 0.0938476 0.070449
threshold=1.0000000180025095e-35 47.45000000000001 13.500000000000002 78.42495000000001 17.500000000000004 11.187500000000002 1.0000000180025095e-35 33.250000000000007 156.83130000000003 1.5000000000000002 19.379150000000003 7.7625000000000011 23.500000000000004 28.500000000000004 91.793700000000015
decision_type=2 2 2 2 2 2 2 2 2 2 2 2 2 2 2
left_child=1 4 -2 6 5 -1 11 -5 -9 14 -6 13 -13 -4 -3
right_child=2 9 3 7 10 -7 -8 8 -10 -11 -12 12 -14 -15 -16
leaf_value=0.0036630470345565529 0.0085186861977592093 0.015336793055299008 -0.010417646311671688 0.007318936437910966 0.00027065253509087116 0.014941119968171481 -0.0022568868723754644 -0.0090919018905078509 0.0027103970324265552 0.011074459233580653 -0.0031769304008778783 -0.0090436454802838469 -0.012039963754338917 -0.014276835268939272 0.01908729511145912
leaf_weight=17.978719711303711 11.02137181162834 9.9915864467620832 15.663276791572573 10.009198307991026 10.470073431730272 16.83255010843277 12.564129471778868 9.9470721781253832 13.670643240213392 10.307376176118849 9.5357565581798536 62.784132421016693 17.456861644983292 8.9783146977424604 24.947966247797012
leaf_count=37 23 20 37 21 22 34 28 22 29 21 21 147 41 21 50
internal_value=0 0.010408 -0.00609476 -0.0071741 0.00532486 0.00917387 -0.00941439 0.000590948 -0.00217569 0.0165222 -0.00127266 -0.0102527 -0.00972044 -0.0119049 0.018072
internal_weight=0 100.064 162.095 151.074 54.8171 34.8113 117.447 33.6269 23.6177 45.2469 20.0058 104.883 80.241 24.6416 34.9396
internal_count=574 205 369 346 114 71 274 72 51 91 43 246 188 58 70
shrinkage=0.02


Tree=30
num_leaves=14
num_cat=0
split_feature=1 0 6 6 7 7 2 6 6 7 2 2 7
split_gain=48.4061 13.1853 5.32366 4.27762 1.7297 1.59206 1.34057 1.02746 0.298254 0.37172 0.425303 0.078772 0.0323016
threshold=1.0000000180025095e-35 2.5000000000000004 55.997900000000008 23.350000000000005 27.500000000000004 11.000000000000002 15.500000000000002 91.793700000000015 7.7375000000000007 20.500000000000004 28.500000000000004 27.500000000000004 8.5000000000000018
decision_type=2 2 2 2 2 2 2 2 2 2 2 2 2
left_child=1 12 6 5 7 -3 -2 -4 11 10 -10 -8 -1
right_child=2 3 4 -5 -6 -7 8 -9 9 -11 -12 -13 -14
leaf_value=-0.015441120023285095 0.0017409578956839938 -0.0095973612297453118 -0.0070875529441789386 0.010173536911208529 0.005611630017582637 -0.00059360051584793675 0.0094691073303420411 0.0014679373327117909 0.0096338642405304625 0.012005706491830732 0.0059786618605776635 0.013241702282469363 -0.017882896761479125
leaf_weight=21.951414883136749 9.5220345556735975 17.566410541534424 11.845495134592058 8.8035927116870862 15.747843146324156 15.117235779762266 8.4842407107353228 10.076829969882963 42.980456918478012 17.733078300952911 23.59820681810379 16.338058739900589 35.397580772638321
leaf_count=44 20 36 25 20 34 32 20 22 102 42 55 38 71
internal_value=0 -0.0107649 0.00711665 -0.00212116 0.00050989 -0.00549403 0.00919726 -0.0030637 0.00982951 0.00915711 0.00836835 0.0120328 -0.0169831
internal_weight=0 98.8362 156.326 41.4872 37.6702 32.6836 118.656 21.9223 109.134 84.3117 66.5787 24.8223 57.349
internal_count=561 203 358 88 81 68 277 47 257 199 157 58 115
shrinkage=0.02


Tree=31
num_leaves=14
num_cat=0
split_feature=1 0 6 5 7 7 2 6 5 7 2 2 7
split_gain=48.4061 13.1853 5.32366 4.27762 1.7297 1.59206 1.34057 1.02746 0.325998 0.382548 0.467485 0.084756 0.0323016
threshold=1.0000000180025095e-35 2.5000000000000004 55.997900000000008 23.350000000000005 27.500000000000004 11.000000000000002 15.500000000000002 91.793700000000015 7.7375000000000007 20.500000000000004 28.500000000000004 27.500000000000004 8.5000000000000018
decision_type=2 2 2 2 2 2 2 2 2 2 2 2 2
left_child=1 12 6 5 7 -3 -2 -4 11 10 -10 -8 -1
right_child=2 3 4 -5 -6 -7 8 -9 9 -11 -12 -13 -14
leaf_value=0.015441120023285095 -0.0017409578956839938 0.0095973612297453118 0.0070875529441789386 -0.010173536911208529 -0.005611630017582637 0.00059360051584793675 -0.0094691073303420411 -0.0014679373327117909 -0.0096338642405304625 -0.012005706491830732 -0.0058083438106031919 -0.013285568871368074 0.017882896761479125
leaf_weight=21.951414883136749 9.5220345556735975 17.566410541534424 11.845495134592058 8.8035927116870862 15.747843146324156 15.117235779762266 8.4842407107353228 10.076829969882963 42.980456918478012 17.733078300952911 23.156531512737274 16.779734045267105 35.397580772638321
leaf_count=44 20 36 25 20 34 32 20 22 102 42 54 39 71
internal_value=0 0.0107649 -0.00711665 0.00212116 -0.00050989 0.00549403 -0.00919726 0.0030637 -0.00982951 -0.00912682 -0.00832468 -0.0120831 0.0169831
internal_weight=0 98.8362 156.326 41.4872 37.6702 32.6836 118.656 21.9223 109.134 83.8701 66.137 25.264 57.349
internal_count=561 203 358 88 81 68 277 47 257 198 156 59 115
shrinkage=0.02


Tree=32
num_leaves=16
num_cat=0
split_feature=1 6 6 7 7 2 2 6 6 4 5 7 2 6 2
split_gain=46.6432 5.84974 5.18083 4.54809 1.6635 1.49295 1.08233 0.983576 0.876123 0.863616 0.34261 0.375936 0.457882 0.0639501 0.057604
threshold=1.0000000180025095e-35 47.45000000000001 55.997900000000008 8.5000000000000018 27.500000000000004 14.250000000000002 23.250000000000004 91.793700000000015 15.525000000000002 1.5000000000000002 7.7375000000000007 20.500000000000004 28.500000000000004 147.75000000000003 27.500000000000004
decision_type=2 2 2 2 2 2 2 2 2 2 2 2 2 2 2
left_child=1 3 5 8 7 -2 -5 -4 -1 13 14 12 -12 -3 -7
right_child=2 9 4 6 -6 10 -8 -9 -10 -11 11 -13 -14 -15 -16
leaf_value=-0.0082849116645617085 0.001030417233631062 -0.014855003417514914 -0.0069240356558705239 0.0055278457653108815 0.0055158531072566561 0.0096514875616668817 -0.0030352844611584054 0.0014398043020591486 -0.015883935841810585 -0.010133668172668388 0.0095149208711257857 0.011879503142846096 0.0057162207348064407 -0.018452360306528512 0.013153410985066304
leaf_weight=16.11661517620087 9.0630550086498243 10.458236783742903 11.882353454828264 9.2526026070117968 15.701333701610563 8.8737249076366442 16.302871018648148 10.068338572978972 11.97307902574539 9.7741083502769452 42.650722414255142 17.564735054969788 23.053291946649551 24.838470637798309 16.614016473293304
leaf_count=33 19 21 25 20 34 21 35 22 24 20 102 42 54 50 39
internal_value=0 -0.0105634 0.00701478 -0.00604046 0.000500075 0.00907974 0 -0.0029966 -0.0115952 -0.0159024 0.00973213 0.00901006 0.00821253 -0.0174431 0.0120127
internal_weight=0 98.716 155.472 53.6452 37.652 117.82 25.5555 21.9507 28.0897 45.0708 108.756 83.2687 65.704 35.2967 25.4877
internal_count=561 203 358 112 81 277 55 47 57 91 258 198 156 71 60
shrinkage=0.02


Tree=33
num_leaves=14
num_cat=0
split_feature=1 0 6 6 7 7 2 6 6 7 2 2 7
split_gain=46.6432 12.7048 5.18083 4.12131 1.6635 1.5214 1.49295 0.983576 0.31461 0.365206 0.416272 0.0519509 0.0291072
threshold=1.0000000180025095e-35 2.5000000000000004 55.997900000000008 23.350000000000005 27.500000000000004 11.000000000000002 14.250000000000002 91.793700000000015 7.7375000000000007 20.500000000000004 28.500000000000004 27.500000000000004 8.5000000000000018
decision_type=2 2 2 2 2 2 2 2 2 2 2 2 2
left_child=1 12 6 5 7 -3 -2 -4 11 10 -10 -8 -1
right_child=2 3 4 -5 -6 -7 8 -9 9 -11 -12 -13 -14
leaf_value=0.01515635639428611 -0.001030417233631062 0.009380895599648182 0.0069240356558705239 -0.010041010813959302 -0.0055158531072566561 0.00058157562434569036 -0.0096514875616668817 -0.0014398043020591486 -0.0095149208711257857 -0.011879503142846096 -0.005886144169385492 -0.013108352559805319 0.017562073007076014
leaf_weight=21.916904002428055 9.0630550086498243 17.611853718757629 11.882353454828264 8.7420125603675825 15.701333701610563 15.121163606643675 8.8737249076366442 10.068338572978972 42.650722414255142 17.564735054969788 23.492034912109375 16.175273507833481 35.324049711227417
leaf_count=44 19 36 25 20 34 32 21 22 102 42 55 38 71
internal_value=0 0.0105634 -0.00701478 0.00207909 -0.000500075 0.00537711 -0.00907974 0.0029966 -0.00973213 -0.00904048 -0.00825632 -0.0119636 0.0166759
internal_weight=0 98.716 155.472 41.475 37.652 32.733 117.82 21.9507 108.756 83.7075 66.1428 25.049 57.241
internal_count=561 203 358 88 81 68 277 47 258 199 157 59 115
shrinkage=0.02


Tree=34
num_leaves=14
num_cat=0
split_feature=1 0 6 5 7 2 7 6 5 7 2 2 7
split_gain=44.9483 12.3193 5.04236 4.02137 1.59988 1.457 1.45537 0.941765 0.336529 0.369663 0.44859 0.0565257 0.0330687
threshold=1.0000000180025095e-35 2.5000000000000004 55.997900000000008 23.350000000000005 27.500000000000004 14.250000000000002 11.000000000000002 91.793700000000015 7.7375000000000007 20.500000000000004 28.500000000000004 27.500000000000004 8.5000000000000018
decision_type=2 2 2 2 2 2 2 2 2 2 2 2 2
left_child=1 12 5 6 7 -2 -3 -4 11 10 -10 -7 -1
right_child=2 3 4 -5 -6 8 -8 -9 9 -11 -12 -13 -14
leaf_value=-0.014871228154048084 0.0010102320072577537 -0.0091769155855378048 -0.0067654085721271561 0.0099808965480140208 0.0054217427809049572 0.0095316399208957535 -0.00057232142987149223 0.0014121928808906658 0.0093979879168151464 0.011756249787465697 0.0056254674206722734 0.01302511219500775 -0.017286848519763604
leaf_weight=21.870392590761185 9.0592937469482404 17.651512384414673 11.917377680540087 8.713005065917967 15.654870450496672 8.8062757849693316 15.125576883554457 10.059978395700453 42.321097075939178 17.395612269639969 22.950790166854858 16.446792781352997 35.236920773983002
leaf_count=44 19 36 25 20 34 21 32 22 102 42 54 39 71
internal_value=0 -0.0103659 0.00691484 -0.00201686 0.000490467 0.00896446 -0.00526719 -0.00293117 0.00961363 0.00889526 0.00810214 0.0118861 -0.0163968
internal_weight=0 98.5974 154.612 41.4901 37.6322 116.98 32.7771 21.9774 107.921 82.6675 65.2719 25.2531 57.1073
internal_count=561 203 358 88 81 277 68 47 258 198 156 60 115
shrinkage=0.02


Tree=35
num_leaves=16
num_cat=0
split_feature=1 6 6 7 7 2 2 6 6 4 5 7 2 6 2
split_gain=44.9483 5.64955 5.04236 4.358 1.59988 1.457 1.05855 0.941765 0.856145 0.845197 0.336529 0.369663 0.44859 0.0649886 0.0565257
threshold=1.0000000180025095e-35 47.45000000000001 55.997900000000008 8.5000000000000018 27.500000000000004 14.250000000000002 23.250000000000004 91.793700000000015 15.525000000000002 1.5000000000000002 7.7375000000000007 20.500000000000004 28.500000000000004 147.75000000000003 27.500000000000004
decision_type=2 2 2 2 2 2 2 2 2 2 2 2 2 2 2
left_child=1 3 5 8 7 -2 -5 -4 -1 13 14 12 -12 -3 -7
right_child=2 9 4 6 -6 10 -8 -9 -10 -11 11 -13 -14 -15 -16
leaf_value=0.0080890884754760972 -0.0010102320072577537 0.014569400791042327 0.0067654085721271561 -0.0054716138580533872 -0.0054217427809049572 -0.0095316399208957535 0.003004466619402416 -0.0014121928808906658 0.015600924588952528 0.009910168515550391 -0.0093979879168151464 -0.011756249787465697 -0.0056254674206722734 0.01815679137157522 -0.01302511219500775
leaf_weight=16.154382258653644 9.0592937469482404 10.435717552900313 11.917377680540087 9.2279737889766711 15.654870450496672 8.8062757849693316 16.301064252853394 10.059978395700453 11.957739710807799 9.7591335475444776 42.321097075939178 17.395612269639969 22.950790166854858 24.761396586894989 16.446792781352997
leaf_count=33 19 21 25 20 34 21 35 22 24 20 102 42 54 50 39
internal_value=0 0.0103659 -0.00691484 0.00592288 -0.000490467 -0.00896446 0 0.00293117 0.0113555 0.0156228 -0.00961363 -0.00889526 -0.00810214 0.01715 -0.0118861
internal_weight=0 98.5974 154.612 53.6412 37.6322 116.98 25.529 21.9774 28.1121 44.9562 107.921 82.6675 65.2719 35.1971 25.2531
internal_count=561 203 358 112 81 277 55 47 57 91 258 198 156 71 60
shrinkage=0.02


Tree=36
num_leaves=14
num_cat=0
split_feature=0 6 4 5 2 5 9 5 2 5 2 2 10
split_gain=21.3862 4.79485 5.05394 2.08127 5.20135 1.74914 1.33294 1.03537 0.96209 0.963475 0.786093 0.418164 0.285058
threshold=2.5000000000000004 156.83130000000003 1.0000000180025095e-35 24.808350000000001 16.500000000000004 15.075000000000001 1.0000000180025095e-35 29.412500000000005 36.250000000000007 11.887500000000001 43.500000000000007 29.500000000000004 1.0000000180025095e-35
decision_type=2 2 2 2 2 2 2 2 2 2 2 2 2
left_child=1 2 7 4 -2 6 12 8 9 -1 11 -3 -6
right_child=3 10 -4 -5 5 -7 -8 -9 -10 -11 -12 -13 -14
leaf_value=0.0041824639844513936 -0.0069766339045884609 -0.010852936021171163 -0.013125149169962682 0.012514974733294645 0.011615194013557066 0.00013886759078648645 0.00096709071169339897 -0.0049076559652581446 0.0054070557748585723 -0.0031174289770217688 -0.0068786535971023001 -0.016434281862447903 0.0077782888690249288
leaf_weight=10.365743964910505 13.200420916080473 16.016691476106647 15.865215450525282 16.258349001407623 11.935981482267378 16.187857657670975 11.730108171701429 15.895555347204207 13.958972990512846 23.249833256006241 12.066936135292051 12.703459799289702 62.764406889677048
leaf_count=24 28 33 33 37 27 37 26 34 31 51 25 26 149
internal_value=0 -0.00592309 -0.00302377 0.00573762 0.00476897 0.00629937 0.00743005 -0.00046728 0.000974294 -0.000806928 -0.0115136 -0.0133913 0.00841814
internal_weight=0 120.122 79.3353 132.077 115.819 102.618 86.4305 63.4701 47.5746 33.6156 40.7871 28.7202 74.7004
internal_count=561 257 173 304 267 239 202 140 106 75 84 59 176
shrinkage=0.02


Tree=37
num_leaves=14
num_cat=0
split_feature=0 6 4 5 2 5 9 5 2 5 2 2 10
split_gain=21.3862 4.79485 5.05394 2.08127 5.20135 1.74914 1.33294 1.03537 0.96209 0.963475 0.786093 0.418164 0.285058
threshold=2.5000000000000004 156.83130000000003 1.0000000180025095e-35 24.808350000000001 16.500000000000004 15.075000000000001 1.0000000180025095e-35 29.412500000000005 36.250000000000007 11.887500000000001 43.500000000000007 29.500000000000004 1.0000000180025095e-35
decision_type=2 2 2 2 2 2 2 2 2 2 2 2 2
left_child=1 2 7 4 -2 6 12 8 9 -1 11 -3 -6
right_child=3 10 -4 -5 5 -7 -8 -9 -10 -11 -12 -13 -14
leaf_value=-0.0041824639844513936 0.0069766339045884609 0.010852936021171163 0.013125149169962682 -0.012514974733294645 -0.011615194013557066 -0.00013886759078648645 -0.00096709071169339897 0.0049076559652581446 -0.0054070557748585723 0.0031174289770217688 0.0068786535971023001 0.016434281862447903 -0.0077782888690249288
leaf_weight=10.365743964910505 13.200420916080473 16.016691476106647 15.865215450525282 16.258349001407623 11.935981482267378 16.187857657670975 11.730108171701429 15.895555347204207 13.958972990512846 23.249833256006241 12.066936135292051 12.703459799289702 62.764406889677048
leaf_count=24 28 33 33 37 27 37 26 34 31 51 25 26 149
internal_value=0 0.00592309 0.00302377 -0.00573762 -0.00476897 -0.00629937 -0.00743005 0.00046728 -0.000974294 0.000806928 0.0115136 0.0133913 -0.00841814
internal_weight=0 120.122 79.3353 132.077 115.819 102.618 86.4305 63.4701 47.5746 33.6156 40.7871 28.7202 74.7004
internal_count=561 257 173 304 267 239 202 140 106 75 84 59 176
shrinkage=0.02


Tree=38
num_leaves=14
num_cat=0
split_feature=1 0 6 6 7 2 7 6 6 7 2 2 7
split_gain=42.8391 11.5777 4.70349 3.85371 1.56318 1.41206 1.39347 0.925864 0.294807 0.36506 0.399287 0.0509734 0.0246826
threshold=1.0000000180025095e-35 2.5000000000000004 55.997900000000008 23.350000000000005 27.500000000000004 14.250000000000002 11.000000000000002 91.793700000000015 7.7375000000000007 20.500000000000004 28.500000000000004 27.500000000000004 8.5000000000000018
decision_type=2 2 2 2 2 2 2 2 2 2 2 2 2
left_child=1 12 5 6 7 -2 -3 -4 11 10 -10 -7 -1
right_child=2 3 4 -5 -6 8 -8 -9 9 -11 -12 -13 -14
leaf_value=-0.014513822528978549 0.00094895498269882651 -0.009020217830600346 -0.0065774170524968336 0.0097913069431420779 0.0054679058586669998 0.0093224044219127958 -0.0005968209706133555 0.0015231338078158262 0.0092156451384473332 0.0116157992722718 0.0056325005962032659 0.012775540772993109 -0.016857039036900518
leaf_weight=21.788137376308441 9.0425137281417829 17.671824127435684 11.952354818582537 8.6181307435035688 15.668465316295622 8.6850236058235186 15.115416318178175 10.091725528240202 41.794977009296417 17.196833938360214 23.196772009134293 15.745039641857145 35.058511674404144
leaf_count=44 19 36 25 20 34 21 32 22 102 42 55 38 71
internal_value=0 -0.0101296 0.00678542 -0.00202974 0.000594739 0.00878667 -0.0051979 -0.00277828 0.00943264 0.00875521 0.00796753 0.0116298 -0.0159941
internal_weight=0 98.252 153.374 41.4054 37.7125 115.661 32.7872 22.0441 106.619 82.1886 64.9917 24.4301 56.8466
internal_count=561 203 358 88 81 277 68 47 258 199 157 59 115
shrinkage=0.02


Tree=39
num_leaves=13
num_cat=0
split_feature=1 0 2 0 5 7 2 7 5 2 7 2
split_gain=42.8391 11.5777 4.44664 4.43065 3.85371 1.39347 1.25371 0.56459 0.374568 0.406331 0.0246826 0.00260333
threshold=1.0000000180025095e-35 2.5000000000000004 9.5000000000000018 1.5000000000000002 23.350000000000005 11.000000000000002 36.250000000000007 16.500000000000004 7.7375000000000007 28.500000000000004 8.5000000000000018 27.500000000000004
decision_type=2 2 2 2 2 2 2 2 2 2 2 2
left_child=1 10 -2 6 5 -3 -4 8 -5 -10 -1 -9
right_child=2 4 3 7 -6 -7 -8 11 9 -11 -12 -13
leaf_value=0.014513822528978549 0.0065635944693400363 0.009020217830600346 0.0023397042221883274 -0.011235023933881254 -0.0097913069431420779 0.0005968209706133555 -0.0056480371889467617 -0.014076641504580789 -0.0090585486212340499 -0.0054636732637381048 0.016857039036900518 -0.011132609992366998
leaf_weight=21.788137376308441 9.2200981974601728 17.671824127435684 18.289731293916706 21.450961142778397 8.6181307435035688 15.115416318178175 13.584768891334532 10.019694834947588 44.022676199674606 22.766429841518402 35.058511674404144 14.019345194101332
leaf_count=44 19 36 39 52 20 32 29 24 107 54 71 34
internal_value=0 0.0101296 -0.00678542 -0.0076531 0.00202974 0.0051979 -0.00100189 -0.00952348 -0.00870548 -0.00786311 0.0159941 -0.0124429
internal_weight=0 98.252 153.374 144.154 41.4054 32.7872 31.8745 112.279 88.2401 66.7891 56.8466 24.039
internal_count=561 203 358 339 88 68 68 271 213 161 115 58
shrinkage=0.02


Tree=40
num_leaves=14
num_cat=0
split_feature=1 0 6 5 4 10 6 5 7 5 5 6 6
split_gain=35.2586 12.7078 4.31539 3.12149 2.42683 1.38658 0.891388 0.406919 0.283152 0.272801 0.546843 0.132023 0.0684474
threshold=1.0000000180025095e-35 2.5000000000000004 55.997900000000008 31.331250000000001 1.0000000180025095e-35 1.0000000180025095e-35 155.01255 10.508350000000002 16.500000000000004 7.910400000000001 8.2291500000000024 7.8646000000000003 52.250000000000007
decision_type=2 2 2 2 2 2 2 2 2 2 2 2 2
left_child=1 12 4 -4 8 -3 -5 -7 9 11 -11 -2 -1
right_child=2 5 3 6 -6 7 -8 -9 -10 10 -12 -13 -14
leaf_value=-0.014130187202591545 0.0087196479981883051 -0.0060646590368256172 -0.0099665495475260001 0.0076549691610333691 0.00018284141535863601 0.004324977070387064 0.00018303833059971598 -0.00069492165088818605 0.012096822677212904 0.003364489549072099 0.0085038403840927389 0.012057865679909517 -0.017073209886356286
leaf_weight=14.867832124233244 34.312273472547531 15.348364740610121 9.6308791041374189 11.065719902515413 15.635088771581648 11.505118876695635 16.461510449647903 13.488505244255064 11.767228424549101 13.20683443546295 31.958823978900909 10.709223479032515 37.802044928073883
leaf_count=30 84 31 20 25 35 24 35 30 29 32 77 26 77
internal_value=0 -0.00980718 0.00577371 -0.000114801 0.00765148 -0.00130625 0.00325935 0.00153583 0.0087772 0.0083219 0.00704533 0.00955813 -0.0162804
internal_weight=0 93.0119 154.748 37.1581 117.589 40.342 27.5272 24.9936 101.954 90.1872 45.1657 45.0215 52.6699
internal_count=555 192 363 80 283 85 60 54 248 219 109 110 107
shrinkage=0.02


Tree=41
num_leaves=15
num_cat=0
split_feature=1 0 2 6 6 10 7 5 7 7 5 2 5 6
split_gain=35.2586 12.7078 6.842 4.05124 2.64983 1.38658 0.77187 0.406919 0.302364 0.561054 0.372222 0.466192 0.445256 0.0684474
threshold=1.0000000180025095e-35 2.5000000000000004 13.500000000000002 78.42495000000001 96.750000000000014 1.0000000180025095e-35 29.500000000000004 10.508350000000002 16.500000000000004 55.000000000000007 7.910400000000001 32.250000000000007 8.2291500000000024 52.250000000000007
decision_type=2 2 2 2 2 2 2 2 2 2 2 2 2 2
left_child=1 13 -2 8 -5 -3 -6 -7 10 -10 11 -4 -12 -1
right_child=2 5 3 4 6 7 -8 -9 9 -11 12 -13 -14 -15
leaf_value=0.014130187202591545 0.0089677154759333928 0.0060646590368256172 -0.0083640741960786281 0.0081740469838729787 -0.0088784751513849777 -0.004324977070387064 -0.0009769080727825175 0.00069492165088818605 -0.013882944487247044 -0.0065849740306375797 -0.003364489549072099 -0.0138535134749174 -0.0080301518273977242 0.017073209886356286
leaf_weight=14.867832124233244 11.53643351793289 15.348364740610121 35.592813730239868 9.5753882527351397 9.1950320303440112 11.505118876695635 12.123524099588392 13.488505244255064 13.07064124941826 8.2247076332569105 13.20683443546295 9.4286832213401777 32.793523848056793 37.802044928073883
leaf_count=30 24 31 87 20 20 24 26 30 32 20 32 23 79 77
internal_value=0 0.00980718 -0.00577371 -0.00697517 -0.000492386 0.00130625 -0.00447879 -0.00153583 -0.00874052 -0.0111582 -0.00815291 -0.00955813 -0.0067341 0.0162804
internal_weight=0 93.0119 154.748 143.211 30.8939 40.342 21.3186 24.9936 112.317 21.2953 91.0219 45.0215 46.0004 52.6699
internal_count=555 192 363 339 66 85 46 54 273 52 221 110 111 107
shrinkage=0.02


Tree=42
num_leaves=14
num_cat=0
split_feature=1 0 6 5 4 10 6 5 7 5 5 6 6
split_gain=33.9918 12.2965 4.20557 2.99618 2.35613 1.33018 0.87339 0.391936 0.277862 0.266188 0.534426 0.132481 0.0676359
threshold=1.0000000180025095e-35 2.5000000000000004 55.997900000000008 31.331250000000001 1.0000000180025095e-35 1.0000000180025095e-35 155.01255 10.508350000000002 16.500000000000004 7.910400000000001 8.2291500000000024 7.8646000000000003 52.250000000000007
decision_type=2 2 2 2 2 2 2 2 2 2 2 2 2
left_child=1 12 4 -4 8 -3 -5 -7 9 11 -11 -2 -1
right_child=2 5 3 6 -6 7 -8 -9 -10 10 -12 -13 -14
leaf_value=-0.01388717014071192 0.0086047757602358849 -0.0059377469675670289 -0.0097515628754265438 0.0075574172390664943 0.00019189616662939113 0.0042459914634358541 0.00014980859052621926 -0.00068073754661711772 0.011978911129949057 0.0033065912192101394 0.0084000568112731454 0.011952594192919708 -0.016813601021418604
leaf_weight=14.82586747407913 34.04268416762352 15.362738996744154 9.6633390188217145 11.014596790075304 15.62291559576988 11.484963834285738 16.447490900754929 13.494112223386763 11.639220416545866 13.16970247030258 31.745555430650711 10.613638073205946 37.619824469089508
leaf_count=30 84 31 20 25 35 24 35 30 29 32 77 26 77
internal_value=0 -0.00963551 0.00568916 -0.000121932 0.00755283 -0.00128008 0.00319371 0.00150442 0.0086693 0.00821691 0.00695112 0.00944525 -0.0160245
internal_weight=0 92.7875 153.959 37.1254 116.834 40.3418 27.4621 24.9791 101.211 89.5716 44.9153 44.6563 52.4457
internal_count=555 192 363 80 283 85 60 54 248 219 109 110 107
shrinkage=0.02


Tree=43
num_leaves=15
num_cat=0
split_feature=1 0 2 0 5 7 5 5 7 7 5 5 2 6
split_gain=33.9918 12.2965 6.6929 3.93731 1.70321 1.04545 0.969552 0.67191 0.434105 0.472242 0.299938 0.432779 0.402389 0.0676359
threshold=1.0000000180025095e-35 2.5000000000000004 13.500000000000002 1.5000000000000002 30.597900000000003 26.500000000000004 7.883350000000001 15.372900000000001 16.500000000000004 55.000000000000007 7.910400000000001 8.2291500000000024 32.250000000000007 52.250000000000007
decision_type=2 2 2 2 2 2 2 2 2 2 2 2 2 2
left_child=1 13 -2 4 -4 -6 -3 -8 10 -10 12 -12 -5 -1
right_child=2 6 3 8 5 -7 7 -9 9 -11 11 -13 -14 -15
leaf_value=0.01388717014071192 0.0088759574158770848 0.0062566404663726947 0.0065012840238508549 -0.0081727342476446297 -0.0087879561552959805 0 -0.0036024555601921904 0.0024594783939688356 -0.013818047078507556 -0.0072728028948967505 -0.0033065912192101394 -0.0079196684117016584 -0.013667224415685429 0.016813601021418604
leaf_weight=14.82586747407913 11.552733629941939 11.333275169134138 9.4512224793434161 34.893854230642319 9.1621379256248492 12.263952910900114 14.947895914316179 14.060643970966337 13.776655197143556 9.0482789576053602 13.16970247030258 32.570586830377579 8.0700182318687421 37.619824469089508
leaf_count=30 24 23 20 86 20 26 31 31 34 22 32 79 20 77
internal_value=0 0.00963551 -0.00568916 -0.0068848 -0.000495464 -0.00367513 0.00128008 -0.000595248 -0.00863578 -0.011311 -0.00792486 -0.00663518 -0.00925133 0.0160245
internal_weight=0 92.7875 153.959 142.406 30.8773 21.4261 40.3418 29.0085 111.529 22.8249 88.7042 45.7403 42.9639 52.4457
internal_count=555 192 363 339 66 46 85 62 273 56 217 111 106 107
shrinkage=0.02


Tree=44
num_leaves=14
num_cat=0
split_feature=1 0 2 6 6 10 5 6 5 2 2 10 6
split_gain=32.7739 11.9091 7.30241 4.16906 2.22293 1.29629 0.383571 0.364843 0.647517 0.394125 0.379607 0.307204 0.0671598
threshold=1.0000000180025095e-35 2.5000000000000004 7.5000000000000009 78.42495000000001 96.750000000000014 1.0000000180025095e-35 10.508350000000002 26.500000000000004 7.910400000000001 19.500000000000004 32.250000000000007 1.0000000180025095e-35 52.250000000000007
decision_type=2 2 2 2 2 2 2 2 2 2 2 2 2
left_child=1 12 -2 7 -5 -3 -7 8 10 -10 -4 -6 -1
right_child=2 5 3 4 11 6 -8 -9 9 -11 -12 -13 -14
leaf_value=-0.013652963524893494 -0.013150826852014116 -0.0058509197682820105 0.0086243381132857476 -0.0078322602414378408 0.00072034087008963996 0.0042089115419857654 -0.00066396572102698809 0.011567504914559455 0.001862912994955627 0.0070039972696095652 0.013678566918758435 0.0058044260474978439 -0.016566018728905851
leaf_weight=14.779057204723356 7.8080254495143881 15.371124804019926 38.27412161231041 9.6261867284774798 9.3337628245353716 11.474113285541536 13.502713561058043 15.342628479003904 8.2249154448509199 42.930470019578934 9.2535469532012922 12.377648353576658 37.420409917831421
leaf_count=30 16 31 95 20 20 24 30 37 20 105 23 27 77
internal_value=0 -0.00946857 0.00560574 0.00662699 0.000101279 -0.00125427 0.00149451 0.00840291 0.00789063 0.00621649 0.00965047 0.00371089 -0.0157796
internal_weight=0 92.5474 153.171 145.363 31.3376 40.348 24.9768 114.026 98.6831 51.1554 47.5277 21.7114 52.1995
internal_count=555 192 363 347 67 85 54 280 243 125 118 47 107
shrinkage=0.02


Tree=45
num_leaves=17
num_cat=0
split_feature=6 2 2 5 6 5 2 7 2 5 6 2 2 2 7 5
split_gain=18.5147 5.20334 2.20325 1.86032 1.56062 3.20426 1.66116 1.40073 1.1567 1.07328 2.2616 1.10227 0.991096 0.563314 0.320833 0.0926745
threshold=47.45000000000001 7.5000000000000009 17.500000000000004 82.664550000000006 14.750000000000002 23.350000000000005 17.500000000000004 27.500000000000004 32.250000000000007 30.597900000000003 155.01255 33.500000000000007 28.500000000000004 30.250000000000004 32.500000000000007 7.910400000000001
decision_type=2 2 2 2 2 2 2 2 2 2 2 2 2 2 2 2
left_child=1 -1 -2 9 6 7 -3 13 12 11 -11 -4 -8 -6 -5 -10
right_child=2 4 3 14 5 -7 8 -9 15 10 -12 -13 -14 -15 -16 -17
leaf_value=0.010550905291483838 0.015967002942057388 0.00186838892463774 0.01233699471842677 0.014383930982680438 -0.0041416236510760261 -0.012323303875050755 -0.0069815278654531158 0.0062670118256381467 -0.013815586000449447 -0.0033019042443726953 0.0068855866361025066 0.0028140395351170105 -0.00030719793547345162 0.0013866035931090559 0.0084329079315811004 -0.009448940540154693
leaf_weight=9.2104675471782667 11.085913389921187 8.58788353204727 11.047652095556261 10.142890214920046 17.880818814039234 9.7291910350322706 61.393605053424835 11.773938328027723 9.3127336800098437 16.13736554980278 18.572444885969162 9.8600716292858106 11.148861408233641 11.840674787759779 9.5831539332866651 8.4110587537288648
leaf_count=19 23 19 23 21 41 23 146 27 23 36 39 22 26 27 20 20
internal_value=0 -0.00397204 0.00752471 0.00625598 -0.00487666 -0.00198626 -0.00635418 0.000389202 -0.00715863 0.00432669 0.00209157 0.00794163 -0.00598334 -0.00187196 0.0115942 -0.0118562
internal_weight=0 159.289 86.4295 75.3436 150.079 51.2246 98.8541 41.4954 90.2663 55.6175 34.7098 20.9077 72.5425 29.7215 19.726 17.7238
internal_count=555 371 184 161 352 118 234 95 215 120 75 45 172 68 41 43
shrinkage=0.02


Tree=46
num_leaves=15
num_cat=0
split_feature=1 0 2 0 6 7 10 7 6 7 2 6 6 6
split_gain=32.0146 11.5625 7.06248 4.0331 1.42554 1.26091 1.26074 0.662099 0.505521 0.386859 0.375145 0.275572 0.243398 0.0612987
threshold=1.0000000180025095e-35 2.5000000000000004 7.5000000000000009 1.5000000000000002 91.793700000000015 26.500000000000004 1.0000000180025095e-35 20.500000000000004 7.910400000000001 55.000000000000007 32.250000000000007 8.2291500000000024 11.187500000000002 52.250000000000007
decision_type=2 2 2 2 2 2 2 2 2 2 2 2 2 2
left_child=1 13 -2 4 -4 -6 -3 8 10 -9 -5 -10 -8 -1
right_child=2 6 3 7 5 -7 12 9 11 -11 -12 -13 -14 -15
leaf_value=-0.013510851997673974 -0.012852172626373112 -0.0058052407463127214 -0.0062607929525060326 0.0080910233513204269 0.0087146045788756635 -0.00090251391495597749 0.0034444368876258048 0.013851116121623118 0.0031465309975608571 0.0079460019162253311 0.013469685968841086 0.0069167175074350941 -0.00038541969191148976 -0.016378181031778776
leaf_weight=14.746619045734404 7.8369341790676108 15.375062346458433 9.4770476818084735 35.184734255075455 9.1307670176029223 12.75089383125305 12.400075852870943 13.73028287291527 13.066532552242277 9.8866443336009961 7.8904334902763358 33.630714923143387 12.53802505135536 37.250967413187027
leaf_count=30 16 31 20 88 20 27 26 34 32 24 20 82 28 77
internal_value=0 -0.00936748 0.00555387 0.00656423 0.000150814 0.00301911 -0.00127445 0.00832027 0.00747101 0.0114638 0.00912271 0.0059046 0.00143872 -0.0156035
internal_weight=0 92.3107 152.585 144.748 31.3587 21.8817 40.3132 113.389 89.7724 23.6169 43.0752 46.6972 24.9381 51.9976
internal_count=555 192 363 347 67 47 85 280 222 58 108 114 54 107
shrinkage=0.02


Tree=47
num_leaves=15
num_cat=0
split_feature=1 0 2 0 5 7 10 7 5 7 2 5 5 5
split_gain=32.0146 11.5625 7.06248 4.0331 1.42554 1.26091 1.26074 0.662099 0.505521 0.386859 0.375145 0.371905 0.275572 0.0422104
threshold=1.0000000180025095e-35 2.5000000000000004 7.5000000000000009 1.5000000000000002 30.597900000000003 26.500000000000004 1.0000000180025095e-35 20.500000000000004 7.910400000000001 55.000000000000007 32.250000000000007 10.508350000000002 8.2291500000000024 26.125000000000004
decision_type=2 2 2 2 2 2 2 2 2 2 2 2 2 2
left_child=1 13 -2 4 -4 -6 -3 8 10 -9 -5 -8 -10 -1
right_child=2 6 3 7 5 -7 11 9 12 -11 -12 -13 -14 -15
leaf_value=0.013647933848635755 0.012852172626373112 0.0058052407463127214 0.0062607929525060326 -0.0080910233513204269 -0.0087146045788756635 0.00090251391495597749 -0.0041165475608012318 -0.013851116121623118 -0.0031465309975608571 -0.0079460019162253311 -0.013469685968841086 0.00068619258728627112 -0.0069167175074350941 0.016359732119502687
leaf_weight=15.238637208938597 7.8369341790676108 15.375062346458433 9.4770476818084735 35.184734255075455 9.1307670176029223 12.75089383125305 11.449967145919802 13.73028287291527 13.066532552242277 9.8866443336009961 7.8904334902763358 13.488133758306502 33.630714923143387 36.758949249982834
leaf_count=31 16 31 20 88 20 27 24 34 32 24 20 30 82 76
internal_value=0 0.00936748 -0.00555387 -0.00656423 -0.000150814 -0.00301911 0.00127445 -0.00832027 -0.00747101 -0.0114638 -0.00912271 -0.00143872 -0.0059046 0.0156035
internal_weight=0 92.3107 152.585 144.748 31.3587 21.8817 40.3132 113.389 89.7724 23.6169 43.0752 24.9381 46.6972 51.9976
internal_count=555 192 363 347 67 47 85 280 222 58 108 54 114 107
shrinkage=0.02


Tree=48
num_leaves=15
num_cat=0
split_feature=1 0 2 6 6 10 7 7 5 7 2 5 0 6
split_gain=30.8782 11.2106 6.80063 3.93887 2.12448 1.20965 0.951211 0.494037 0.581588 0.446307 0.439218 0.359958 0.334881 0.0618024
threshold=1.0000000180025095e-35 2.5000000000000004 7.5000000000000009 78.42495000000001 96.750000000000014 1.0000000180025095e-35 29.500000000000004 20.500000000000004 7.910400000000001 55.000000000000007 32.250000000000007 10.508350000000002 2.5000000000000004 52.250000000000007
decision_type=2 2 2 2 2 2 2 2 2 2 2 2 2 2
left_child=1 13 -2 7 -5 -3 -6 8 10 -9 -4 -7 -10 -1
right_child=2 5 3 4 6 11 -8 9 12 -11 -12 -13 -14 -15
leaf_value=-0.013288682582533016 -0.012550834561923564 -0.0056847983697537038 0.0080652915393544904 -0.0076021972855533819 0.0086037063649216042 0.0040475212778439294 0 0.013721806094132349 0.0081415830036323383 0.0072163643671274078 0.013494959583178506 -0.00067799552725880327 0.0043454541579892427 -0.016150555988987913
leaf_weight=14.692325025796888 7.8643082380294791 15.386672824621199 35.355349004268646 9.6553540527820605 9.0892813503742236 11.431514769792559 12.580469012260435 12.74486291408539 17.478695899248123 8.9726536571979505 9.0519285500049573 13.491645008325575 28.987582683563232 37.023981511592865
leaf_count=30 16 31 89 20 20 24 27 32 43 22 23 30 71 77
internal_value=0 -0.00920986 0.005473 0.00647181 0.000133765 -0.00124903 0.00367296 0.00821741 0.00750026 0.0111262 0.00921711 0.00140921 0.00581644 -0.0153762
internal_weight=0 92.0261 151.78 143.916 31.3251 40.3098 21.6698 112.591 90.8736 21.7175 44.4073 24.9232 46.4663 51.7163
internal_count=555 192 363 347 67 85 47 280 226 54 112 54 114 107
shrinkage=0.02


Tree=49
num_leaves=15
num_cat=0
split_feature=1 0 2 6 6 10 7 7 6 7 2 0 6 6
split_gain=30.8782 11.2106 6.80063 3.93887 2.12448 1.20965 0.951211 0.494037 0.532795 0.446307 0.411245 0.371852 0.233807 0.0618024
threshold=1.0000000180025095e-35 2.5000000000000004 7.5000000000000009 78.42495000000001 96.750000000000014 1.0000000180025095e-35 29.500000000000004 20.500000000000004 7.910400000000001 55.000000000000007 32.250000000000007 2.5000000000000004 11.187500000000002 52.250000000000007
decision_type=2 2 2 2 2 2 2 2 2 2 2 2 2 2
left_child=1 13 -2 7 -5 -3 -6 8 10 -9 -4 -10 -7 -1
right_child=2 5 3 4 6 12 -8 9 11 -11 -12 -13 -14 -15
leaf_value=0.013288682582533016 0.012550834561923564 0.0056847983697537038 -0.0080652915393544904 0.0076021972855533819 -0.0086037063649216042 -0.0033777479833164859 0 -0.013721806094132349 -0.0082902837191413288 -0.0072163643671274078 -0.013449932113023014 -0.0043454541579892427 0.00037457958638005616 0.016150555988987913
leaf_weight=14.692325025796888 7.8643082380294791 15.386672824621199 35.355349004268646 9.6553540527820605 9.0892813503742236 12.38104358315468 12.580469012260435 12.74486291408539 17.903435915708542 8.9726536571979505 8.6271885335445386 28.987582683563232 12.542116194963453 37.023981511592865
leaf_count=30 16 31 89 20 20 26 27 32 44 22 22 71 28 77
internal_value=0 0.00920986 -0.005473 -0.00647181 -0.000133765 0.00124903 -0.00367296 -0.00821741 -0.00750026 -0.0111262 -0.00916696 -0.00589428 -0.00140921 0.0153762
internal_weight=0 92.0261 151.78 143.916 31.3251 40.3098 21.6698 112.591 90.8736 21.7175 43.9825 46.891 24.9232 51.7163
internal_count=555 192 363 347 67 85 47 280 226 54 111 115 54 107
shrinkage=0.02


Tree=50
num_leaves=17
num_cat=0
split_feature=6 2 6 2 5 6 5 9 7 2 2 5 2 7 5 2
split_gain=14.862 3.41814 2.18069 3.24237 1.6466 1.94733 1.23154 1.20454 0.943099 0.692342 0.534546 0.533697 0.322525 0.205 0.192347 0.0221829
threshold=47.45000000000001 5.5000000000000009 156.83130000000003 24.250000000000004 23.350000000000005 15.372900000000001 36.125000000000007 1.0000000180025095e-35 4.5000000000000009 36.250000000000007 27.500000000000004 13.645850000000001 43.500000000000007 29.500000000000004 16.400000000000002 30.250000000000004
decision_type=2 2 2 2 2 2 2 2 2 2 2 2 2 2 2 2
left_child=1 -1 3 -2 5 7 9 10 -4 -5 -3 15 13 -10 -13 -7
right_child=2 4 8 6 -6 11 -8 -9 12 -11 -12 14 -14 -15 -16 -17
leaf_value=-0.0069918715651844845 -0.012122631884261556 0.0048945997504468873 -0.014565048619990296 -0.0057432151160775533 0.012554171346285264 0.0036464224043691578 0.0051592340848095894 0.00036552157385875901 -0.0062214078294349695 0.00044679587641473445 0.0082813785855877248 -0.0036614464568307278 -0.0042680353129310716 -0.010951043370854721 0.0001272064061985697 0.0015941853176827362
leaf_weight=10.290541946887968 12.193072080612181 40.512022972106934 10.900088191032408 13.986876577138903 10.589576154947279 10.287083506584169 11.57867184281349 14.956392854452131 9.4142928719520587 13.826413214206694 43.443477213382721 10.874550193548204 10.900165200233458 11.914986550807951 8.6644379794597608 8.7378192245960218
leaf_count=21 26 97 23 30 25 24 26 34 20 30 106 25 23 25 20 20
internal_value=0 0.00407467 -0.00593954 -0.00310608 0.0048573 0.00424988 -0.000264393 0.00573772 -0.00928214 -0.00259416 0.00667094 0.000381869 -0.00743339 -0.00895725 -0.00187903 0.00280899
internal_weight=0 158.356 94.7146 51.585 148.065 137.476 39.392 98.9119 43.1295 27.8133 83.9555 38.5639 32.2294 21.3293 19.539 19.0249
internal_count=575 372 203 112 351 326 86 237 91 60 203 89 68 45 45 44
shrinkage=0.02


Tree=51
num_leaves=16
num_cat=0
split_feature=1 0 0 5 2 10 5 8 5 5 10 5 5 5 5
split_gain=31.4748 10.7704 5.02425 4.57583 3.03756 0.791281 0.748807 0.964918 0.625526 0.467642 0.381946 0.55699 0.458882 0.133238 0.111241
threshold=1.0000000180025095e-35 2.5000000000000004 1.5000000000000002 19.379150000000003 13.500000000000002 1.0000000180025095e-35 30.597900000000003 1.0000000180025095e-35 23.350000000000005 9.5437500000000011 1.0000000180025095e-35 10.316650000000001 7.883350000000001 29.412500000000005 126.82500000000002
decision_type=2 2 2 2 2 2 2 2 2 2 2 2 2 2 2
left_child=1 13 6 5 -4 -3 -2 -8 10 -7 12 -12 -6 -1 -15
right_child=2 3 4 -5 8 9 7 -9 -10 -11 11 -13 -14 14 -16
leaf_value=0.012399741999135358 0.0040856647041755192 0.0074256485057225168 0.0021383255961274035 -0.01206302727030226 -0.0082336002672016573 -0.0016921302802986183 -0.0054361500054738963 0.0022318409093064458 -0.013729341268430022 0.0044866172192310223 -0.0081481875936678366 -0.012549122861306191 -0.0019685332954005913 0.016320336023764023 0.012427966248545285
leaf_weight=20.953134059906006 13.054361939430235 16.4342100918293 10.170113682746885 8.5959786176681501 14.489906251430513 9.5573669373989123 13.811736732721329 12.067203521728516 12.040271967649458 9.4833275973796827 51.015204221010208 18.225489020347595 8.3242483735084516 25.216700464487076 9.6312150955200178
leaf_count=43 27 33 21 20 36 20 30 26 30 20 130 46 20 53 20
internal_value=0 0.00840849 -0.00602133 0.000969277 -0.00813584 0.00418353 0.00013318 -0.00178333 -0.00915884 0.00128019 -0.00853932 -0.00933548 -0.00603532 0.014248 0.015302
internal_weight=0 99.8719 153.199 44.0709 114.265 35.4749 38.9333 25.8789 104.095 19.0407 92.0548 69.2407 22.8142 55.801 34.8479
internal_count=575 209 366 93 283 73 83 56 262 40 232 176 56 116 73
shrinkage=0.02


Tree=52
num_leaves=16
num_cat=0
split_feature=1 0 0 5 7 8 10 5 7 5 5 6 6 5 5
split_gain=30.7887 10.4596 4.88676 4.47769 1.30926 1.04344 0.766522 0.737809 0.945488 0.451985 0.259642 0.325774 0.170644 0.125331 0.114402
threshold=1.0000000180025095e-35 2.5000000000000004 1.5000000000000002 19.379150000000003 19.500000000000004 1.0000000180025095e-35 1.0000000180025095e-35 30.597900000000003 21.500000000000004 9.5437500000000011 14.479150000000002 20.787500000000005 23.350000000000005 29.412500000000005 126.82500000000002
decision_type=2 2 2 2 2 2 2 2 2 2 2 2 2 2 2
left_child=1 13 7 6 5 10 -3 -2 -9 -8 11 -4 -6 -1 -15
right_child=2 3 4 -5 12 -7 9 8 -10 -11 -12 -13 -14 14 -16
leaf_value=-0.012282426170237509 -0.0040183098498382626 -0.0073582294570745926 0.0075575307202233486 0.011954252463326695 0.0098625747384005723 0.001277964997838166 0.0016170783334656172 0.006200072560525214 -0.0014342671766173327 -0.0044541708400371331 0.0044820236867471287 0.011803492493752317 0.014323025082614719 -0.016164460537064173 -0.012251231814222057
leaf_weight=20.90166649222374 13.065595030784605 16.437116920948029 55.930059015750885 8.5298227071762067 10.972829669713976 12.225955843925474 9.5417739152908343 11.253498911857607 14.638065010309218 9.4886048734188062 10.905031144618986 10.81254595518112 12.783946692943571 25.076354712247849 9.586919963359831
leaf_count=43 27 33 143 20 28 29 20 25 31 20 25 27 31 53 20
internal_value=0 -0.00832981 0.00596655 -0.000995845 0.0080625 0.0069077 -0.00416669 -9.55921e-05 0.00180667 -0.00130497 0.00776837 0.00827536 0.012347 -0.014101 -0.0151399
internal_weight=0 99.5623 152.588 43.9973 113.63 89.8736 35.4675 38.9572 25.8916 19.0304 77.6476 66.7426 23.7568 55.5649 34.6633
internal_count=575 209 366 93 283 224 73 83 56 40 195 170 59 116 73
shrinkage=0.02


Tree=53
num_leaves=17
num_cat=0
split_feature=6 2 6 2 5 6 5 9 7 2 2 5 2 7 5 2
split_gain=14.3503 3.32406 2.10505 3.15383 1.61355 1.8994 1.19619 1.17066 0.917987 0.676773 0.526431 0.520707 0.312586 0.201503 0.18728 0.0215727
threshold=47.45000000000001 5.5000000000000009 156.83130000000003 24.250000000000004 23.350000000000005 15.372900000000001 36.125000000000007 1.0000000180025095e-35 4.5000000000000009 36.250000000000007 27.500000000000004 13.645850000000001 43.500000000000007 29.500000000000004 16.400000000000002 30.250000000000004
decision_type=2 2 2 2 2 2 2 2 2 2 2 2 2 2 2 2
left_child=1 -1 3 -2 5 7 9 10 -4 -5 -3 15 13 -10 -13 -7
right_child=2 4 8 6 -6 11 -8 -9 12 -11 -12 14 -14 -15 -16 -17
leaf_value=0.0068922881043243503 0.011964420646853833 -0.0048196028722473873 0.014358863608396872 0.0056595685384137088 -0.012444215726135062 -0.0035978377054678911 -0.0051092225174250586 -0.00036032106567268933 0.0060938570372974978 -0.00046342546360494453 -0.0081898408480536623 0.0036283608749776005 0.0041832897778884852 0.010789278885418556 -0.00010878546990225129 -0.001562146882380451
leaf_weight=10.297424823045729 12.148133277893065 40.338422447443008 10.849844843149183 13.9771024286747 10.497430533170698 10.235419392585756 11.529466390609739 14.929372340440748 9.3953539133071917 13.805012017488478 43.172927021980286 10.865621775388719 10.888370782136915 11.876724272966383 8.6416817009448987 8.7014788985252363
leaf_count=21 26 97 23 30 25 24 26 34 20 30 106 25 23 25 20 20
internal_value=0 -0.00401426 0.00584187 0.00305376 -0.00478986 -0.00418825 0.000249295 -0.00566203 0.00913121 0.00254505 -0.00658587 -0.000362449 0.00730538 0.00880945 0.00187029 -0.00276805
internal_weight=0 157.68 94.47 51.4597 147.382 136.885 39.3116 98.4407 43.0103 27.7821 83.5113 38.4442 32.1604 21.2721 19.5073 18.9369
internal_count=575 372 203 112 351 326 86 237 91 60 203 89 68 45 45 44
shrinkage=0.02


Tree=54
num_leaves=16
num_cat=0
split_feature=1 0 0 5 2 10 5 7 6 5 10 5 5 5 5
split_gain=30.1202 10.1612 4.75154 4.38196 2.95521 0.742551 0.726998 0.920606 0.726861 0.436832 0.369374 0.526663 0.485151 0.118115 0.117557
threshold=1.0000000180025095e-35 2.5000000000000004 1.5000000000000002 19.379150000000003 13.500000000000002 1.0000000180025095e-35 30.597900000000003 21.500000000000004 27.950000000000003 9.5437500000000011 1.0000000180025095e-35 10.316650000000001 7.883350000000001 29.412500000000005 126.82500000000002
decision_type=2 2 2 2 2 2 2 2 2 2 2 2 2 2 2
left_child=1 13 6 5 -4 -3 -2 -8 10 -7 12 -12 -6 -1 -15
right_child=2 3 4 -5 8 9 7 -9 -10 -11 11 -13 -14 14 -16
leaf_value=-0.01216750391485923 -0.0039522751321774555 -0.0072916132661113332 -0.0021457470521832008 0.011847928215579926 0.0080998264290364306 0.0015434633607662913 0.0061696199074133323 -0.0013609005906960764 0.01371540395510476 -0.0044218711824806902 0.0079669851028003752 0.012359292594206914 0.0016487521665498354 -0.016014398100439149 -0.012079496284823259
leaf_weight=20.848387628793716 13.076279908418654 16.439497917890549 10.156497865915297 8.4632420837879163 14.357318311929705 9.5262415409088153 11.237975567579271 14.661906629800795 12.806032955646513 9.4937091469764692 50.325341314077377 17.177398920059204 8.2031189203262311 24.930994272232056 9.5409902334213239
leaf_count=43 27 33 21 20 36 20 25 31 32 20 130 44 20 53 20
internal_value=0 -0.008253 0.0059118 -0.00102168 0.00798849 -0.00414973 -5.90211e-05 0.00182938 0.00900851 -0.00132895 0.00831703 0.00911432 0.00584283 -0.0139583 -0.0149833
internal_weight=0 99.2431 152.002 43.9227 113.026 35.4594 38.9762 25.8999 102.869 19.02 90.0632 67.5027 22.5604 55.3204 34.472
internal_count=575 209 366 93 283 73 83 56 262 40 230 174 56 116 73
shrinkage=0.02


Tree=55
num_leaves=17
num_cat=0
split_feature=6 2 6 2 5 6 5 9 7 5 2 5 2 7 5 2
split_gain=13.8501 3.25838 2.02681 3.06724 1.5691 1.85611 1.16295 1.13942 0.903588 0.662209 0.52066 0.509751 0.304834 0.195988 0.182207 0.0209905
threshold=47.45000000000001 5.5000000000000009 156.83130000000003 24.250000000000004 23.350000000000005 15.372900000000001 36.125000000000007 1.0000000180025095e-35 4.5000000000000009 29.412500000000005 27.500000000000004 13.645850000000001 43.500000000000007 29.500000000000004 16.400000000000002 30.250000000000004
decision_type=2 2 2 2 2 2 2 2 2 2 2 2 2 2 2 2
left_child=1 -1 3 -2 5 7 9 10 -4 -5 -3 15 13 -10 -13 -7
right_child=2 4 8 6 -6 11 -8 -9 12 -11 -12 14 -14 -15 -16 -17
leaf_value=0.0068421292805595293 0.011809970762283533 -0.004747882239706078 0.01417941335910854 0.00010645760665835222 -0.012312909585957708 -0.0035546412109572841 -0.0050600164457324922 -0.00035665919209216797 0.0059686679066751763 0.0066926987917137097 -0.0081076179018582644 0.003598123405531551 0.0040804376557733897 0.010612230796049654 -8.6313003148603718e-05 -0.0015343667485748422
leaf_weight=10.298123955726622 12.10302212834358 40.17192804813385 10.792559564113615 17.967373639345173 10.395889937877653 10.18637275695801 11.479644089937208 14.903298646211622 9.3754258155822772 9.7815868854522687 42.927846759557724 10.855598598718645 10.880590736865996 11.840646237134932 8.6184606254100782 8.6665647923946363
leaf_count=21 26 97 23 39 25 24 26 34 20 21 106 25 23 25 20 20
internal_value=0 -0.00395368 0.00574471 0.00300452 -0.00472503 -0.00413174 0.000236837 -0.00559258 0.00897764 0.0025002 -0.00650753 -0.000344162 0.00716623 0.0086545 0.00186483 -0.00273202
internal_weight=0 157.024 94.2208 51.3316 146.726 136.33 39.2286 98.0031 42.8892 27.749 83.0998 38.327 32.0967 21.2161 19.4741 18.8529
internal_count=575 372 203 112 351 326 86 237 91 60 203 89 68 45 45 44
shrinkage=0.02


Tree=56
num_leaves=15
num_cat=0
split_feature=1 0 0 5 2 6 5 8 10 8 2 5 5 5
split_gain=29.4744 9.87628 4.61919 4.28864 2.89044 0.731492 0.72063 0.935562 0.719332 0.496466 0.43448 0.422154 0.110931 0.120656
threshold=1.0000000180025095e-35 2.5000000000000004 1.5000000000000002 19.379150000000003 13.500000000000002 27.950000000000003 30.597900000000003 1.0000000180025095e-35 1.0000000180025095e-35 1.0000000180025095e-35 23.250000000000004 9.5437500000000011 29.412500000000005 126.82500000000002
decision_type=2 2 2 2 2 2 2 2 2 2 2 2 2 2
left_child=1 12 6 8 -4 9 -2 -8 -3 10 -6 -10 -1 -14
right_child=2 3 4 -5 5 -7 7 -9 11 -11 -12 -13 13 -15
leaf_value=-0.012057952412543085 -0.0038970153725695028 -0.0072257306812622962 -0.0021003006602272733 0.011744058334564574 0.011512791961991212 0.013663634875996747 0.0054585665508181426 -0.0020805328793816868 0.0014712189080988024 0.0041905966335254391 0.0078202171092577252 -0.0043896563953698163 -0.015869476220333113 -0.011912508946490775
leaf_weight=20.795169115066528 13.084923595190046 16.441363006830215 10.157671719789503 8.3963692784309369 21.120211690664291 12.729337364435194 13.806218713521957 12.107246667146683 9.5107723176479357 12.3309990465641 56.054548114538193 9.4986501634120923 24.78059846162796 9.4935559928417188
leaf_count=43 27 33 21 20 55 32 30 26 20 30 145 20 53 20
internal_value=0 -0.00817853 0.00585874 -0.00104675 0.00791671 0.00893152 -2.10139e-05 0.00185898 -0.00413261 0.00823618 0.00885667 -0.00135214 -0.0138207 -0.0148318
internal_weight=0 98.9165 151.391 43.8472 112.393 102.235 38.9984 25.9135 35.4508 89.5058 77.1748 19.0094 55.0693 34.2742
internal_count=575 209 366 93 283 262 83 56 73 230 200 40 116 73
shrinkage=0.02


Tree=57
num_leaves=15
num_cat=0
split_feature=1 0 0 5 2 6 5 8 10 8 2 5 5 5
split_gain=29.4744 9.87628 4.61919 4.28864 2.89044 0.731492 0.72063 0.935562 0.719332 0.496466 0.43448 0.422154 0.110931 0.120656
threshold=1.0000000180025095e-35 2.5000000000000004 1.5000000000000002 19.379150000000003 13.500000000000002 27.950000000000003 30.597900000000003 1.0000000180025095e-35 1.0000000180025095e-35 1.0000000180025095e-35 23.250000000000004 9.5437500000000011 29.412500000000005 126.82500000000002
decision_type=2 2 2 2 2 2 2 2 2 2 2 2 2 2
left_child=1 12 6 8 -4 9 -2 -8 -3 10 -6 -10 -1 -14
right_child=2 3 4 -5 5 -7 7 -9 11 -11 -12 -13 13 -15
leaf_value=0.012057952412543085 0.0038970153725695028 0.0072257306812622962 0.0021003006602272733 -0.011744058334564574 -0.011512791961991212 -0.013663634875996747 -0.0054585665508181426 0.0020805328793816868 -0.0014712189080988024 -0.0041905966335254391 -0.0078202171092577252 0.0043896563953698163 0.015869476220333113 0.011912508946490775
