tree
version=v4
num_class=1
num_tree_per_iteration=1
label_index=0
max_feature_idx=10
objective=regression
feature_names=Pclass Sex Age SibSp Parch Fare cross1 cross2 Embarked_C Embarked_Q Embarked_S
feature_infos=[1:3] [0:1] [0.41999999999999998:80] [0:8] [0:6] [0:512.32920000000001] [0:1536.9875999999999] [0:320] [0:1] [0:1] [0:1]
tree_sizes=1034 1095 1097 1095 1094 1094 1094 1093 1091 1095 1094 1100 1090 1097 1097 1099 1098 1099 1098 1098 1102 1098 1104 1099 1100 1099 1098 1104 1091 1105 1099 1098 1106 1096 1105 1105 1097 1104 1102 1105 1100 1099 1104 1101 1107 1100 1103 1105 1101 1106

Tree=0
num_leaves=11
num_cat=0
split_feature=1 0 6 7 2 6 5 5 2 5
split_gain=46.641 11.7537 6.82092 3.01538 1.68389 0.951954 0.363627 0.203522 0.170642 0.069647
threshold=1.0000000180025095e-35 2.5000000000000004 55.997900000000008 8.5000000000000018 20.500000000000004 94.981200000000015 26.125000000000004 7.7458500000000008 28.250000000000004 8.5896000000000026
decision_type=2 2 2 2 2 2 2 2 2 2
left_child=1 6 4 -3 -2 -4 -1 -6 9 -9
right_child=2 3 5 -5 7 -7 -8 8 -10 -11
leaf_value=0.40090674136100191 0.39480944424541825 0.3990298183400155 0.39730674146829031 0.39579904920553072 0.39259854488729401 0.39548909446363684 0.40198625940111893 0.39276247930863789 0.39356507491313397 0.39326058774272121
leaf_weight=50 74 52 50 65 61 68 83 61 96 52
leaf_count=50 74 52 50 65 61 68 83 61 96 52
internal_value=0.396067 0.399547 0.394185 0.397235 0.393473 0.396259 0.40158 0.393107 0.393255 0.392992
internal_weight=712 250 462 117 344 118 133 270 209 113
internal_count=712 250 462 117 344 118 133 270 209 113
is_linear=0
shrinkage=1


Tree=1
num_leaves=11
num_cat=0
split_feature=1 0 6 7 2 6 5 5 2 5
split_gain=45.7129 11.5198 6.68518 2.95538 1.65038 0.93301 0.356391 0.199472 0.167246 0.068261
threshold=1.0000000180025095e-35 2.5000000000000004 55.997900000000008 8.5000000000000018 20.500000000000004 94.981200000000015 26.125000000000004 7.7458500000000008 28.250000000000004 8.5896000000000026
decision_type=2 2 2 2 2 2 2 2 2 2
left_child=1 6 4 -3 -2 -4 -1 -6 9 -9
right_child=2 3 5 -5 7 -7 -8 8 -10 -11
leaf_value=0.0047909325838088991 -0.0012453917635453714 0.0029327789178261389 0.0012269325971603394 -0.00026568271563603328 -0.003434182131876711 -0.00057253802523893468 0.0058596556552921435 -0.0032718871167448701 -0.0024773175083100795 -0.0027787598279806285
leaf_weight=50 74 52 50 65 61 68 83 61 96 52
leaf_count=50 74 52 50 65 61 68 83 61 96 52
internal_value=1.88357e-11 0.00344453 -0.00186392 0.00115586 -0.00256845 0.00018995 0.00545788 -0.00293107 -0.00278423 -0.00304496
internal_weight=712 250 462 117 344 118 133 270 209 113
internal_count=712 250 462 117 344 118 133 270 209 113
is_linear=0
shrinkage=0.01


Tree=2
num_leaves=11
num_cat=0
split_feature=1 0 6 7 2 6 5 5 2 5
split_gain=44.8032 11.2905 6.55215 2.89657 1.61754 0.914443 0.349299 0.195502 0.163918 0.0669027
threshold=1.0000000180025095e-35 2.5000000000000004 55.997900000000008 8.5000000000000018 20.500000000000004 94.981200000000015 26.125000000000004 7.7458500000000008 28.250000000000004 8.5896000000000026
decision_type=2 2 2 2 2 2 2 2 2 2
left_child=1 6 4 -3 -2 -4 -1 -6 9 -9
right_child=2 3 5 -5 7 -7 -8 8 -10 -11
leaf_value=0.0047430230021476743 -0.0012329377515895947 0.0029034510484108557 0.0012146631240844727 -0.00026302594863451443 -0.0033998403197429217 -0.00056681260028306174 0.0058010589286505458 -0.0032391683390883149 -0.0024525443712870281 -0.0027509721425863416
leaf_weight=50 74 52 50 65 61 68 83 61 96 52
leaf_count=50 74 52 50 65 61 68 83 61 96 52
internal_value=-3.43229e-11 0.00341009 -0.00184529 0.0011443 -0.00254277 0.00018805 0.0054033 -0.00290176 -0.00275638 -0.00301451
internal_weight=712 250 462 117 344 118 133 270 209 113
internal_count=712 250 462 117 344 118 133 270 209 113
is_linear=0
shrinkage=0.01


Tree=3
num_leaves=11
num_cat=0
split_feature=1 0 6 7 2 6 5 2 2 5
split_gain=43.9116 11.0658 6.42176 2.83893 1.58535 0.896246 0.342348 0.196545 0.141814 0.392934
threshold=1.0000000180025095e-35 2.5000000000000004 55.997900000000008 8.5000000000000018 20.500000000000004 94.981200000000015 26.125000000000004 32.250000000000007 25.500000000000004 7.910400000000001
decision_type=2 2 2 2 2 2 2 2 2 2
left_child=1 6 4 -3 -2 -4 -1 8 -6 -10
right_child=2 3 5 -5 7 -7 -8 -9 9 -11
leaf_value=0.0046955931663513186 -0.0012206085308178051 0.0028744165255473208 0.0012025167465209961 -0.00026039578364445615 -0.0031251721028928404 -0.00056114459739011878 0.0057430481156670902 -0.0032777169095464498 -0.0030818934179842471 -0.00199403770159984
leaf_weight=50 74 52 50 65 54 68 83 83 64 69
leaf_count=50 74 52 50 65 54 68 83 83 64 69
internal_value=-2.59515e-11 0.00337599 -0.00182683 0.00113285 -0.00251734 0.00018617 0.00534927 -0.00287274 -0.00269299 -0.00251752
internal_weight=712 250 462 117 344 118 133 270 187 133
internal_count=712 250 462 117 344 118 133 270 187 133
is_linear=0
shrinkage=0.01


Tree=4
num_leaves=11
num_cat=0
split_feature=1 0 6 7 2 6 5 2 2 5
split_gain=43.0378 10.8456 6.29397 2.78243 1.5538 0.878411 0.335535 0.192634 0.138992 0.385115
threshold=1.0000000180025095e-35 2.5000000000000004 55.997900000000008 8.5000000000000018 20.500000000000004 94.981200000000015 26.125000000000004 32.250000000000007 25.500000000000004 7.910400000000001
decision_type=2 2 2 2 2 2 2 2 2 2
left_child=1 6 4 -3 -2 -4 -1 8 -6 -10
right_child=2 3 5 -5 7 -7 -8 -9 9 -11
leaf_value=0.0046486372232437132 -0.0012084023130906594 0.0028456721856043887 0.001190491509437561 -0.0002577916567142193 -0.0030939203721505625 -0.00055553301730576683 0.0056856178447424648 -0.0032449397839695577 -0.0030510745150968432 -0.0019740973218627597
leaf_weight=50 74 52 50 65 54 68 83 83 64 69
leaf_count=50 74 52 50 65 54 68 83 83 64 69
internal_value=1.54872e-11 0.00334223 -0.00180856 0.00112153 -0.00249217 0.000184308 0.00529578 -0.00284401 -0.00266606 -0.00249234
internal_weight=712 250 462 117 344 118 133 270 187 133
internal_count=712 250 462 117 344 118 133 270 187 133
is_linear=0
shrinkage=0.01


Tree=5
num_leaves=11
num_cat=0
split_feature=1 0 6 7 2 6 5 2 2 5
split_gain=42.1813 10.6298 6.16872 2.72706 1.52288 0.86093 0.328858 0.188801 0.136226 0.377451
threshold=1.0000000180025095e-35 2.5000000000000004 55.997900000000008 8.5000000000000018 20.500000000000004 94.981200000000015 26.125000000000004 32.250000000000007 25.500000000000004 7.910400000000001
decision_type=2 2 2 2 2 2 2 2 2 2
left_child=1 6 4 -3 -2 -4 -1 8 -6 -10
right_child=2 3 5 -5 7 -7 -8 -9 9 -11
leaf_value=0.0046021509289741512 -0.0011963184459789378 0.0028172156443962682 0.0011785866737365723 -0.00025521375582768365 -0.0030629812125806456 -0.00054997766719144933 0.0056287615701376675 -0.0032124903546758444 -0.0030205637961626054 -0.0019543563110240992
leaf_weight=50 74 52 50 65 54 68 83 83 64 69
leaf_count=50 74 52 50 65 54 68 83 83 64 69
internal_value=1.42314e-11 0.0033088 -0.00179048 0.00111031 -0.00246724 0.000182465 0.00524282 -0.00281557 -0.0026394 -0.00246742
internal_weight=712 250 462 117 344 118 133 270 187 133
internal_count=712 250 462 117 344 118 133 270 187 133
is_linear=0
shrinkage=0.01


Tree=6
num_leaves=11
num_cat=0
split_feature=1 0 6 7 2 6 5 5 2 5
split_gain=41.3419 10.4183 6.04596 2.67279 1.49258 0.843798 0.322314 0.185226 0.165489 0.0614973
threshold=1.0000000180025095e-35 2.5000000000000004 55.997900000000008 8.5000000000000018 20.500000000000004 94.981200000000015 26.125000000000004 7.7458500000000008 28.250000000000004 8.5896000000000026
decision_type=2 2 2 2 2 2 2 2 2 2
left_child=1 6 4 -3 -2 -4 -1 -6 9 -9
right_child=2 3 5 -5 7 -7 -8 8 -10 -11
leaf_value=0.0045561290621757506 -0.0011843551977260692 0.0027890435090431797 0.001166800594329834 -0.0002526616729222811 -0.0032722321738962268 -0.00054447794661802412 0.005572473923844027 -0.0031206673139431442 -0.0023406229540705683 -0.0026526081791290869
leaf_weight=50 74 52 50 65 61 68 83 61 96 52
leaf_count=50 74 52 50 65 61 68 83 61 96 52
internal_value=-1.465e-11 0.00327572 -0.00177257 0.00109921 -0.00244257 0.00018064 0.00519039 -0.00278742 -0.00264591 -0.00290528
internal_weight=712 250 462 117 344 118 133 270 209 113
internal_count=712 250 462 117 344 118 133 270 209 113
is_linear=0
shrinkage=0.01


Tree=7
num_leaves=11
num_cat=0
split_feature=1 0 6 7 2 6 5 2 2 5
split_gain=40.5192 10.2109 5.92564 2.6196 1.46288 0.827006 0.3159 0.187356 0.132775 0.366596
threshold=1.0000000180025095e-35 2.5000000000000004 55.997900000000008 8.5000000000000018 20.500000000000004 94.981200000000015 26.125000000000004 32.250000000000007 25.500000000000004 7.910400000000001
decision_type=2 2 2 2 2 2 2 2 2 2
left_child=1 6 4 -3 -2 -4 -1 8 -6 -10
right_child=2 3 5 -5 7 -7 -8 -9 9 -11
leaf_value=0.0045105678319931029 -0.0011725115373327926 0.0027611528910123384 0.0011551326990127564 -0.00025013503203025233 -0.0030022277048340554 -0.00053903306231779216 0.005516749537852873 -0.0031549387739365359 -0.0029593888809904458 -0.0019086256709651671
leaf_weight=50 74 52 50 65 54 68 83 83 64 69
leaf_count=50 74 52 50 65 54 68 83 83 64 69
internal_value=4.98101e-11 0.00324296 -0.00175485 0.00108822 -0.00241815 0.000178834 0.00513849 -0.00275954 -0.00258404 -0.00241426
internal_weight=712 250 462 117 344 118 133 270 187 133
internal_count=712 250 462 117 344 118 133 270 187 133
is_linear=0
shrinkage=0.01


Tree=8
num_leaves=11
num_cat=0
split_feature=1 0 6 7 2 6 5 2 2 5
split_gain=39.7129 10.0077 5.80772 2.56747 1.43376 0.810549 0.309613 0.183627 0.130133 0.3593
threshold=1.0000000180025095e-35 2.5000000000000004 55.997900000000008 8.5000000000000018 20.500000000000004 94.981200000000015 26.125000000000004 32.250000000000007 25.500000000000004 7.910400000000001
decision_type=2 2 2 2 2 2 2 2 2 2
left_child=1 6 4 -3 -2 -4 -1 8 -6 -10
right_child=2 3 5 -5 7 -7 -8 -9 9 -11
leaf_value=0.0044654620528221129 -0.0011607865465653908 0.0027335415436671329 0.0011435814619064331 -0.00024763383315159722 -0.0029722054413071387 -0.00053364281706950241 0.0054615818664252034 -0.003123389439410474 -0.0029297950165346268 -0.0018895393653192384
leaf_weight=50 74 52 50 65 54 68 83 83 64 69
leaf_count=50 74 52 50 65 54 68 83 83 64 69
internal_value=1.67429e-12 0.00321053 -0.0017373 0.00107733 -0.00239396 0.000177045 0.0050871 -0.00273195 -0.0025582 -0.00239011
internal_weight=712 250 462 117 344 118 133 270 187 133
internal_count=712 250 462 117 344 118 133 270 187 133
is_linear=0
shrinkage=0.01


Tree=9
num_leaves=11
num_cat=0
split_feature=1 0 6 7 2 6 5 2 2 5
split_gain=38.9226 9.80858 5.69215 2.51638 1.40523 0.794419 0.303452 0.179973 0.127543 0.35215
threshold=1.0000000180025095e-35 2.5000000000000004 55.997900000000008 8.5000000000000018 20.500000000000004 94.981200000000015 26.125000000000004 32.250000000000007 25.500000000000004 7.910400000000001
decision_type=2 2 2 2 2 2 2 2 2 2
left_child=1 6 4 -3 -2 -4 -1 8 -6 -10
right_child=2 3 5 -5 7 -7 -8 -9 9 -11
leaf_value=0.0044208074450492862 -0.0011491785419953835 0.0027062061658272374 0.0011321455717086793 -0.00024515726016117979 -0.0029424833092424607 -0.00052830641322276165 0.0054069661304175136 -0.0030921554134552736 -0.0029004971077665688 -0.001870643971622854
leaf_weight=50 74 52 50 65 54 68 83 83 64 69
leaf_count=50 74 52 50 65 54 68 83 83 64 69
internal_value=6.06929e-11 0.00317842 -0.00171993 0.00106656 -0.00237002 0.000175275 0.00503623 -0.00270463 -0.00253262 -0.00236621
internal_weight=712 250 462 117 344 118 133 270 187 133
internal_count=712 250 462 117 344 118 133 270 187 133
is_linear=0
shrinkage=0.01


Tree=10
num_leaves=11
num_cat=0
split_feature=1 0 6 7 2 6 5 2 2 5
split_gain=38.148 9.61339 5.57888 2.4663 1.37727 0.77861 0.297413 0.176392 0.125005 0.345143
threshold=1.0000000180025095e-35 2.5000000000000004 55.997900000000008 8.5000000000000018 20.500000000000004 94.981200000000015 26.125000000000004 32.250000000000007 25.500000000000004 7.910400000000001
decision_type=2 2 2 2 2 2 2 2 2 2
left_child=1 6 4 -3 -2 -4 -1 8 -6 -10
right_child=2 3 5 -5 7 -7 -8 -9 9 -11
leaf_value=0.0043765998005867003 -0.0011376867664826882 0.0026791439606593205 0.0011208239555358887 -0.00024270572112156796 -0.0029130585602036231 -0.00052302325473112222 0.0053528963729559658 -0.0030612339959087144 -0.0028714921372011305 -0.0018519374814586363
leaf_weight=50 74 52 50 65 54 68 83 83 64 69
leaf_count=50 74 52 50 65 54 68 83 83 64 69
internal_value=4.47872e-11 0.00314664 -0.00170273 0.00105589 -0.00234632 0.000173522 0.00498587 -0.00267758 -0.0025073 -0.00234255
internal_weight=712 250 462 117 344 118 133 270 187 133
internal_count=712 250 462 117 344 118 133 270 187 133
is_linear=0
shrinkage=0.01


Tree=11
num_leaves=11
num_cat=0
split_feature=1 0 6 7 2 2 5 5 2 5
split_gain=37.3889 9.42209 5.46786 2.41722 1.34986 0.773558 0.291495 0.173596 0.168524 0.0552956
threshold=1.0000000180025095e-35 2.5000000000000004 55.997900000000008 8.5000000000000018 20.500000000000004 36.250000000000007 26.125000000000004 7.7458500000000008 28.250000000000004 8.5896000000000026
decision_type=2 2 2 2 2 2 2 2 2 2
left_child=1 6 4 -3 -2 -4 -1 -6 9 -9
right_child=2 3 5 -5 7 -7 -8 8 -10 -11
leaf_value=0.0043328333735466002 -0.0011263100279344095 0.0026523523605786838 0.00086606887771802793 -0.00024027861998631404 -0.0031201539518403228 -0.00077243659496307375 0.0052993672332131711 -0.0029797894348863696 -0.0022057389498998724 -0.0025359581181636226
leaf_weight=50 74 52 68 65 61 50 83 61 96 52
leaf_count=50 74 52 68 65 61 50 83 61 96 52
internal_value=-4.85543e-11 0.00311517 -0.0016857 0.00104534 -0.00232286 0.000171787 0.00493601 -0.0026508 -0.00251382 -0.00277555
internal_weight=712 250 462 117 344 118 133 270 209 113
internal_count=712 250 462 117 344 118 133 270 209 113
is_linear=0
shrinkage=0.01


Tree=12
num_leaves=11
num_cat=0
split_feature=1 0 6 7 2 6 5 2 2 5
split_gain=36.6448 9.23459 5.35905 2.36912 1.323 0.76195 0.285694 0.175135 0.121813 0.335196
threshold=1.0000000180025095e-35 2.5000000000000004 55.997900000000008 8.5000000000000018 20.500000000000004 94.981200000000015 26.125000000000004 32.250000000000007 25.500000000000004 7.910400000000001
decision_type=2 2 2 2 2 2 2 2 2 2
left_child=1 6 4 -3 -2 -4 -1 8 -6 -10
right_child=2 3 5 -5 7 -7 -8 -9 9 -11
leaf_value=0.004289504969120026 -0.0011150469167812451 0.0026258288897000825 0.001107181465625763 -0.00023787595675541805 -0.0028551676151929079 -0.00051898409776827861 0.0052463739284549851 -0.0030065812619335681 -0.00281325567048043 -0.001808499706828076
leaf_weight=50 74 52 50 65 54 68 83 83 64 69
leaf_count=50 74 52 50 65 54 68 83 83 64 69
internal_value=-8.79001e-12 0.00308402 -0.00166884 0.00103488 -0.00229963 0.000170069 0.00488665 -0.0026243 -0.00245462 -0.00229199
internal_weight=712 250 462 117 344 118 133 270 187 133
internal_count=712 250 462 117 344 118 133 270 187 133
is_linear=0
shrinkage=0.01


Tree=13
num_leaves=11
num_cat=0
split_feature=1 0 6 7 2 2 5 2 2 5
split_gain=35.9156 9.05082 5.2524 2.32198 1.29667 0.757011 0.280008 0.17165 0.119389 0.328525
threshold=1.0000000180025095e-35 2.5000000000000004 55.997900000000008 8.5000000000000018 20.500000000000004 36.250000000000007 26.125000000000004 32.250000000000007 25.500000000000004 7.910400000000001
decision_type=2 2 2 2 2 2 2 2 2 2
left_child=1 6 4 -3 -2 -4 -1 8 -6 -10
right_child=2 3 5 -5 7 -7 -8 -9 9 -11
leaf_value=0.0042466104149818419 -0.0011038964584067061 0.0025995705677912782 0.00085518462254720578 -0.00023549713538243222 -0.0028266159196694693 -0.00076570183038711555 0.0051939099237143273 -0.0029765154870159656 -0.0027851231349632142 -0.001790414659873299
leaf_weight=50 74 52 68 65 54 50 83 83 64 69
leaf_count=50 74 52 68 65 54 50 83 83 64 69
internal_value=-1.71614e-11 0.00305318 -0.00165215 0.00102453 -0.00227664 0.000168368 0.00483778 -0.00259805 -0.00243007 -0.00226907
internal_weight=712 250 462 117 344 118 133 270 187 133
internal_count=712 250 462 117 344 118 133 270 187 133
is_linear=0
shrinkage=0.01


Tree=14
num_leaves=11
num_cat=0
split_feature=1 0 6 7 2 6 5 2 2 5
split_gain=35.2009 8.87071 5.14788 2.27577 1.27087 0.745646 0.274437 0.168234 0.117013 0.321988
threshold=1.0000000180025095e-35 2.5000000000000004 55.997900000000008 8.5000000000000018 20.500000000000004 94.981200000000015 26.125000000000004 32.250000000000007 25.500000000000004 7.910400000000001
decision_type=2 2 2 2 2 2 2 2 2 2
left_child=1 6 4 -3 -2 -4 -1 8 -6 -10
right_child=2 3 5 -5 7 -7 -8 -9 9 -11
leaf_value=0.0042041439294815061 -0.0010928572996242627 0.0025735751023659337 0.0010937172055244446 -0.00023314215586735652 -0.0027983497855839905 -0.00051495677408050088 0.0051419710287128589 -0.0029467502200459864 -0.0027572719845920801 -0.0017725106166756671
leaf_weight=50 74 52 50 65 54 68 83 83 64 69
leaf_count=50 74 52 50 65 54 68 83 83 64 69
internal_value=2.84629e-11 0.00302265 -0.00163563 0.00101429 -0.00225387 0.000166685 0.0047894 -0.00257207 -0.00240577 -0.00224638
internal_weight=712 250 462 117 344 118 133 270 187 133
internal_count=712 250 462 117 344 118 133 270 187 133
is_linear=0
shrinkage=0.01


Tree=15
num_leaves=11
num_cat=0
split_feature=1 0 6 7 2 2 5 2 2 5
split_gain=34.5004 8.69418 5.04543 2.23048 1.24558 0.740818 0.268975 0.164886 0.114684 0.31558
threshold=1.0000000180025095e-35 2.5000000000000004 55.997900000000008 8.5000000000000018 20.500000000000004 36.250000000000007 26.125000000000004 32.250000000000007 25.500000000000004 7.910400000000001
decision_type=2 2 2 2 2 2 2 2 2 2
left_child=1 6 4 -3 -2 -4 -1 8 -6 -10
right_child=2 3 5 -5 7 -7 -8 -9 9 -11
leaf_value=0.0041621024250984191 -0.0010819287880046947 0.0025478391005442692 0.00084444874788031869 -0.00023081083022631133 -0.0027703662989316162 -0.00075900812149047852 0.0050905512973486652 -0.0029172827752239733 -0.0027296992018818857 -0.0017547853874123615
leaf_weight=50 74 52 68 65 54 50 83 83 64 69
leaf_count=50 74 52 68 65 54 50 83 83 64 69
internal_value=-6.27858e-12 0.00299242 -0.00161928 0.00100414 -0.00223133 0.000165018 0.00474151 -0.00254635 -0.00238172 -0.00222392
internal_weight=712 250 462 117 344 118 133 270 187 133
internal_count=712 250 462 117 344 118 133 270 187 133
is_linear=0
shrinkage=0.01


Tree=16
num_leaves=11
num_cat=0
split_feature=1 0 6 7 2 6 5 5 2 5
split_gain=33.8138 8.52117 4.94503 2.1871 1.22079 0.729692 0.263622 0.162786 0.171368 0.0496828
threshold=1.0000000180025095e-35 2.5000000000000004 55.997900000000008 17.500000000000004 20.500000000000004 94.981200000000015 26.125000000000004 7.7458500000000008 28.250000000000004 8.5896000000000026
decision_type=2 2 2 2 2 2 2 2 2 2
left_child=1 6 4 -3 -2 -4 -1 -6 9 -9
right_child=2 3 5 -5 7 -7 -8 8 -10 -11
leaf_value=0.0041204816579818726 -0.0010711095703614725 0.0023730674129107906 0.0010804287314414979 -0.00036148838067458846 -0.002975390729356985 -0.00051094189286231999 0.0050396453580224369 -0.0028457631976878056 -0.0020775680243968965 -0.0024250599741935728
leaf_weight=50 74 58 50 59 61 68 83 61 96 52
leaf_count=50 74 58 50 59 61 68 83 61 96 52
internal_value=-2.21843e-11 0.0029625 -0.00160308 0.000994103 -0.00220902 0.000163368 0.0046941 -0.00252089 -0.00238824 -0.00265217
internal_weight=712 250 462 117 344 118 133 270 209 113
internal_count=712 250 462 117 344 118 133 270 209 113
is_linear=0
shrinkage=0.01


Tree=17
num_leaves=11
num_cat=0
split_feature=1 0 6 7 2 2 5 2 2 5
split_gain=33.1409 8.3516 4.84662 2.14682 1.1965 0.724971 0.258376 0.163801 0.111731 0.306467
threshold=1.0000000180025095e-35 2.5000000000000004 55.997900000000008 8.5000000000000018 20.500000000000004 36.250000000000007 26.125000000000004 32.250000000000007 25.500000000000004 7.910400000000001
decision_type=2 2 2 2 2 2 2 2 2 2
left_child=1 6 4 -3 -2 -4 -1 8 -6 -10
right_child=2 3 5 -5 7 -7 -8 -9 9 -11
leaf_value=0.0040792769312858581 -0.0010603983982189283 0.0024986301018641546 0.00083385880379115835 -0.00022741212294651912 -0.0027151992861871367 -0.00075235581398010263 0.0049892490348183967 -0.0028653870935899666 -0.0026742582302540542 -0.0017135249747746233
leaf_weight=50 74 52 68 65 54 50 83 83 64 69
leaf_count=50 74 52 68 65 54 50 83 83 64 69
internal_value=-2.80443e-11 0.00293287 -0.00158705 0.000984162 -0.00218693 0.000161734 0.00464715 -0.00249568 -0.00233159 -0.00217583
internal_weight=712 250 462 117 344 118 133 270 187 133
internal_count=712 250 462 117 344 118 133 270 187 133
is_linear=0
shrinkage=0.01


Tree=18
num_leaves=11
num_cat=0
split_feature=1 0 6 7 2 6 5 2 2 5
split_gain=32.4814 8.1854 4.75018 2.10504 1.17269 0.714079 0.253235 0.160541 0.109507 0.300368
threshold=1.0000000180025095e-35 2.5000000000000004 55.997900000000008 17.500000000000004 20.500000000000004 94.981200000000015 26.125000000000004 32.250000000000007 25.500000000000004 7.910400000000001
decision_type=2 2 2 2 2 2 2 2 2 2
left_child=1 6 4 -3 -2 -4 -1 8 -6 -10
right_child=2 3 5 -5 7 -7 -8 -9 9 -11
leaf_value=0.0040384841442108153 -0.0010497945144369795 0.0023271703154876316 0.0010673133611679077 -0.00035559924982361872 -0.0026880473064051736 -0.00050693979596390447 0.0049393569597278733 -0.0028367332521691381 -0.0026475155632942914 -0.0016963896630466848
leaf_weight=50 74 58 50 59 54 68 83 83 64 69
leaf_count=50 74 58 50 59 54 68 83 83 64 69
internal_value=3.93458e-11 0.00290355 -0.00157118 0.000974321 -0.00216506 0.000160117 0.00460068 -0.00247072 -0.00230827 -0.00215407
internal_weight=712 250 462 117 344 118 133 270 187 133
internal_count=712 250 462 117 344 118 133 270 187 133
is_linear=0
shrinkage=0.01


Tree=19
num_leaves=11
num_cat=0
split_feature=1 0 6 7 2 2 5 2 2 5
split_gain=31.8351 8.02251 4.65565 2.0663 1.14935 0.709464 0.248195 0.157346 0.107328 0.29439
threshold=1.0000000180025095e-35 2.5000000000000004 55.997900000000008 8.5000000000000018 20.500000000000004 36.250000000000007 26.125000000000004 32.250000000000007 25.500000000000004 7.910400000000001
decision_type=2 2 2 2 2 2 2 2 2 2
left_child=1 6 4 -3 -2 -4 -1 8 -6 -10
right_child=2 3 5 -5 7 -7 -8 -9 9 -11
leaf_value=0.0039980990529060361 -0.0010392965658290966 0.0024503723016152017 0.00082341295393074259 -0.00022405820626478928 -0.0026611668037043678 -0.00074574500322341917 0.0048899631902395964 -0.0028083659295576164 -0.0026210403721779584 -0.0016794258269710819
leaf_weight=50 74 52 68 65 54 50 83 83 64 69
leaf_count=50 74 52 68 65 54 50 83 83 64 69
internal_value=1.84172e-11 0.00287451 -0.00155547 0.000964578 -0.00214341 0.000158516 0.00455468 -0.00244602 -0.00228519 -0.00213253
internal_weight=712 250 462 117 344 118 133 270 187 133
internal_count=712 250 462 117 344 118 133 270 187 133
is_linear=0
shrinkage=0.01


Tree=20
num_leaves=11
num_cat=0
split_feature=1 0 6 7 2 6 5 2 10 2
split_gain=31.2015 7.86286 4.563 2.02607 1.13094 0.698799 0.243256 0.205808 0.217542 0.159415
threshold=1.0000000180025095e-35 2.5000000000000004 55.997900000000008 17.500000000000004 18.500000000000004 94.981200000000015 26.125000000000004 32.250000000000007 1.0000000180025095e-35 24.500000000000004
decision_type=2 2 2 2 2 2 2 2 2 2
left_child=1 6 4 -3 -2 -4 -1 8 -6 -10
right_child=2 3 5 -5 7 -7 -8 -9 9 -11
leaf_value=0.0039581180453300471 -0.0007316062152385712 0.0022821614454532489 0.0010543688774108887 -0.00034980269811921198 -0.0016582913537110603 -0.00050295089974122884 0.0048410635396658663 -0.0027802822891488132 -0.0028059977031590646 -0.002140908594034156
leaf_weight=50 50 58 50 59 56 68 83 83 57 98
leaf_count=50 50 58 50 59 56 68 83 83 57 98
internal_value=-6.27858e-12 0.00284576 -0.00153992 0.000954932 -0.00212197 0.00015693 0.00450913 -0.00235843 -0.00219249 -0.00238549
internal_weight=712 250 462 117 344 118 133 294 211 155
internal_count=712 250 462 117 344 118 133 294 211 155
is_linear=0
shrinkage=0.01


Tree=21
num_leaves=11
num_cat=0
split_feature=1 0 6 7 2 2 5 5 2 5
split_gain=30.5806 7.70639 4.4722 1.9888 1.11078 0.694288 0.238416 0.15504 0.174636 0.0455158
threshold=1.0000000180025095e-35 2.5000000000000004 55.997900000000008 8.5000000000000018 20.500000000000004 36.250000000000007 26.125000000000004 7.7458500000000008 28.250000000000004 8.5896000000000026
decision_type=2 2 2 2 2 2 2 2 2 2
left_child=1 6 4 -3 -2 -4 -1 -6 9 -9
right_child=2 3 5 -5 7 -7 -8 8 -10 -11
leaf_value=0.0039185369491577153 -0.0010153249792150549 0.0024030469014094426 0.00081310882287866928 -0.00022074914895571195 -0.0028417971730232239 -0.0007391759276390075 0.0047926529416118758 -0.0027205191235073279 -0.0019551674555987118 -0.0023178452081405198
leaf_weight=50 74 52 68 65 61 50 83 61 96 52
leaf_count=50 74 52 68 65 61 50 83 61 96 52
internal_value=2.84629e-11 0.00281731 -0.00152452 0.000945382 -0.00210075 0.000155361 0.00446404 -0.00239824 -0.00226878 -0.00253522
internal_weight=712 250 462 117 344 118 133 270 209 113
internal_count=712 250 462 117 344 118 133 270 209 113
is_linear=0
shrinkage=0.01


Tree=22
num_leaves=11
num_cat=0
split_feature=1 0 6 7 2 6 5 2 10 2
split_gain=29.9721 7.55303 4.3832 1.95006 1.09102 0.683847 0.233671 0.203047 0.214554 0.158232
threshold=1.0000000180025095e-35 2.5000000000000004 55.997900000000008 17.500000000000004 18.500000000000004 94.981200000000015 26.125000000000004 32.250000000000007 1.0000000180025095e-35 24.500000000000004
decision_type=2 2 2 2 2 2 2 2 2 2
left_child=1 6 4 -3 -2 -4 -1 8 -6 -10
right_child=2 3 5 -5 7 -7 -8 -9 9 -11
leaf_value=0.0038793516635894777 -0.00071413707733154297 0.0022380235842589676 0.0010415927529335023 -0.00034409734152131158 -0.0016166519426873752 -0.00049897595801774188 0.0047447263404547455 -0.0027310051185538971 -0.002757784305957326 -0.0020951664052447495
leaf_weight=50 50 58 50 59 56 68 83 83 57 98
leaf_count=50 50 58 50 59 56 68 83 83 57 98
internal_value=-4.77172e-11 0.00278913 -0.00150927 0.000935928 -0.00207975 0.000153807 0.0044194 -0.00231199 -0.00214717 -0.00233884
internal_weight=712 250 462 117 344 118 133 294 211 155
internal_count=712 250 462 117 344 118 133 294 211 155
is_linear=0
shrinkage=0.01


Tree=23
num_leaves=11
num_cat=0
split_feature=1 0 6 7 2 2 5 5 2 5
split_gain=29.3756 7.40273 4.29597 1.91421 1.07355 0.679437 0.229021 0.152584 0.173253 0.0445317
threshold=1.0000000180025095e-35 2.5000000000000004 55.997900000000008 8.5000000000000018 20.500000000000004 36.250000000000007 26.125000000000004 7.7458500000000008 28.250000000000004 8.5896000000000026
decision_type=2 2 2 2 2 2 2 2 2 2
left_child=1 6 4 -3 -2 -4 -1 -6 9 -9
right_child=2 3 5 -5 7 -7 -8 8 -10 -11
leaf_value=0.0038405579805374148 -0.0009918650420936378 0.0023566362491020789 0.000802944228053093 -0.00021748430453813992 -0.0027914382688334731 -0.00073264858722686774 0.004697278960641608 -0.0026716440280929944 -0.0019106081469605367 -0.0022733468447740262
leaf_weight=50 74 52 68 65 61 50 83 61 96 52
leaf_count=50 74 52 68 65 61 50 83 61 96 52
internal_value=-2.13472e-11 0.00276124 -0.00149418 0.000926569 -0.00205895 0.000152269 0.0043752 -0.00235141 -0.00222298 -0.00248836
internal_weight=712 250 462 117 344 118 133 270 209 113
internal_count=712 250 462 117 344 118 133 270 209 113
is_linear=0
shrinkage=0.01


Tree=24
num_leaves=11
num_cat=0
split_feature=1 0 6 7 2 6 5 2 10 2
split_gain=28.7911 7.25541 4.21049 1.8769 1.0525 0.669215 0.224464 0.20034 0.2116 0.157027
threshold=1.0000000180025095e-35 2.5000000000000004 55.997900000000008 17.500000000000004 18.500000000000004 94.981200000000015 26.125000000000004 32.250000000000007 1.0000000180025095e-35 24.500000000000004
decision_type=2 2 2 2 2 2 2 2 2 2
left_child=1 6 4 -3 -2 -4 -1 8 -6 -10
right_child=2 3 5 -5 7 -7 -8 -9 9 -11
leaf_value=0.0038021523594856262 -0.0006970770359039307 0.0021947401094025579 0.001028982675075531 -0.00033848139189057431 -0.0015758948932800972 -0.00049501507159541635 0.0046503063210521839 -0.0026826786276805833 -0.0027104400124466211 -0.0020503501016266492
leaf_weight=50 50 58 50 59 56 68 83 83 57 98
leaf_count=50 50 58 50 59 56 68 83 83 57 98
internal_value=-9.62715e-12 0.00273363 -0.00147924 0.000917304 -0.00203836 0.000150747 0.00433145 -0.00226647 -0.00210275 -0.00229309
internal_weight=712 250 462 117 344 118 133 294 211 155
internal_count=712 250 462 117 344 118 133 294 211 155
is_linear=0
shrinkage=0.01


Tree=25
num_leaves=11
num_cat=0
split_feature=1 0 6 7 2 2 5 5 2 5
split_gain=28.2181 7.11103 4.1267 1.84241 1.03761 0.664903 0.219996 0.150168 0.171874 0.0435687
threshold=1.0000000180025095e-35 2.5000000000000004 55.997900000000008 8.5000000000000018 20.500000000000004 36.250000000000007 26.125000000000004 7.7458500000000008 28.250000000000004 8.5896000000000026
decision_type=2 2 2 2 2 2 2 2 2 2
left_child=1 6 4 -3 -2 -4 -1 -6 9 -9
right_child=2 3 5 -5 7 -7 -8 8 -10 -11
leaf_value=0.0037641311168670655 -0.00096890577593365245 0.0023111222340510443 0.00079291735940119801 -0.00021426293483147254 -0.0027420304007217534 -0.0007261630654335022 0.0046038030788122892 -0.0026237038657313488 -0.001866964309786757 -0.0022297370089934426
leaf_weight=50 74 52 68 65 61 50 83 61 96 52
leaf_count=50 74 52 68 65 61 50 83 61 96 52
internal_value=-1.67429e-11 0.00270629 -0.00146444 0.00090813 -0.00201798 0.000149239 0.00428814 -0.0023055 -0.00217809 -0.00244241
internal_weight=712 250 462 117 344 118 133 270 209 113
internal_count=712 250 462 117 344 118 133 270 209 113
is_linear=0
shrinkage=0.01


Tree=26
num_leaves=11
num_cat=0
split_feature=1 0 6 7 2 6 5 2 2 5
split_gain=27.6566 6.96952 4.04458 1.80648 1.01696 0.654896 0.215619 0.149196 0.0967066 0.28262
threshold=1.0000000180025095e-35 2.5000000000000004 55.997900000000008 17.500000000000004 20.500000000000004 94.981200000000015 26.125000000000004 32.250000000000007 25.500000000000004 7.910400000000001
decision_type=2 2 2 2 2 2 2 2 2 2
left_child=1 6 4 -3 -2 -4 -1 8 -6 -10
right_child=2 3 5 -5 7 -7 -8 -9 9 -11
leaf_value=0.003726489591598511 -0.00095921666235537154 0.0021522938845486479 0.0010165362954139708 -0.00033295406123339118 -0.0024827269989031336 -0.00049106887596495009 0.0045577650472342253 -0.0026352844109018164 -0.0024595735408365726 -0.0015369749501131583
leaf_weight=50 74 58 50 59 54 68 83 83 64 69
leaf_count=50 74 58 50 59 54 68 83 83 64 69
internal_value=-1.38129e-11 0.00267923 -0.0014498 0.000899049 -0.0019978 0.000147747 0.00424526 -0.00228244 -0.00212584 -0.00198093
internal_weight=712 250 462 117 344 118 133 270 187 133
internal_count=712 250 462 117 344 118 133 270 187 133
is_linear=0
shrinkage=0.01


Tree=27
num_leaves=11
num_cat=0
split_feature=1 0 6 7 2 2 5 2 10 2
split_gain=27.1062 6.83083 3.96409 1.77331 0.999373 0.650681 0.211328 0.193304 0.209546 0.156045
threshold=1.0000000180025095e-35 2.5000000000000004 55.997900000000008 8.5000000000000018 18.500000000000004 36.250000000000007 26.125000000000004 32.250000000000007 1.0000000180025095e-35 24.500000000000004
decision_type=2 2 2 2 2 2 2 2 2 2
left_child=1 6 4 -3 -2 -4 -1 8 -6 -10
right_child=2 3 5 -5 7 -7 -8 -9 9 -11
leaf_value=0.0036892247676849365 -0.00067082497477531438 0.0022664883962044348 0.000783025968600722 -0.00021108492521139291 -0.0015149862053138868 -0.00071971969604492185 0.0045121874651276924 -0.0026089316893772906 -0.0026447339957220511 -0.0019867124484509837
leaf_weight=50 50 52 68 65 56 50 83 83 57 98
leaf_count=50 50 52 68 65 56 50 83 83 57 98
internal_value=-1.21386e-11 0.00265244 -0.0014353 0.000890059 -0.00197782 0.000146269 0.0042028 -0.0022001 -0.00203927 -0.00222869
internal_weight=712 250 462 117 344 118 133 294 211 155
internal_count=712 250 462 117 344 118 133 294 211 155
is_linear=0
shrinkage=0.01


Tree=28
num_leaves=11
num_cat=0
split_feature=1 0 6 7 2 7 5 5 2 5
split_gain=26.5668 6.69489 3.8852 1.73871 0.982959 0.643767 0.207122 0.146189 0.171954 0.0416773
threshold=1.0000000180025095e-35 2.5000000000000004 55.997900000000008 17.500000000000004 20.500000000000004 17.500000000000004 26.125000000000004 7.7458500000000008 28.250000000000004 8.5896000000000026
decision_type=2 2 2 2 2 2 2 2 2 2
left_child=1 6 4 -3 -2 -4 -1 -6 9 -9
right_child=2 3 5 -5 7 -7 -8 8 -10 -11
leaf_value=0.0036523324728012087 -0.00093697230155403543 0.0021106689705930907 0.00077817135435693412 -0.00032751354120545467 -0.002668597063080209 -0.00071656938791275022 0.004467065556939826 -0.0025538748795868923 -0.0018009812819461026 -0.0021685539816434568
leaf_weight=50 74 58 68 59 61 50 83 61 96 52
leaf_count=50 74 58 68 59 61 50 83 61 96 52
internal_value=0 0.00262591 -0.00142095 0.000881158 -0.00195804 0.000144807 0.00416077 -0.00223789 -0.00211218 -0.00237656
internal_weight=712 250 462 117 344 118 133 270 209 113
internal_count=712 250 462 117 344 118 133 270 209 113
is_linear=0
shrinkage=0.01


Tree=29
num_leaves=11
num_cat=0
split_feature=1 0 6 7 2 2 5 2 10 2
split_gain=26.0381 6.56167 3.80789 1.7068 0.964088 0.636481 0.203001 0.190794 0.206636 0.154772
threshold=1.0000000180025095e-35 2.5000000000000004 55.997900000000008 8.5000000000000018 18.500000000000004 36.250000000000007 26.125000000000004 32.250000000000007 1.0000000180025095e-35 24.500000000000004
decision_type=2 2 2 2 2 2 2 2 2 2
left_child=1 6 4 -3 -2 -4 -1 8 -6 -10
right_child=2 3 5 -5 7 -7 -8 -9 9 -11
leaf_value=0.0036158091306686402 -0.00065474700927734377 0.0022227166249201851 0.00077312913011102114 -0.00020794947789265559 -0.0014763691276311875 -0.00071312941312789925 0.0044223951503454921 -0.0025629509787961666 -0.0025994428783132316 -0.0019441114274822936
leaf_weight=50 50 52 68 65 56 50 83 83 57 98
leaf_count=50 50 52 68 65 56 50 83 83 57 98
internal_value=-5.86001e-12 0.00259966 -0.00140674 0.000872347 -0.00193846 0.000143359 0.00411917 -0.00215678 -0.001997 -0.0021851
internal_weight=712 250 462 117 344 118 133 294 211 155
internal_count=712 250 462 117 344 118 133 294 211 155
is_linear=0
shrinkage=0.01


Tree=30
num_leaves=11
num_cat=0
split_feature=1 0 6 7 2 6 5 5 2 5
split_gain=25.52 6.43109 3.73211 1.67348 0.95013 0.634053 0.198961 0.143879 0.170538 0.0407745
threshold=1.0000000180025095e-35 2.5000000000000004 55.997900000000008 17.500000000000004 20.500000000000004 94.981200000000015 26.125000000000004 7.7458500000000008 28.250000000000004 8.5896000000000026
decision_type=2 2 2 2 2 2 2 2 2 2
left_child=1 6 4 -3 -2 -4 -1 -6 9 -9
right_child=2 3 5 -5 7 -7 -8 8 -10 -11
leaf_value=0.0035796511650085451 -0.00091520331195882852 0.002069849680209982 0.00099677728414535515 -0.00032215906401812015 -0.0026215021727515049 -0.00048664292868445905 0.0043781711825405254 -0.0025081730182053615 -0.0017595839314162732 -0.0021270482872541136
leaf_weight=50 74 58 50 59 61 68 83 61 96 52
leaf_count=50 74 58 50 59 61 68 83 61 96 52
internal_value=1.13014e-11 0.00257366 -0.00139267 0.000863623 -0.00191908 0.000141925 0.00407798 -0.00219421 -0.0020695 -0.00233279
internal_weight=712 250 462 117 344 118 133 270 209 113
internal_count=712 250 462 117 344 118 133 270 209 113
is_linear=0
shrinkage=0.01


Tree=31
num_leaves=11
num_cat=0
split_feature=1 0 6 7 2 7 5 2 2 5
split_gain=25.0121 6.30311 3.65784 1.64278 0.931222 0.623949 0.195002 0.143126 0.089438 0.273252
threshold=1.0000000180025095e-35 2.5000000000000004 55.997900000000008 8.5000000000000018 20.500000000000004 17.500000000000004 26.125000000000004 32.250000000000007 25.500000000000004 7.910400000000001
decision_type=2 2 2 2 2 2 2 2 2 2
left_child=1 6 4 -3 -2 -4 -1 8 -6 -10
right_child=2 3 5 -5 7 -7 -8 -9 9 -11
leaf_value=0.0035438546657562253 -0.00090605135705019979 0.0021797910561928385 0.00076404524638372319 -0.00020485644157116232 -0.0023620960392333845 -0.00070750801563262944 0.0043343894883810762 -0.002517856266125139 -0.0023501686099916697 -0.0014429903246354367
leaf_weight=50 74 52 68 65 54 50 83 83 64 69
leaf_count=50 74 52 68 65 54 50 83 83 64 69
internal_value=3.223e-11 0.00254792 -0.00137875 0.000854987 -0.00189988 0.000140506 0.0040372 -0.00217227 -0.00201888 -0.00187953
internal_weight=712 250 462 117 344 118 133 270 187 133
internal_count=712 250 462 117 344 118 133 270 187 133
is_linear=0
shrinkage=0.01


Tree=32
num_leaves=11
num_cat=0
split_feature=1 0 6 7 2 2 5 2 10 2
split_gain=24.5144 6.17768 3.58505 1.61069 0.91543 0.621644 0.191121 0.184165 0.204599 0.15369
threshold=1.0000000180025095e-35 2.5000000000000004 55.997900000000008 17.500000000000004 18.500000000000004 36.250000000000007 26.125000000000004 32.250000000000007 1.0000000180025095e-35 24.500000000000004
decision_type=2 2 2 2 2 2 2 2 2 2
left_child=1 6 4 -3 -2 -4 -1 8 -6 -10
right_child=2 3 5 -5 7 -7 -8 -9 9 -11
leaf_value=0.0035084161281585691 -0.00062998703122138988 0.0020298202335834502 0.00076148783459382909 -0.00031688882132708011 -0.0014185863786510058 -0.00070734573602676391 0.0042910455867468597 -0.0024926777273775584 -0.0025367090419719097 -0.0018836707180860091
leaf_weight=50 50 58 68 59 56 50 83 83 57 98
leaf_count=50 50 58 68 59 56 50 83 83 57 98
internal_value=3.26486e-11 0.00252244 -0.00136496 0.000846437 -0.00188089 0.000139101 0.00399682 -0.00209362 -0.00193665 -0.00212382
internal_weight=712 250 462 117 344 118 133 294 211 155
internal_count=712 250 462 117 344 118 133 294 211 155
is_linear=0
shrinkage=0.01


Tree=33
num_leaves=11
num_cat=0
split_feature=1 0 6 7 2 6 5 5 2 5
split_gain=24.0265 6.05474 3.51371 1.58116 0.900158 0.61481 0.187318 0.140069 0.170554 0.0389878
threshold=1.0000000180025095e-35 2.5000000000000004 55.997900000000008 8.5000000000000018 20.500000000000004 94.981200000000015 26.125000000000004 7.7458500000000008 28.250000000000004 8.5896000000000026
decision_type=2 2 2 2 2 2 2 2 2 2
left_child=1 6 4 -3 -2 -4 -1 -6 9 -9
right_child=2 3 5 -5 7 -7 -8 8 -10 -11
leaf_value=0.00347333197593689 -0.00088496020919567831 0.0021376947714732246 0.000979490351676941 -0.00020180505972642167 -0.0025514752649870077 -0.00048124667476205266 0.0042481350108801606 -0.0024416298651304402 -0.0016969010947893062 -0.00206894929592426
leaf_weight=50 74 52 50 65 61 68 83 61 96 52
leaf_count=50 74 52 50 65 61 68 83 61 96 52
internal_value=1.50686e-11 0.00249722 -0.00135131 0.000837973 -0.00186208 0.00013771 0.00395686 -0.00212988 -0.00200683 -0.00227013
internal_weight=712 250 462 117 344 118 133 270 209 113
internal_count=712 250 462 117 344 118 133 270 209 113
is_linear=0
shrinkage=0.01


Tree=34
num_leaves=11
num_cat=0
split_feature=1 0 6 7 2 2 5 2 10 2
split_gain=23.5484 5.93425 3.44378 1.55026 0.883111 0.608345 0.18359 0.181837 0.201734 0.152357
threshold=1.0000000180025095e-35 2.5000000000000004 55.997900000000008 17.500000000000004 18.500000000000004 36.250000000000007 26.125000000000004 32.250000000000007 1.0000000180025095e-35 24.500000000000004
decision_type=2 2 2 2 2 2 2 2 2 2
left_child=1 6 4 -3 -2 -4 -1 8 -6 -10
right_child=2 3 5 -5 7 -7 -8 -9 9 -11
leaf_value=0.0034385985612869264 -0.00061483752727508549 0.0019905653339007809 0.00075202606180134945 -0.00031170181298660019 -0.0013820029103330204 -0.00070101064443588254 0.0042056535884558441 -0.0024489286577845195 -0.002493375754147245 -0.0018431761495921076
leaf_weight=50 50 58 68 59 56 50 83 83 57 98
leaf_count=50 50 58 68 59 56 50 83 83 57 98
internal_value=-4.18572e-13 0.00247225 -0.0013378 0.000829593 -0.00184346 0.000136333 0.00391729 -0.0020524 -0.00189643 -0.00208228
internal_weight=712 250 462 117 344 118 133 294 211 155
internal_count=712 250 462 117 344 118 133 294 211 155
is_linear=0
shrinkage=0.01


Tree=35
num_leaves=11
num_cat=0
split_feature=1 0 6 7 2 7 5 5 2 5
split_gain=23.0798 5.81616 3.37525 1.52186 0.870167 0.603551 0.179937 0.137859 0.169106 0.0381418
threshold=1.0000000180025095e-35 2.5000000000000004 55.997900000000008 8.5000000000000018 20.500000000000004 17.500000000000004 26.125000000000004 7.7458500000000008 28.250000000000004 8.5896000000000026
decision_type=2 2 2 2 2 2 2 2 2 2
left_child=1 6 4 -3 -2 -4 -1 -6 9 -9
right_child=2 3 5 -5 7 -7 -8 8 -10 -11
leaf_value=0.0034042126417160035 -0.00086432028058412908 0.0020964120901547944 0.00074823170900344853 -0.00019879526816881621 -0.0025065828346815268 -0.00069906781911849975 0.0041635971471487756 -0.0023980591775941066 -0.0016576390651365123 -0.0020294441683934286
leaf_weight=50 74 52 68 65 61 50 83 61 96 52
leaf_count=50 74 52 68 65 61 50 83 61 96 52
internal_value=-1.92543e-11 0.00244752 -0.00132442 0.000821297 -0.00182502 0.000134969 0.00387811 -0.00208832 -0.00196625 -0.00222843
internal_weight=712 250 462 117 344 118 133 270 209 113
internal_count=712 250 462 117 344 118 133 270 209 113
is_linear=0
shrinkage=0.01


Tree=36
num_leaves=11
num_cat=0
split_feature=1 0 6 7 2 6 5 2 2 5
split_gain=22.6205 5.70042 3.30809 1.4921 0.852851 0.596154 0.176356 0.13738 0.082568 0.264235
threshold=1.0000000180025095e-35 2.5000000000000004 55.997900000000008 17.500000000000004 20.500000000000004 94.981200000000015 26.125000000000004 32.250000000000007 25.500000000000004 7.910400000000001
decision_type=2 2 2 2 2 2 2 2 2 2
left_child=1 6 4 -3 -2 -4 -1 8 -6 -10
right_child=2 3 5 -5 7 -7 -8 -9 9 -11
leaf_value=0.0033701706409454348 -0.00085567717616622516 0.0019520696072742858 0.00096253006458282473 -0.00030659707926087464 -0.0022469342361997676 -0.00047587344751638525 0.0041219612130199571 -0.0024060219669916542 -0.0022460807114839556 -0.001353995670442996
leaf_weight=50 74 58 50 59 54 68 83 83 64 69
leaf_count=50 74 58 50 59 54 68 83 83 64 69
internal_value=-2.637e-11 0.00242305 -0.00131117 0.000813084 -0.00180677 0.00013362 0.00383933 -0.00206744 -0.00191716 -0.00178327
internal_weight=712 250 462 117 344 118 133 270 187 133
internal_count=712 250 462 117 344 118 133 270 187 133
is_linear=0
shrinkage=0.01


Tree=37
num_leaves=11
num_cat=0
split_feature=1 0 6 7 2 2 2 10 5 2
split_gain=22.1704 5.58698 3.24226 1.46478 0.838542 0.594165 0.175587 0.199718 0.172847 0.151189
threshold=1.0000000180025095e-35 2.5000000000000004 55.997900000000008 8.5000000000000018 18.500000000000004 36.250000000000007 32.250000000000007 1.0000000180025095e-35 26.125000000000004 24.500000000000004
decision_type=2 2 2 2 2 2 2 2 2 2
left_child=1 8 4 -3 -2 -4 7 -6 -1 -9
right_child=2 3 5 -5 6 -7 -8 9 -10 -11
leaf_value=0.0033364687204360962 -0.0005914891958236694 0.0020559273316310004 0.00074075861012234403 -0.00019582633330271796 -0.0013271908568484442 -0.00069524296522140497 -0.0023819617406431451 -0.00243347577358547 0.0040807416209255355 -0.001785774048493833
leaf_weight=50 50 52 68 65 56 50 83 57 83 98
leaf_count=50 50 52 68 65 56 50 83 57 83 98
internal_value=-1.50686e-11 0.00239882 -0.00129806 0.000804953 -0.0017887 0.000132283 -0.00199231 -0.00183904 0.00380094 -0.00202396
internal_weight=712 250 462 117 344 118 294 211 133 155
internal_count=712 250 462 117 344 118 294 211 133 155
is_linear=0
shrinkage=0.01


Tree=38
num_leaves=11
num_cat=0
split_feature=1 0 6 7 2 7 5 5 2 5
split_gain=21.7292 5.4758 3.17773 1.43612 0.824473 0.584965 0.169407 0.134212 0.169062 0.0364542
threshold=1.0000000180025095e-35 2.5000000000000004 55.997900000000008 17.500000000000004 20.500000000000004 17.500000000000004 26.125000000000004 7.7458500000000008 28.250000000000004 8.5896000000000026
decision_type=2 2 2 2 2 2 2 2 2 2
left_child=1 6 4 -3 -2 -4 -1 -6 9 -9
right_child=2 3 5 -5 7 -7 -8 8 -10 -11
leaf_value=0.0033031040906906129 -0.00083567988228153535 0.0019143190466124436 0.00073470692424213184 -0.00030157259965347033 -0.0024398003445296993 -0.00069013470411300652 0.0040399341985403779 -0.0023346444329277413 -0.0015980936183283725 -0.001974276424600528
leaf_weight=50 74 58 68 59 61 50 83 61 96 52
leaf_count=50 74 58 68 59 61 50 83 61 96 52
internal_value=-5.86001e-12 0.00237483 -0.00128508 0.000796904 -0.00177082 0.00013096 0.00376293 -0.00202711 -0.00190666 -0.00216881
internal_weight=712 250 462 117 344 118 133 270 209 113
internal_count=712 250 462 117 344 118 133 270 209 113
is_linear=0
shrinkage=0.01


Tree=39
num_leaves=11
num_cat=0
split_feature=1 0 6 7 2 2 2 10 5 2
split_gain=21.2968 5.36683 3.1145 1.40984 0.808937 0.581201 0.173427 0.196899 0.166036 0.149803
threshold=1.0000000180025095e-35 2.5000000000000004 55.997900000000008 8.5000000000000018 18.500000000000004 36.250000000000007 32.250000000000007 1.0000000180025095e-35 26.125000000000004 24.500000000000004
decision_type=2 2 2 2 2 2 2 2 2 2
left_child=1 8 4 -3 -2 -4 7 -6 -1 -9
right_child=2 3 5 -5 6 -7 -8 9 -10 -11
leaf_value=0.0032700729846954347 -0.00057721745967864984 0.002016225182093107 0.00073145188391208647 -0.00019289775078113261 -0.0012925396912864277 -0.00068879827260971075 -0.0023403356664152032 -0.0023920098835961863 0.0039995347663580655 -0.0017472822842549305
leaf_weight=50 50 52 68 65 56 50 83 57 83 98
leaf_count=50 50 52 68 65 56 50 83 57 83 98
internal_value=3.05558e-11 0.00235108 -0.00127223 0.000788935 -0.00175311 0.000129651 -0.00195309 -0.00180076 0.0037253 -0.00198438
internal_weight=712 250 462 117 344 118 294 211 133 155
internal_count=712 250 462 117 344 118 294 211 133 155
is_linear=0
shrinkage=0.01


Tree=40
num_leaves=11
num_cat=0
split_feature=1 0 6 7 2 6 5 5 2 5
split_gain=20.8729 5.26003 3.05252 1.38224 0.797073 0.577182 0.162732 0.132099 0.167586 0.0356618
threshold=1.0000000180025095e-35 2.5000000000000004 55.997900000000008 17.500000000000004 20.500000000000004 94.981200000000015 26.125000000000004 7.7458500000000008 28.250000000000004 8.5896000000000026
decision_type=2 2 2 2 2 2 2 2 2 2
left_child=1 6 4 -3 -2 -4 -1 -6 9 -9
right_child=2 3 5 -5 7 -7 -8 8 -10 -11
leaf_value=0.0032373723506927488 -0.00081611088804296543 0.0018772991309905873 0.00094396904706954955 -0.00029662801047502938 -0.0023970052160200528 -0.0004713622173842262 0.0039595394536673309 -0.0022931032493466235 -0.0015608611889183521 -0.0019366733156717742
leaf_weight=50 74 58 50 59 61 68 83 61 96 52
leaf_count=50 74 58 50 59 61 68 83 61 96 52
internal_value=2.93e-12 0.00232757 -0.00125951 0.000781045 -0.00173558 0.000128354 0.00368805 -0.00198758 -0.00186808 -0.00212908
internal_weight=712 250 462 117 344 118 133 270 209 113
internal_count=712 250 462 117 344 118 133 270 209 113
is_linear=0
shrinkage=0.01


Tree=41
num_leaves=11
num_cat=0
split_feature=1 0 6 7 2 2 5 2 2 5
split_gain=20.4576 5.15536 2.99177 1.35696 0.781211 0.568766 0.159493 0.131939 0.076309 0.185962
threshold=1.0000000180025095e-35 2.5000000000000004 55.997900000000008 8.5000000000000018 20.500000000000004 36.250000000000007 26.125000000000004 32.250000000000007 26.500000000000004 7.910400000000001
decision_type=2 2 2 2 2 2 2 2 2 2
left_child=1 6 4 -3 -2 -4 -1 8 -6 -10
right_child=2 3 5 -5 7 -7 -8 -9 9 -11
leaf_value=0.0032049986839294432 -0.00080794982008031895 0.001977289731685932 0.00072239869657684782 -0.00019000914005132822 -0.0021038353253924657 -0.00068257497549057008 0.0039199440881430387 -0.0022995104272681547 -0.0020829154424748179 -0.0013074896335601807
leaf_weight=50 74 52 68 65 63 50 83 83 59 65
leaf_count=50 74 52 68 65 63 50 83 83 59 65
internal_value=1.84172e-11 0.0023043 -0.00124691 0.000773235 -0.00171822 0.000127071 0.00365117 -0.0019677 -0.00182043 -0.00167644
internal_weight=712 250 462 117 344 118 133 270 187 124
internal_count=712 250 462 117 344 118 133 270 187 124
is_linear=0
shrinkage=0.01


Tree=42
num_leaves=11
num_cat=0
split_feature=1 0 6 7 2 7 2 10 5 2
split_gain=20.0505 5.05277 2.93224 1.33038 0.768112 0.565841 0.167531 0.19492 0.156319 0.148707
threshold=1.0000000180025095e-35 2.5000000000000004 55.997900000000008 17.500000000000004 18.500000000000004 17.500000000000004 32.250000000000007 1.0000000180025095e-35 26.125000000000004 24.500000000000004
decision_type=2 2 2 2 2 2 2 2 2 2
left_child=1 8 4 -3 -2 -4 7 -6 -1 -9
right_child=2 3 5 -5 6 -7 -8 9 -10 -11
leaf_value=0.0031729486703872679 -0.00055520465970039371 0.0018409953240690561 0.00071959547260228322 -0.00029176148317627988 -0.0012405307963490487 -0.0006817615866661071 -0.0022765153359217815 -0.0023350215533323453 0.0038807444974600551 -0.0016926578873274279
leaf_weight=50 50 58 68 59 56 50 83 57 83 98
leaf_count=50 50 58 68 59 56 50 83 57 83 98
internal_value=1.25572e-11 0.00228125 -0.00123444 0.000765503 -0.00170104 0.0001258 -0.00189591 -0.00174619 0.00361466 -0.00192888
internal_weight=712 250 462 117 344 118 294 211 133 155
internal_count=712 250 462 117 344 118 294 211 133 155
is_linear=0
shrinkage=0.01


Tree=43
num_leaves=11
num_cat=0
split_feature=1 0 6 7 2 6 5 5 2 5
split_gain=19.6515 4.95222 2.87389 1.30607 0.755284 0.559673 0.153209 0.128839 0.167423 0.0342814
threshold=1.0000000180025095e-35 2.5000000000000004 55.997900000000008 8.5000000000000018 20.500000000000004 94.981200000000015 26.125000000000004 7.7458500000000008 28.250000000000004 8.5896000000000026
decision_type=2 2 2 2 2 2 2 2 2 2
left_child=1 6 4 -3 -2 -4 -1 -6 9 -9
right_child=2 3 5 -5 7 -7 -8 8 -10 -11
leaf_value=0.0031412190675735477 -0.00078898956244056301 0.0019391069962428169 0.00092769062519073491 -0.00018716018475019015 -0.0023336784175184908 -0.0004660080943037482 0.0038419371053396941 -0.0022330111558320092 -0.0015042511528978746 -0.0018835473691041654
leaf_weight=50 74 52 50 65 61 68 83 61 96 52
leaf_count=50 74 52 50 65 61 68 83 61 96 52
internal_value=4.18572e-13 0.00225844 -0.0012221 0.000757847 -0.00168403 0.000124542 0.00357851 -0.00192934 -0.00181132 -0.0020722
internal_weight=712 250 462 117 344 118 133 270 209 113
internal_count=712 250 462 117 344 118 133 270 209 113
is_linear=0
shrinkage=0.01


Tree=44
num_leaves=11
num_cat=0
split_feature=1 0 6 7 2 2 2 10 5 2
split_gain=19.2604 4.85367 2.8167 1.28047 0.740994 0.555504 0.165526 0.192149 0.15016 0.147275
threshold=1.0000000180025095e-35 2.5000000000000004 55.997900000000008 17.500000000000004 18.500000000000004 36.250000000000007 32.250000000000007 1.0000000180025095e-35 26.125000000000004 24.500000000000004
decision_type=2 2 2 2 2 2 2 2 2 2
left_child=1 8 4 -3 -2 -4 7 -6 -1 -9
right_child=2 3 5 -5 6 -7 -8 9 -10 -11
leaf_value=0.0031098068237304689 -0.00054176282882690424 0.0018053937523529449 0.00071164325317915752 -0.00028697244191573835 -0.0012077157412256514 -0.00067685471773147588 -0.0022369089686726951 -0.0022953346737644128 0.0038035177394568206 -0.0016560721123705104
leaf_weight=50 50 58 68 59 56 50 83 57 83 98
leaf_count=50 50 58 68 59 56 50 83 57 83 98
internal_value=-3.97643e-11 0.00223586 -0.00120988 0.000750269 -0.00166719 0.000123297 -0.00185859 -0.00170977 0.00354272 -0.00189116
internal_weight=712 250 462 117 344 118 294 211 133 155
internal_count=712 250 462 117 344 118 294 211 133 155
is_linear=0
shrinkage=0.01


Tree=45
num_leaves=11
num_cat=0
split_feature=1 0 6 7 2 7 5 5 2 5
split_gain=18.8771 4.75708 2.76064 1.25708 0.73025 0.548415 0.147171 0.126814 0.165923 0.0335351
threshold=1.0000000180025095e-35 2.5000000000000004 55.997900000000008 8.5000000000000018 20.500000000000004 17.500000000000004 26.125000000000004 7.7458500000000008 28.250000000000004 8.5896000000000026
decision_type=2 2 2 2 2 2 2 2 2 2
left_child=1 6 4 -3 -2 -4 -1 -6 9 -9
right_child=2 3 5 -5 7 -7 -8 8 -10 -11
leaf_value=0.0030787089586257932 -0.00077043573195869849 0.0019016619599782503 0.00070664408890640034 -0.00018435025215148929 -0.0022928769568927956 -0.00067296540737152104 0.0037654825291001653 -0.0021933990668077936 -0.00146894872499009 -0.0018477601214097097
leaf_weight=50 74 52 68 65 61 50 83 61 96 52
leaf_count=50 74 52 68 65 61 50 83 61 96 52
internal_value=-6.27858e-12 0.0022135 -0.00119778 0.000742766 -0.00165052 0.000122064 0.0035073 -0.00189172 -0.00177464 -0.00203434
internal_weight=712 250 462 117 344 118 133 270 209 113
internal_count=712 250 462 117 344 118 133 270 209 113
is_linear=0
shrinkage=0.01


Tree=46
num_leaves=11
num_cat=0
split_feature=1 0 6 7 2 2 5 2 2 5
split_gain=18.5015 4.66241 2.70571 1.23243 0.715718 0.543383 0.144243 0.126781 0.0704519 0.179786
threshold=1.0000000180025095e-35 2.5000000000000004 55.997900000000008 17.500000000000004 20.500000000000004 36.250000000000007 26.125000000000004 32.250000000000007 26.500000000000004 7.910400000000001
decision_type=2 2 2 2 2 2 2 2 2 2
left_child=1 6 4 -3 -2 -4 -1 8 -6 -10
right_child=2 3 5 -5 7 -7 -8 -9 9 -11
leaf_value=0.0030479217052459717 -0.00076273140472334783 0.0017704812000537741 0.00070273557130028227 -0.00028225931070618711 -0.0020007528057174075 -0.00067053040266036991 0.0037278278836284772 -0.0021980635732053275 -0.0019897558274915663 -0.0012273152333039505
leaf_weight=50 74 58 68 59 63 50 83 83 59 65
leaf_count=50 74 58 68 59 63 50 83 83 59 65
internal_value=-3.76715e-12 0.00219136 -0.0011858 0.000735339 -0.00163401 0.000120843 0.00347222 -0.00187281 -0.00172844 -0.00159009
internal_weight=712 250 462 117 344 118 133 270 187 124
internal_count=712 250 462 117 344 118 133 270 187 124
is_linear=0
shrinkage=0.01


Tree=47
num_leaves=11
num_cat=0
split_feature=1 0 6 7 2 6 2 10 2 5
split_gain=18.1333 4.56963 2.65186 1.20994 0.703596 0.54187 0.159959 0.190194 0.146101 0.141372
threshold=1.0000000180025095e-35 2.5000000000000004 55.997900000000008 8.5000000000000018 18.500000000000004 94.981200000000015 32.250000000000007 1.0000000180025095e-35 24.500000000000004 26.125000000000004
decision_type=2 2 2 2 2 2 2 2 2 2
left_child=1 9 4 -3 -2 -4 7 -6 -9 -1
right_child=2 3 5 -5 6 -7 -8 8 -10 -11
leaf_value=0.0030174425363540648 -0.00052101346850395207 0.0018649403407023505 0.00090990552902221679 -0.00018157903047708366 -0.0011583911787186351 -0.00046144673929494971 -0.0021760828882814889 -0.0022409096046497948 -0.0016042000085723642 0.0036905493578278875
leaf_weight=50 50 52 50 65 56 68 83 57 98 83
leaf_count=50 50 52 50 65 56 68 83 57 98 83
internal_value=-3.516e-11 0.00216945 -0.00117394 0.000727985 -0.00161767 0.000119635 -0.00180418 -0.00165788 -0.00183834 0.0034375
internal_weight=712 250 462 117 344 118 294 211 155 133
internal_count=712 250 462 117 344 118 294 211 155 133
is_linear=0
shrinkage=0.01


Tree=48
num_leaves=11
num_cat=0
split_feature=1 0 6 7 2 2 5 5 5 2
split_gain=17.7724 4.47869 2.59909 1.18619 0.692029 0.531755 0.138559 0.123686 0.167267 0.393731
threshold=1.0000000180025095e-35 2.5000000000000004 55.997900000000008 17.500000000000004 20.500000000000004 36.250000000000007 26.125000000000004 7.7458500000000008 14.200000000000001 28.250000000000004
decision_type=2 2 2 2 2 2 2 2 2 2
left_child=1 6 4 -3 -2 -4 -1 -6 9 -9
right_child=2 3 5 -5 7 -7 -8 8 -10 -11
leaf_value=0.0029872680187225343 -0.00074475466802313532 0.001736244030039886 0.00069407083094120026 -0.00027762087724976623 -0.0022324799563063951 -0.00066442173719406122 0.003653643949922309 -0.0020051444443159325 -0.0021999680609614759 -0.00099101887664933145
leaf_weight=50 74 58 68 59 61 50 83 86 54 69
leaf_count=50 74 58 68 59 61 50 83 86 54 69
internal_value=-3.13929e-11 0.00214775 -0.0011622 0.000720705 -0.00160149 0.000118438 0.00340313 -0.0018363 -0.00172067 -0.00155369
internal_weight=712 250 462 117 344 118 133 270 209 155
internal_count=712 250 462 117 344 118 133 270 209 155
is_linear=0
shrinkage=0.01


Tree=49
num_leaves=11
num_cat=0
split_feature=1 0 6 7 2 7 2 10 2 5
split_gain=17.4188 4.38957 2.54737 1.16456 0.678754 0.530485 0.158446 0.187867 0.144481 0.135802
threshold=1.0000000180025095e-35 2.5000000000000004 55.997900000000008 8.5000000000000018 18.500000000000004 17.500000000000004 32.250000000000007 1.0000000180025095e-35 24.500000000000004 26.125000000000004
decision_type=2 2 2 2 2 2 2 2 2 2
left_child=1 9 4 -3 -2 -4 7 -6 -9 -1
right_child=2 3 5 -5 6 -7 -8 8 -10 -11
leaf_value=0.002957395362854004 -0.00050835561752319333 0.0018289286127457253 0.00069219886380083424 -0.00017884586407588079 -0.0011266346754772324 -0.00066467108726501469 -0.0021388064450528249 -0.0022027450852226795 -0.0015695738062566642 0.0036171074947678899
leaf_weight=50 50 52 68 65 56 50 83 57 98 83
leaf_count=50 50 52 68 65 56 50 83 57 98 83
internal_value=6.69715e-12 0.00212628 -0.00115058 0.000713498 -0.00158548 0.000117254 -0.00176866 -0.00162306 -0.00180242 0.0033691
internal_weight=712 250 462 117 344 118 294 211 155 133
internal_count=712 250 462 117 344 118 294 211 155 133
is_linear=0
shrinkage=0.01


end of trees

feature_importances:
Age=150
Fare=105
cross1=75
cross2=57
Pclass=50
Sex=50
Embarked_S=13

parameters:
[boosting: gbdt]
[objective: regression]
[metric: rmse]
[tree_learner: serial]
[device_type: cpu]
[data_sample_strategy: bagging]
[data: ]
[valid: ]
[num_iterations: 50]
[learning_rate: 0.01]
[num_leaves: 63]
[num_threads: 0]
[seed: 0]
[deterministic: 0]
[force_col_wise: 0]
[force_row_wise: 0]
[histogram_pool_size: -1]
[max_depth: -1]
[min_data_in_leaf: 50]
[min_sum_hessian_in_leaf: 0.001]
[bagging_fraction: 1]
[pos_bagging_fraction: 1]
[neg_bagging_fraction: 1]
[bagging_freq: 0]
[bagging_seed: 3]
[bagging_by_query: 0]
[feature_fraction: 1]
[feature_fraction_bynode: 1]
[feature_fraction_seed: 2]
[extra_trees: 0]
[extra_seed: 6]
[early_stopping_round: 0]
[early_stopping_min_delta: 0]
[first_metric_only: 0]
[max_delta_step: 0]
[lambda_l1: 0]
[lambda_l2: 0]
[linear_lambda: 0]
[min_gain_to_split: 0]
[drop_rate: 0.1]
[max_drop: 50]
[skip_drop: 0.5]
[xgboost_dart_mode: 0]
[uniform_drop: 0]
[drop_seed: 4]
[top_rate: 0.2]
[other_rate: 0.1]
[min_data_per_group: 100]
[max_cat_threshold: 32]
[cat_l2: 10]
[cat_smooth: 10]
[max_cat_to_onehot: 4]
[top_k: 20]
[monotone_constraints: ]
[monotone_constraints_method: basic]
[monotone_penalty: 0]
[feature_contri: ]
[forcedsplits_filename: ]
[refit_decay_rate: 0.9]
[cegb_tradeoff: 1]
[cegb_penalty_split: 0]
[cegb_penalty_feature_lazy: ]
[cegb_penalty_feature_coupled: ]
[path_smooth: 0]
[interaction_constraints: ]
[verbosity: -1]
[saved_feature_importance_type: 0]
[use_quantized_grad: 0]
[num_grad_quant_bins: 4]
[quant_train_renew_leaf: 0]
[stochastic_rounding: 1]
[linear_tree: 0]
[max_bin: 255]
[max_bin_by_feature: ]
[min_data_in_bin: 3]
[bin_construct_sample_cnt: 200000]
[data_random_seed: 1]
[is_enable_sparse: 1]
[enable_bundle: 1]
[use_missing: 1]
[zero_as_missing: 0]
[feature_pre_filter: 1]
[pre_partition: 0]
[two_round: 0]
[header: 0]
[label_column: ]
[weight_column: ]
[group_column: ]
[ignore_column: ]
[categorical_feature: ]
[forcedbins_filename: ]
[precise_float_parser: 0]
[parser_config_file: ]
[objective_seed: 5]
[num_class: 1]
[is_unbalance: 0]
[scale_pos_weight: 1]
[sigmoid: 1]
[boost_from_average: 1]
[reg_sqrt: 0]
[alpha: 0.9]
[fair_c: 1]
[poisson_max_delta_step: 0.7]
[tweedie_variance_power: 1.5]
[lambdarank_truncation_level: 30]
[lambdarank_norm: 1]
[label_gain: ]
[lambdarank_position_bias_regularization: 0]
[eval_at: ]
[multi_error_top_k: 1]
[auc_mu_weights: ]
[num_machines: 1]
[local_listen_port: 12400]
[time_out: 120]
[machine_list_filename: ]
[machines: ]
[gpu_platform_id: -1]
[gpu_device_id: -1]
[gpu_use_dp: 0]
[num_gpu: 1]

end of parameters

pandas_categorical:[]
